{
    "hiddenLayer1": {
        "bias": [
            -0.059043169021606445,
            0.9145108461380005,
            0.629462718963623,
            0.8677804470062256,
            0.7901127338409424,
            -0.48492151498794556,
            0.23112261295318604,
            -0.4938852787017822,
            -0.7409977316856384,
            0.2235947847366333,
            0.5401420593261719,
            0.6340842247009277,
            -0.31677645444869995,
            7.414817810058594e-05,
            -0.5761792659759521,
            -0.5751221776008606,
            0.0382155179977417,
            -0.4621010422706604,
            0.6545249223709106,
            0.394606351852417,
            0.004384279251098633,
            0.8007739782333374,
            -0.8835949301719666,
            0.9319096803665161,
            -0.8534989356994629,
            -0.17386215925216675,
            0.5497764348983765,
            0.4007683992385864,
            -0.6012808084487915,
            0.6377843618392944,
            -0.7524123787879944,
            0.41793620586395264,
            0.9507286548614502,
            -0.3612804412841797,
            0.6817115545272827,
            -0.24503493309020996,
            -0.1213223934173584,
            -0.6603517532348633,
            0.4713103771209717,
            0.505276083946228,
            0.5757472515106201,
            0.5408387184143066,
            -0.9126478433609009,
            0.843329906463623,
            -0.28544968366622925,
            0.9923359155654907,
            -0.9693092703819275,
            0.15646135807037354,
            -0.6707656383514404,
            -0.917561411857605,
            -0.05131465196609497,
            0.3300231695175171,
            -0.8779928088188171,
            0.03525400161743164,
            0.6551882028579712,
            -0.30416232347488403,
            -0.10640734434127808,
            -0.8110782504081726,
            -0.18686169385910034,
            0.48299741744995117,
            0.6732054948806763,
            -0.949905514717102,
            -0.26131319999694824,
            0.20427334308624268
        ],
        "weights": [
            [
                0.3540611267089844,
                -0.9257831573486328,
                -0.23180478811264038,
                0.3025383949279785,
                0.07791221141815186,
                0.4087190628051758,
                0.8263384103775024,
                -0.9958288669586182,
                -0.9310754537582397,
                -0.6433608531951904,
                0.4280374050140381,
                0.8257218599319458,
                0.929951548576355,
                0.21413469314575195,
                -0.5604246854782104,
                0.697545051574707,
                -0.9222854971885681,
                -0.6376032829284668,
                -0.41323286294937134,
                -0.5880059003829956,
                -0.391659140586853,
                -0.5543333292007446,
                0.6928215026855469,
                -0.8449488282203674,
                -0.022929728031158447,
                -0.821277916431427,
                -0.36116528511047363,
                -0.028748154640197754,
                -0.12386006116867065,
                -0.838261604309082,
                -0.13060379028320313,
                -0.7697989344596863,
                -0.7640447616577148,
                0.6375913619995117,
                0.532739520072937,
                0.313867449760437,
                0.04631054401397705,
                0.3590778112411499,
                0.31803858280181885,
                0.11523497104644775,
                0.7157169580459595,
                -0.25392401218414307
            ],
            [
                0.6456685066223145,
                0.9602106809616089,
                0.3805321455001831,
                0.3432135581970215,
                -0.9620748162269592,
                0.7429288625717163,
                0.9299806356430054,
                -0.5500807762145996,
                -0.6487302780151367,
                -0.6243526935577393,
                -0.8572592735290527,
                -0.49367910623550415,
                0.3527175188064575,
                -0.6785371899604797,
                0.145155668258667,
                -0.6760305762290955,
                0.1976027488708496,
                0.30689406394958496,
                0.19336557388305664,
                0.42780375480651855,
                0.5428493022918701,
                -0.16904300451278687,
                -0.03945666551589966,
                -0.1432831883430481,
                0.8772674798965454,
                -0.680378794670105,
                -0.8252446055412292,
                -0.007497549057006836,
                -0.9646618366241455,
                -0.07916861772537231,
                0.9334592819213867,
                0.681006669998169,
                -0.11895793676376343,
                0.3139914274215698,
                0.02422010898590088,
                -0.08103281259536743,
                0.05692028999328613,
                -0.04579925537109375,
                0.36888647079467773,
                0.4081900119781494,
                0.329848051071167,
                0.511627197265625
            ],
            [
                -0.3174343705177307,
                0.8330899477005005,
                0.05966651439666748,
                0.006535053253173828,
                0.030692696571350098,
                -0.6334394812583923,
                -0.8000993728637695,
                -0.5415034294128418,
                0.909409761428833,
                0.030857563018798828,
                0.41903984546661377,
                -0.2338734269142151,
                -0.09187495708465576,
                0.7386610507965088,
                -0.059118032455444336,
                0.9006274938583374,
                0.7739992141723633,
                0.8617132902145386,
                0.8340867757797241,
                0.4550057649612427,
                -0.2572445869445801,
                0.14807820320129395,
                -0.5207740664482117,
                0.6617225408554077,
                -0.7950015068054199,
                0.43342673778533936,
                0.03060901165008545,
                0.6131885051727295,
                -0.23672527074813843,
                -0.4577637314796448,
                0.52769935131073,
                0.44584035873413086,
                -0.6246737837791443,
                -0.4126342535018921,
                -0.5476245880126953,
                0.4060189723968506,
                -0.046073734760284424,
                -0.34772396087646484,
                0.8645155429840088,
                -0.13666391372680664,
                0.683133602142334,
                0.28355538845062256
            ],
            [
                -0.408741295337677,
                0.022216439247131348,
                -0.4296553134918213,
                -0.5081137418746948,
                -0.20378434658050537,
                -0.5679420232772827,
                -0.6740269660949707,
                -0.7487785816192627,
                0.1748133897781372,
                0.47405123710632324,
                -0.2695525884628296,
                -0.1634640097618103,
                0.6790498495101929,
                -0.8361258506774902,
                0.8671450614929199,
                0.2922382354736328,
                -0.07285112142562866,
                -0.5906187295913696,
                -0.1800624132156372,
                -0.6270107626914978,
                -0.21529245376586914,
                0.4073033332824707,
                -0.1746354103088379,
                -0.8092734813690186,
                -0.6387704014778137,
                0.47764062881469727,
                -0.9447579383850098,
                0.22456574440002441,
                0.16077423095703125,
                0.3387974500656128,
                -0.14597159624099731,
                0.752032995223999,
                -0.6389861106872559,
                0.4243730306625366,
                -0.7560808658599854,
                0.15722954273223877,
                0.8564311265945435,
                -0.4301077723503113,
                0.4084509611129761,
                0.031244516372680664,
                -0.9560564756393433,
                -0.8611016273498535
            ],
            [
                0.7229932546615601,
                -0.6972274780273438,
                0.7349255084991455,
                0.015231609344482422,
                0.2299213409423828,
                -0.8556932210922241,
                0.8351690769195557,
                0.6029106378555298,
                -0.07098567485809326,
                0.24247252941131592,
                -0.5717247724533081,
                0.11974084377288818,
                0.6037020683288574,
                0.9059158563613892,
                0.17498290538787842,
                -0.17173218727111816,
                0.06669008731842041,
                -0.48621970415115356,
                0.6822961568832397,
                -0.18127691745758057,
                -0.12520581483840942,
                0.10666918754577637,
                0.06264221668243408,
                -0.9679763317108154,
                -0.036899685859680176,
                0.6325345039367676,
                0.44047462940216064,
                0.9943448305130005,
                0.6764780282974243,
                0.5793730020523071,
                0.8621252775192261,
                0.3994712829589844,
                0.8821455240249634,
                0.5970507860183716,
                -0.5852971076965332,
                0.11206686496734619,
                0.7413575649261475,
                -0.7501279711723328,
                -0.285022497177124,
                -0.3296281099319458,
                0.4923444986343384,
                0.14325273036956787
            ],
            [
                0.0960465669631958,
                0.04916858673095703,
                -0.0349043607711792,
                0.9243143796920776,
                -0.8841413259506226,
                0.478875994682312,
                0.6066105365753174,
                -0.06541824340820313,
                -0.6463298797607422,
                -0.2867202162742615,
                0.997223973274231,
                -0.6143062114715576,
                0.6763800382614136,
                0.6297584772109985,
                0.826168417930603,
                0.6707248687744141,
                0.30623650550842285,
                0.4055415391921997,
                0.5328500270843506,
                -0.2942922115325928,
                0.2876870632171631,
                0.12990081310272217,
                0.12041068077087402,
                -0.6002460718154907,
                -0.12874162197113037,
                0.3702826499938965,
                0.11473143100738525,
                0.5416302680969238,
                -0.13737285137176514,
                -0.7420158982276917,
                0.3317430019378662,
                0.9586737155914307,
                0.3071526288986206,
                -0.703161358833313,
                0.8829880952835083,
                0.42301130294799805,
                0.775714635848999,
                0.4895986318588257,
                -0.6424069404602051,
                -0.8706153035163879,
                -0.7971216440200806,
                -0.6451829671859741
            ],
            [
                0.879258394241333,
                0.9845755100250244,
                -0.6587530374526978,
                0.5499832630157471,
                0.29081201553344727,
                0.746788501739502,
                0.08283329010009766,
                0.9965198040008545,
                0.03447544574737549,
                -0.7872658371925354,
                0.11693048477172852,
                0.43422937393188477,
                0.08399248123168945,
                -0.5127869248390198,
                -0.45103919506073,
                -0.37437719106674194,
                0.34984028339385986,
                -0.19305509328842163,
                0.957365870475769,
                0.308513879776001,
                -0.885902464389801,
                -0.745795488357544,
                0.19150197505950928,
                0.5371088981628418,
                -0.9700808525085449,
                -0.3188994526863098,
                0.8947019577026367,
                -0.8406961560249329,
                -0.11602109670639038,
                -0.7504810094833374,
                -0.3256176710128784,
                -0.2367626428604126,
                -0.765905499458313,
                0.015629291534423828,
                -0.6867793798446655,
                0.5249065160751343,
                -0.23758220672607422,
                0.39605391025543213,
                0.5214263200759888,
                0.7968932390213013,
                0.6087881326675415,
                -0.3616432547569275
            ],
            [
                -0.30721932649612427,
                0.12556982040405273,
                0.780083417892456,
                0.3184034824371338,
                -0.5245898962020874,
                -0.4129716157913208,
                0.27576935291290283,
                0.7839239835739136,
                -0.2988740801811218,
                0.5299738645553589,
                -0.02457404136657715,
                -0.7617652416229248,
                0.559893012046814,
                0.6565265655517578,
                -0.8670632839202881,
                0.7191967964172363,
                -0.45949453115463257,
                -0.6175442934036255,
                -0.6064208745956421,
                0.30374276638031006,
                -0.3834497928619385,
                0.40920841693878174,
                0.6169633865356445,
                -0.8585432171821594,
                -0.8283737301826477,
                0.013017416000366211,
                0.6628830432891846,
                0.9685195684432983,
                -0.37819451093673706,
                -0.6987601518630981,
                0.19964218139648438,
                0.31458616256713867,
                0.4268096685409546,
                -0.020274341106414795,
                -0.3670104146003723,
                0.9022197723388672,
                0.5667539834976196,
                0.9087588787078857,
                0.6861437559127808,
                -0.7321200370788574,
                0.43873274326324463,
                -0.3384302854537964
            ],
            [
                -0.0013742446899414063,
                -0.6819037199020386,
                -0.3609486222267151,
                -0.2821774482727051,
                -0.14139825105667114,
                0.02150702476501465,
                0.11140167713165283,
                -0.8376554250717163,
                0.6380573511123657,
                -0.4793897867202759,
                0.7793079614639282,
                0.7795140743255615,
                -0.30776357650756836,
                -0.20767462253570557,
                0.4423971176147461,
                -0.33924400806427,
                0.4141308069229126,
                0.743636965751648,
                0.8603981733322144,
                -0.27128303050994873,
                0.1704467535018921,
                -0.15987622737884521,
                0.36170661449432373,
                0.07266652584075928,
                -0.5931221842765808,
                0.2704654932022095,
                -0.24118977785110474,
                -0.325242280960083,
                -0.2908017039299011,
                0.42037999629974365,
                0.18087244033813477,
                0.7078241109848022,
                0.7384762763977051,
                0.8199238777160645,
                -0.5743533968925476,
                -0.40292197465896606,
                -0.1585690975189209,
                0.53704833984375,
                -0.2405773401260376,
                -0.5205118060112,
                -0.9423414468765259,
                -0.4612693786621094
            ],
            [
                -0.25010502338409424,
                0.33105599880218506,
                0.7013994455337524,
                0.41065096855163574,
                -0.25481313467025757,
                0.4450364112854004,
                0.2710491418838501,
                0.4739038944244385,
                -0.3845168352127075,
                -0.8888270854949951,
                -0.16438955068588257,
                0.6881496906280518,
                -0.48194926977157593,
                -0.8939239978790283,
                -0.5530401468276978,
                0.19280850887298584,
                -0.18472570180892944,
                0.8673398494720459,
                -0.6263191103935242,
                -0.476901650428772,
                0.605816125869751,
                -0.8063952922821045,
                -0.05125504732131958,
                -0.7971057891845703,
                0.03503561019897461,
                -0.5142067074775696,
                -0.037683188915252686,
                0.5145238637924194,
                -0.45654815435409546,
                0.5010474920272827,
                0.7735260725021362,
                0.2933467626571655,
                -0.16789650917053223,
                0.47492551803588867,
                -0.29600226879119873,
                0.5772902965545654,
                -0.08003801107406616,
                0.9750468730926514,
                0.051194190979003906,
                0.5354450941085815,
                -0.9137802720069885,
                0.8868046998977661
            ],
            [
                -0.39572960138320923,
                0.9928805828094482,
                0.6705546379089355,
                0.7970788478851318,
                -0.19184505939483643,
                0.5378944873809814,
                -0.8292402029037476,
                0.3312532901763916,
                0.14371061325073242,
                -0.635635495185852,
                -0.720001757144928,
                0.3466048240661621,
                0.39940011501312256,
                -0.23420846462249756,
                -0.6910783648490906,
                -0.08607602119445801,
                0.3092433214187622,
                0.8099690675735474,
                -0.312549889087677,
                -0.3974098563194275,
                -0.35792744159698486,
                -0.8376243710517883,
                0.30658793449401855,
                -0.7806370854377747,
                0.08233761787414551,
                0.28163468837738037,
                0.270557165145874,
                -0.3822172284126282,
                0.36785435676574707,
                0.15736174583435059,
                0.8413774967193604,
                0.9721248149871826,
                0.15024244785308838,
                0.5119321346282959,
                0.7692036628723145,
                0.958397388458252,
                0.049826622009277344,
                0.9399634599685669,
                0.289650559425354,
                -0.8064627051353455,
                -0.6956720352172852,
                0.5696488618850708
            ],
            [
                0.7037280797958374,
                -0.6645596027374268,
                0.8490637540817261,
                -0.38234788179397583,
                0.6446837186813354,
                0.6590328216552734,
                0.30510222911834717,
                -0.752726137638092,
                -0.6988946199417114,
                0.46747779846191406,
                0.5538617372512817,
                -0.4795317053794861,
                -0.45018452405929565,
                -0.1645035743713379,
                0.7910254001617432,
                0.16759824752807617,
                -0.796649158000946,
                -0.05161285400390625,
                0.008975744247436523,
                -0.8245243430137634,
                -0.9013704061508179,
                -0.4790920615196228,
                0.9446793794631958,
                -0.9429730772972107,
                0.5707346200942993,
                0.8846428394317627,
                0.3466775417327881,
                0.7642718553543091,
                -0.8110292553901672,
                -0.08367359638214111,
                0.3044140338897705,
                0.8926988840103149,
                0.25176680088043213,
                0.15347778797149658,
                -0.48964905738830566,
                -0.1035495400428772,
                -0.18748944997787476,
                0.8154531717300415,
                0.14372432231903076,
                0.1136159896850586,
                0.28293097019195557,
                -0.3024139404296875
            ],
            [
                0.8327465057373047,
                0.5330824851989746,
                0.4251096248626709,
                0.0003447532653808594,
                0.7364332675933838,
                -0.6265032291412354,
                -0.9906795024871826,
                0.9119089841842651,
                -0.5278736352920532,
                -0.4697715640068054,
                0.8565883636474609,
                -0.4708467125892639,
                -0.8990369439125061,
                0.7412310838699341,
                0.875830888748169,
                0.8652349710464478,
                0.9302018880844116,
                -0.20784276723861694,
                0.16964900493621826,
                0.822900652885437,
                -0.9560760259628296,
                -0.6768733263015747,
                -0.6667484045028687,
                -0.05962550640106201,
                0.1356372833251953,
                -0.8512952327728271,
                -0.9159011840820313,
                -0.7507467865943909,
                0.4316357374191284,
                -0.21831512451171875,
                0.8833374977111816,
                0.2643822431564331,
                -0.6852326393127441,
                0.30844712257385254,
                -0.7352730631828308,
                -0.9487993121147156,
                0.6819438934326172,
                -0.7259525656700134,
                0.9631096124649048,
                -0.845929741859436,
                -0.19572412967681885,
                0.8196979761123657
            ],
            [
                -0.09476107358932495,
                0.5609290599822998,
                -0.440945565700531,
                -0.2295261025428772,
                0.4911309480667114,
                0.35121166706085205,
                0.9401228427886963,
                0.31403160095214844,
                0.39513564109802246,
                -0.7367504835128784,
                0.6472833156585693,
                -0.6644898653030396,
                0.3988867998123169,
                0.7959880828857422,
                -0.5803910493850708,
                0.6481400728225708,
                0.2276238203048706,
                0.20129382610321045,
                0.5314774513244629,
                -0.5079940557479858,
                0.5160610675811768,
                -0.16007542610168457,
                -0.24326705932617188,
                0.567261815071106,
                -0.4781315326690674,
                0.030780315399169922,
                0.5303714275360107,
                -0.3240613341331482,
                0.8350561857223511,
                0.35006940364837646,
                0.35916221141815186,
                -0.2597048878669739,
                -0.08900153636932373,
                0.9182167053222656,
                0.5107690095901489,
                -0.5978705883026123,
                0.2694283723831177,
                0.4508918523788452,
                0.7161610126495361,
                -0.33543598651885986,
                0.7141413688659668,
                0.36344432830810547
            ],
            [
                0.11302828788757324,
                0.1594322919845581,
                0.4196830987930298,
                -0.23883169889450073,
                -0.6129438877105713,
                -0.37902313470840454,
                -0.7073541879653931,
                -0.12093788385391235,
                -0.862962007522583,
                0.13257038593292236,
                0.635794997215271,
                0.704299807548523,
                0.654438853263855,
                -0.3334246277809143,
                0.2346712350845337,
                -0.669622540473938,
                -0.49836844205856323,
                -0.4152594208717346,
                0.6895397901535034,
                0.2419266700744629,
                0.4957391023635864,
                0.607756495475769,
                -0.2473042607307434,
                0.8978685140609741,
                -0.12281519174575806,
                -0.7964124083518982,
                0.6140295267105103,
                0.5417488813400269,
                0.9177290201187134,
                -0.022526144981384277,
                -0.45817697048187256,
                0.03075718879699707,
                -0.8630937933921814,
                0.9615061283111572,
                0.7919255495071411,
                -0.4760376811027527,
                -0.4175170063972473,
                -0.915428638458252,
                0.40302443504333496,
                -0.2804790139198303,
                0.21714162826538086,
                0.03881943225860596
            ],
            [
                -0.12841951847076416,
                0.7053948640823364,
                0.6584919691085815,
                0.20195794105529785,
                -0.7929736375808716,
                -0.7567675113677979,
                -0.10850226879119873,
                0.44895315170288086,
                0.7389715909957886,
                -0.5007457733154297,
                -0.7983511686325073,
                0.6368399858474731,
                0.3764389753341675,
                -0.5947635769844055,
                0.2508695125579834,
                -0.08181214332580566,
                -0.6770345568656921,
                -0.7716565728187561,
                0.4600108861923218,
                0.3537226915359497,
                -0.6347503662109375,
                0.421517014503479,
                0.14564824104309082,
                -0.11078810691833496,
                -0.9959999918937683,
                0.23021960258483887,
                -0.707763671875,
                -0.27647900581359863,
                -0.5526387691497803,
                0.33105576038360596,
                0.14734172821044922,
                0.31894171237945557,
                0.03645062446594238,
                -0.19416630268096924,
                -0.4791002869606018,
                0.2434769868850708,
                0.04906618595123291,
                0.4123973846435547,
                -0.3075699210166931,
                -0.21196222305297852,
                0.911651611328125,
                -0.10592108964920044
            ],
            [
                0.2880905866622925,
                0.29931533336639404,
                0.6757473945617676,
                -0.7937215566635132,
                0.6222808361053467,
                0.9040907621383667,
                0.6662893295288086,
                -0.02399653196334839,
                -0.7306596040725708,
                0.0878063440322876,
                -0.8783483505249023,
                0.15855228900909424,
                0.09180629253387451,
                0.3518712520599365,
                0.45078861713409424,
                0.8153272867202759,
                0.7992324829101563,
                -0.21815556287765503,
                -0.03733092546463013,
                0.11817419528961182,
                0.8182950019836426,
                0.7685027122497559,
                0.6390738487243652,
                0.06177198886871338,
                -0.18243104219436646,
                0.05147135257720947,
                0.7542020082473755,
                0.6056067943572998,
                -0.0368770956993103,
                -0.3517190217971802,
                -0.9695153832435608,
                -0.748786449432373,
                0.9475963115692139,
                0.706231951713562,
                -0.5425080060958862,
                0.5698771476745605,
                0.6103228330612183,
                -0.8762186765670776,
                -0.45411938428878784,
                0.8796632289886475,
                0.21158766746520996,
                -0.3324677348136902
            ],
            [
                -0.6966060400009155,
                -0.9805964827537537,
                -0.5109958052635193,
                -0.8812786936759949,
                0.8186359405517578,
                0.2708486318588257,
                0.081390380859375,
                -0.06318986415863037,
                0.08914363384246826,
                -0.15010690689086914,
                -0.42411601543426514,
                -0.8490844368934631,
                0.6674619913101196,
                0.6273553371429443,
                0.9051176309585571,
                0.27306878566741943,
                -0.40952175855636597,
                -0.4466014504432678,
                0.3035534620285034,
                -0.158308207988739,
                -0.4990050792694092,
                0.00978541374206543,
                0.29918384552001953,
                -0.9291279911994934,
                -0.3798917531967163,
                0.4229651689529419,
                -0.38324737548828125,
                -0.5002285242080688,
                -0.36544716358184814,
                0.28428494930267334,
                0.5379869937896729,
                -0.06205320358276367,
                0.3036884069442749,
                -0.9730088114738464,
                0.05666804313659668,
                0.12232434749603271,
                0.2978397607803345,
                -0.8619415760040283,
                -0.9408655166625977,
                -0.6130166053771973,
                -0.012048542499542236,
                -0.364981472492218
            ],
            [
                -0.34458649158477783,
                -0.7376261949539185,
                -0.556983470916748,
                0.9284822940826416,
                -0.14714789390563965,
                -0.0035848617553710938,
                0.23203575611114502,
                0.6945438385009766,
                0.4974100589752197,
                -0.7581788301467896,
                -0.006272315979003906,
                0.5682820081710815,
                -0.13807058334350586,
                -0.583307147026062,
                -0.8149653673171997,
                0.3617008924484253,
                0.051245689392089844,
                0.46931958198547363,
                -0.10031211376190186,
                0.9891924858093262,
                -0.22699201107025146,
                -0.07332092523574829,
                0.04586052894592285,
                0.8953323364257813,
                -0.7754811644554138,
                0.18391895294189453,
                0.9544668197631836,
                -0.3884977698326111,
                -0.8281295299530029,
                -0.4105146527290344,
                0.14940118789672852,
                -0.17271602153778076,
                -0.14814084768295288,
                0.5924177169799805,
                -0.24423366785049438,
                0.7047111988067627,
                -0.4111671447753906,
                0.9878020286560059,
                0.3992551565170288,
                -0.9137571454048157,
                -0.7703768014907837,
                -0.6070171594619751
            ],
            [
                0.09155261516571045,
                -0.19032436609268188,
                0.8395595550537109,
                -0.5467464923858643,
                0.8609212636947632,
                0.30887913703918457,
                0.3529413938522339,
                0.8501137495040894,
                -0.9181128740310669,
                -0.7203795909881592,
                -0.10402572154998779,
                0.9772194623947144,
                -0.495860755443573,
                -0.9201067686080933,
                0.931686282157898,
                0.11564147472381592,
                -0.7482362985610962,
                -0.47882843017578125,
                -0.7349572777748108,
                0.07904767990112305,
                0.37303078174591064,
                0.8574604988098145,
                0.8348139524459839,
                0.07774198055267334,
                -0.5537066459655762,
                0.8226159811019897,
                -0.5230028629302979,
                -0.46746379137039185,
                -0.9477607607841492,
                -0.13002008199691772,
                -0.8129388689994812,
                0.14379191398620605,
                0.6796555519104004,
                -0.9733793139457703,
                0.5970453023910522,
                0.5405768156051636,
                0.3354998826980591,
                -0.05001330375671387,
                0.39069056510925293,
                0.4173870086669922,
                0.22960710525512695,
                -0.7133351564407349
            ],
            [
                0.7337464094161987,
                -0.6334419250488281,
                0.32629263401031494,
                -0.15061211585998535,
                -0.3816782236099243,
                0.8474642038345337,
                0.11443054676055908,
                0.6973693370819092,
                0.22049498558044434,
                -0.028108954429626465,
                0.5321832895278931,
                -0.7017630338668823,
                0.41818439960479736,
                0.35479938983917236,
                -0.22476595640182495,
                0.9507205486297607,
                0.4070385694503784,
                0.6452139616012573,
                -0.8622183799743652,
                -0.4491695165634155,
                0.3248695135116577,
                -0.8355976343154907,
                -0.8521242141723633,
                -0.1345537304878235,
                0.49990224838256836,
                0.09786248207092285,
                -0.7438631653785706,
                -0.082710862159729,
                -0.6725304126739502,
                -0.4571983218193054,
                -0.6881044507026672,
                -0.9387840032577515,
                -0.09064024686813354,
                0.6381882429122925,
                -0.08939617872238159,
                0.5276814699172974,
                0.48565244674682617,
                -0.9749655723571777,
                0.2250509262084961,
                -0.29385262727737427,
                -0.0030745267868041992,
                -0.24276578426361084
            ],
            [
                -0.5848902463912964,
                -0.8879663944244385,
                0.7796183824539185,
                -0.6341696977615356,
                0.5190721750259399,
                0.4248323440551758,
                -0.4963880181312561,
                -0.9300974011421204,
                -0.25029826164245605,
                -0.3319856524467468,
                -0.7822215557098389,
                0.6151480674743652,
                -0.8320834636688232,
                0.315640926361084,
                0.8712848424911499,
                0.08520567417144775,
                0.6431105136871338,
                -0.5859134793281555,
                0.3971012830734253,
                0.7043265104293823,
                0.32344627380371094,
                0.03528940677642822,
                -0.38506966829299927,
                -0.1488722562789917,
                -0.4790581464767456,
                -0.360035240650177,
                -0.9238213896751404,
                0.22708916664123535,
                0.636890172958374,
                -0.16658717393875122,
                -0.7685264348983765,
                -0.9480000138282776,
                -0.0545535683631897,
                -0.9889081120491028,
                -0.5821696519851685,
                -0.5354814529418945,
                0.4359241724014282,
                -0.07855772972106934,
                -0.4655787944793701,
                -0.8143740892410278,
                0.5894565582275391,
                -0.24780035018920898
            ],
            [
                0.7573730945587158,
                -0.932159423828125,
                0.6720588207244873,
                -0.15742117166519165,
                0.7109510898590088,
                -0.9138546586036682,
                -0.7603199481964111,
                0.4152776002883911,
                0.40959155559539795,
                0.2749694585800171,
                -0.9697920083999634,
                -0.7392807006835938,
                0.7959113121032715,
                -0.3298272490501404,
                -0.6631020307540894,
                0.023000478744506836,
                -0.6929370760917664,
                0.17031073570251465,
                0.25447404384613037,
                -0.640937089920044,
                -0.884242832660675,
                0.2655658721923828,
                -0.2231067419052124,
                -0.4197242259979248,
                -0.2985098958015442,
                0.6983355283737183,
                0.11469697952270508,
                -0.11288392543792725,
                0.2877920866012573,
                0.8668966293334961,
                -0.31210994720458984,
                0.045165300369262695,
                0.9347372055053711,
                -0.6400511264801025,
                0.8877440690994263,
                0.6456882953643799,
                -0.5539058446884155,
                -0.8725759387016296,
                0.060965895652770996,
                0.8556857109069824,
                0.4023934602737427,
                0.09117388725280762
            ],
            [
                0.19830477237701416,
                0.7613465785980225,
                -0.5466970205307007,
                -0.778694748878479,
                -0.9315904378890991,
                0.623613715171814,
                0.47577929496765137,
                -0.5725275278091431,
                0.7393709421157837,
                -0.25865477323532104,
                0.20436573028564453,
                -0.6803532838821411,
                0.44283533096313477,
                -0.09729874134063721,
                0.43434369564056396,
                -0.6700485944747925,
                -0.8095066547393799,
                0.30124032497406006,
                0.017841458320617676,
                0.2356586456298828,
                0.23597753047943115,
                0.37779033184051514,
                0.12340259552001953,
                -0.11833423376083374,
                0.8238844871520996,
                0.25082671642303467,
                0.942631721496582,
                0.679570198059082,
                -0.3467797636985779,
                0.03380560874938965,
                0.7959752082824707,
                0.851525068283081,
                -0.20484775304794312,
                -0.7507217526435852,
                -0.927169680595398,
                -0.13643819093704224,
                0.8728920221328735,
                0.5486096143722534,
                0.2910343408584595,
                0.6122629642486572,
                -0.7100450992584229,
                -0.504599928855896
            ],
            [
                0.7327902317047119,
                0.3981013298034668,
                0.3662533760070801,
                -0.9372583627700806,
                0.5885946750640869,
                -0.33250635862350464,
                0.08058309555053711,
                -0.17574667930603027,
                0.9034711122512817,
                -0.5416266918182373,
                0.9476559162139893,
                -0.214863121509552,
                -0.7177422046661377,
                0.19848263263702393,
                -0.27223140001296997,
                0.9618279933929443,
                0.8517029285430908,
                0.7615742683410645,
                0.757803201675415,
                0.7032279968261719,
                -0.44327354431152344,
                -0.9929184913635254,
                0.7760583162307739,
                0.4202883243560791,
                0.8799735307693481,
                0.32466793060302734,
                -0.2886773943901062,
                0.4922363758087158,
                0.6146228313446045,
                0.20672273635864258,
                0.42414605617523193,
                0.3474130630493164,
                -0.3951759934425354,
                -0.209600567817688,
                0.4101545810699463,
                -0.8065813183784485,
                0.4578930139541626,
                -0.5092623233795166,
                0.017671942710876465,
                0.36136412620544434,
                -0.05088895559310913,
                -0.0346720814704895
            ],
            [
                0.2313687801361084,
                -0.8361893892288208,
                -0.12573033571243286,
                0.19319677352905273,
                -0.9844865202903748,
                -0.3641561269760132,
                -0.04899996519088745,
                0.7187414169311523,
                0.19257032871246338,
                -0.04191845655441284,
                0.49479973316192627,
                -0.38714128732681274,
                -0.16194498538970947,
                -0.1805323362350464,
                0.32418131828308105,
                -0.6697085499763489,
                -0.5659095048904419,
                -0.46909600496292114,
                0.7544375658035278,
                0.781503438949585,
                0.13572800159454346,
                -0.45516306161880493,
                0.1916581392288208,
                0.32914674282073975,
                -0.9972699880599976,
                0.6823958158493042,
                -0.6531813144683838,
                0.3640941381454468,
                -0.3684931993484497,
                0.31214654445648193,
                0.5105952024459839,
                0.8628755807876587,
                0.47595715522766113,
                -0.615135133266449,
                0.05607247352600098,
                0.49147069454193115,
                0.020708799362182617,
                -0.9929275512695313,
                0.2102121114730835,
                -0.786720871925354,
                -0.03484600782394409,
                -0.29498809576034546
            ],
            [
                0.8032090663909912,
                0.5244796276092529,
                -0.8496808409690857,
                -0.8664995431900024,
                0.958570122718811,
                -0.31877678632736206,
                0.8879380226135254,
                0.740073561668396,
                0.8169511556625366,
                -0.5672250986099243,
                -0.0682682991027832,
                0.14609789848327637,
                -0.5644950866699219,
                -0.385872483253479,
                0.4929165840148926,
                0.7995990514755249,
                0.2456343173980713,
                -0.1949368119239807,
                0.3101942539215088,
                0.10850989818572998,
                -0.7189795970916748,
                0.6950591802597046,
                -0.835417628288269,
                0.7724910974502563,
                -0.28423207998275757,
                -0.8283451795578003,
                -0.017296791076660156,
                -0.0709528923034668,
                0.1368088722229004,
                0.6877151727676392,
                0.7551848888397217,
                -0.05998218059539795,
                0.21219468116760254,
                0.9055041074752808,
                0.07351827621459961,
                0.17076480388641357,
                -0.4132726788520813,
                -0.038543701171875,
                -0.08916163444519043,
                -0.5963214635848999,
                0.3942312002182007,
                0.8425700664520264
            ],
            [
                0.8297361135482788,
                -0.5433024168014526,
                0.04269301891326904,
                0.6293351650238037,
                0.7023319005966187,
                0.8477562665939331,
                -0.0604705810546875,
                -0.1891581416130066,
                -0.8712233901023865,
                -0.3654114603996277,
                -0.024575769901275635,
                0.9012676477432251,
                0.35035645961761475,
                0.1470789909362793,
                -0.11602908372879028,
                -0.720596432685852,
                -0.7161121368408203,
                -0.4283139705657959,
                -0.9654114842414856,
                0.22390568256378174,
                0.7838808298110962,
                0.9400926828384399,
                -0.7025760412216187,
                -0.04535442590713501,
                -0.47318005561828613,
                0.25888025760650635,
                0.8654839992523193,
                -0.06950151920318604,
                -0.34688854217529297,
                0.7080540657043457,
                -0.5197250843048096,
                -0.5171524286270142,
                -0.8352483510971069,
                0.5229679346084595,
                -0.8878172636032104,
                0.8670835494995117,
                0.3707242012023926,
                0.05171215534210205,
                -0.3220745921134949,
                0.49950075149536133,
                0.6863007545471191,
                0.6533496379852295
            ],
            [
                0.03665721416473389,
                -0.19957131147384644,
                -0.7152606248855591,
                0.31606078147888184,
                0.08431649208068848,
                -0.14357459545135498,
                0.35064923763275146,
                -0.6917777061462402,
                -0.35969382524490356,
                0.2907419204711914,
                -0.3943537473678589,
                0.5949517488479614,
                0.8175618648529053,
                0.8645265102386475,
                0.46043574810028076,
                -0.25193965435028076,
                -0.48236197233200073,
                0.16848981380462646,
                0.22833526134490967,
                0.00048553943634033203,
                0.33324146270751953,
                -0.24869680404663086,
                0.11266827583312988,
                0.20032501220703125,
                -0.8779726028442383,
                -0.8356195688247681,
                0.8782504796981812,
                0.621528148651123,
                0.8506811857223511,
                0.5316001176834106,
                0.022296547889709473,
                -0.11266165971755981,
                -0.6679712533950806,
                0.3070359230041504,
                -0.7966009378433228,
                0.41634535789489746,
                -0.8365387320518494,
                0.5540482997894287,
                0.7245675325393677,
                -0.19623255729675293,
                -0.15520977973937988,
                -0.6697862148284912
            ],
            [
                -0.3376479148864746,
                -0.805259644985199,
                0.8591549396514893,
                0.41041243076324463,
                -0.2876216173171997,
                0.027644753456115723,
                -0.3612523078918457,
                0.7128639221191406,
                -0.6391136646270752,
                0.39005088806152344,
                -0.17446774244308472,
                0.561211347579956,
                0.5120782852172852,
                -0.010087251663208008,
                0.4394618272781372,
                0.1336064338684082,
                -0.1594061255455017,
                -0.02893805503845215,
                -0.8440970182418823,
                0.7279322147369385,
                0.3030906915664673,
                0.46293890476226807,
                0.9313312768936157,
                -0.28056401014328003,
                0.6264002323150635,
                0.485379695892334,
                -0.5559964179992676,
                -0.5698323845863342,
                -0.6698300838470459,
                -0.2257826328277588,
                -0.17111313343048096,
                -0.007477998733520508,
                -0.031042277812957764,
                -0.3119581937789917,
                -0.5970655679702759,
                0.6813360452651978,
                0.7156866788864136,
                0.04168212413787842,
                0.39420008659362793,
                -0.9234270453453064,
                -0.5682669878005981,
                -0.7802677154541016
            ],
            [
                0.943811297416687,
                0.20964503288269043,
                0.07724618911743164,
                0.07741761207580566,
                -0.9497610330581665,
                -0.9516919255256653,
                0.23332059383392334,
                0.778171181678772,
                0.3513987064361572,
                -0.3037404417991638,
                0.7095025777816772,
                -0.929165244102478,
                -0.6773402690887451,
                0.19488215446472168,
                -0.4851616621017456,
                -0.24717265367507935,
                0.5250520706176758,
                0.2890557050704956,
                0.5817141532897949,
                -0.48242586851119995,
                -0.7419865131378174,
                -0.730243980884552,
                -0.07949137687683105,
                0.9393495321273804,
                0.9854426383972168,
                0.9621907472610474,
                0.3335496187210083,
                -0.9379844069480896,
                -0.6060762405395508,
                0.5532819032669067,
                0.6997998952865601,
                -0.6622650623321533,
                -0.23707300424575806,
                -0.22295397520065308,
                0.4151526689529419,
                -0.18683403730392456,
                -0.17464590072631836,
                -0.35152673721313477,
                -0.4086628556251526,
                -0.8232471346855164,
                0.34473276138305664,
                -0.6991603374481201
            ],
            [
                0.6673924922943115,
                0.49572181701660156,
                -0.23757410049438477,
                -0.579780101776123,
                0.020774006843566895,
                -0.9485183358192444,
                -0.9980659484863281,
                0.5383480787277222,
                -0.6905049085617065,
                -0.7283099293708801,
                -0.5411432981491089,
                -0.7511553168296814,
                -0.7428672313690186,
                -0.5789525508880615,
                0.5823942422866821,
                -0.6808516979217529,
                -0.18502885103225708,
                0.13567626476287842,
                -0.9810517430305481,
                0.15270614624023438,
                0.8986032009124756,
                -0.20400571823120117,
                -0.43214118480682373,
                -0.288230836391449,
                0.6213483810424805,
                0.2163320779800415,
                0.30310630798339844,
                0.7981013059616089,
                -0.4389351010322571,
                0.6039459705352783,
                -0.9543111324310303,
                -0.7715425491333008,
                0.09966778755187988,
                -0.19188523292541504,
                -0.3513227105140686,
                -0.879558265209198,
                -0.14040356874465942,
                -0.34938865900039673,
                0.658789873123169,
                0.1690915822982788,
                -0.07769858837127686,
                -0.8823533654212952
            ],
            [
                0.1794341802597046,
                -0.4613059163093567,
                0.0003304481506347656,
                0.49858248233795166,
                0.35366523265838623,
                -0.8639932870864868,
                0.5175307989120483,
                -0.4936286211013794,
                -0.9653900861740112,
                -0.6864749193191528,
                0.07423019409179688,
                -0.253620982170105,
                0.9348734617233276,
                -0.7094377279281616,
                -0.9505146741867065,
                0.732974648475647,
                -0.14837288856506348,
                0.6534312963485718,
                0.7786635160446167,
                0.08008456230163574,
                -0.24690097570419312,
                -0.41322165727615356,
                0.7287617921829224,
                -0.1264592409133911,
                0.446374773979187,
                -0.6206268072128296,
                -0.46766936779022217,
                -0.38453370332717896,
                0.30167460441589355,
                -0.35002273321151733,
                -0.9665974974632263,
                -0.5188912749290466,
                0.18867135047912598,
                0.03373301029205322,
                0.9796912670135498,
                -0.4576634168624878,
                0.16973960399627686,
                0.4972219467163086,
                0.04870796203613281,
                0.20434951782226563,
                0.8107470273971558,
                -0.8770619034767151
            ],
            [
                0.7456204891204834,
                -0.5864996910095215,
                -0.9997860789299011,
                0.47859513759613037,
                0.26512742042541504,
                0.6536451578140259,
                0.25725865364074707,
                -0.6547880172729492,
                -0.5932558178901672,
                0.8440370559692383,
                -0.9260261654853821,
                0.2802850008010864,
                0.2904118299484253,
                -0.5466530323028564,
                0.8126156330108643,
                0.9058780670166016,
                0.7550215721130371,
                -0.5374071598052979,
                0.9392805099487305,
                -0.7638697028160095,
                0.6512641906738281,
                -0.02698647975921631,
                -0.7841784954071045,
                -0.8063992261886597,
                -0.8572468161582947,
                0.7130435705184937,
                0.24230873584747314,
                0.3471027612686157,
                0.5237904787063599,
                0.3652467727661133,
                0.29783129692077637,
                0.26941096782684326,
                0.7787472009658813,
                0.29804527759552,
                -0.2519938349723816,
                0.04387462139129639,
                -0.0483095645904541,
                -0.9947351813316345,
                0.38908660411834717,
                0.3584345579147339,
                0.849301815032959,
                0.4630603790283203
            ],
            [
                0.13971364498138428,
                0.9164074659347534,
                -0.5486648082733154,
                0.04559171199798584,
                0.6714290380477905,
                -0.08607196807861328,
                -0.01512765884399414,
                0.9075592756271362,
                -0.4348077178001404,
                0.9578858613967896,
                -0.8766191601753235,
                -0.24120694398880005,
                -0.8993609547615051,
                0.8364243507385254,
                -0.9988982081413269,
                0.4477417469024658,
                0.3602149486541748,
                0.36634862422943115,
                -0.25442689657211304,
                -0.3703741431236267,
                0.14509570598602295,
                -0.956381618976593,
                0.3776320219039917,
                -0.8110296130180359,
                -0.004691183567047119,
                0.38289690017700195,
                0.5780569314956665,
                -0.6462565660476685,
                0.23219871520996094,
                0.04111742973327637,
                -0.0075370073318481445,
                -0.6280876398086548,
                -0.04247516393661499,
                0.4437981843948364,
                0.41750407218933105,
                -0.37104612588882446,
                -0.6422737836837769,
                -0.5976235866546631,
                -0.46348685026168823,
                -0.07708150148391724,
                -0.6397377252578735,
                -0.3401060104370117
            ],
            [
                -0.5390987396240234,
                -0.5036816596984863,
                0.682813286781311,
                0.9086430072784424,
                0.8565332889556885,
                0.04916191101074219,
                -0.3457838296890259,
                -0.5138408541679382,
                -0.8057423233985901,
                -0.3021654486656189,
                0.8637911081314087,
                -0.616771936416626,
                0.693143367767334,
                0.24668800830841064,
                0.9612849950790405,
                -0.9531132578849792,
                -0.5211132764816284,
                0.0024024248123168945,
                0.03934967517852783,
                -0.1492009162902832,
                0.9599273204803467,
                -0.5168521404266357,
                -0.7316967844963074,
                -0.41111886501312256,
                -0.1591259241104126,
                -0.3293203115463257,
                0.12539434432983398,
                0.7637925148010254,
                0.03094196319580078,
                0.7852883338928223,
                0.4455040693283081,
                0.49184322357177734,
                -0.7183933258056641,
                0.12831735610961914,
                0.4004863500595093,
                -0.8618600368499756,
                -0.8225206732749939,
                -0.9452975392341614,
                -0.3757008910179138,
                -0.628262996673584,
                -0.24746298789978027,
                -0.5119097232818604
            ],
            [
                -0.5543197393417358,
                0.7347782850265503,
                -0.28374987840652466,
                -0.5074329376220703,
                -0.7863349914550781,
                0.718652606010437,
                0.5319167375564575,
                0.06446409225463867,
                0.6785798072814941,
                -0.9849354028701782,
                0.3327673673629761,
                -0.7325389981269836,
                -0.1440613865852356,
                -0.9965530037879944,
                0.39285528659820557,
                -0.38026881217956543,
                0.03438889980316162,
                0.17814362049102783,
                -0.9347647428512573,
                -0.47376781702041626,
                0.45975029468536377,
                0.19355273246765137,
                0.9267184734344482,
                0.5978902578353882,
                0.3710319995880127,
                0.9814209938049316,
                -0.7778106331825256,
                0.7427690029144287,
                -0.2660420536994934,
                -0.289720356464386,
                -0.5022659301757813,
                0.17963826656341553,
                -0.5549420714378357,
                0.21398425102233887,
                0.6722052097320557,
                -0.3412770628929138,
                -0.06736326217651367,
                0.20412194728851318,
                0.7231869697570801,
                -0.38878339529037476,
                0.21918654441833496,
                0.05595433712005615
            ],
            [
                -0.9248748421669006,
                0.05940139293670654,
                -0.7284671068191528,
                -0.30514365434646606,
                -0.9062097072601318,
                0.449676513671875,
                -0.2399083971977234,
                -0.3799775242805481,
                -0.09057313203811646,
                0.9536442756652832,
                -0.45325905084609985,
                -0.4926828145980835,
                0.3246762752532959,
                -0.471838116645813,
                -0.27049344778060913,
                0.06744539737701416,
                0.26211977005004883,
                0.4397861957550049,
                0.5651794672012329,
                -0.5582419633865356,
                0.8848440647125244,
                -0.220836341381073,
                -0.88603675365448,
                -0.45643293857574463,
                0.7118004560470581,
                0.3180851936340332,
                -0.7332459688186646,
                -0.6769829392433167,
                -0.46272826194763184,
                0.32270848751068115,
                0.20169472694396973,
                -0.3876030445098877,
                -0.6178902387619019,
                0.4732276201248169,
                0.30725324153900146,
                -0.5240999460220337,
                -0.07709580659866333,
                -0.9326550960540771,
                0.09592247009277344,
                0.8323310613632202,
                -0.979010820388794,
                0.6426634788513184
            ],
            [
                0.34566545486450195,
                -0.8291746973991394,
                0.06915473937988281,
                -0.5868891477584839,
                0.4329451322555542,
                -0.49105900526046753,
                0.978290319442749,
                0.874703049659729,
                -0.6062148809432983,
                -0.24254602193832397,
                0.9886664152145386,
                -0.06264787912368774,
                -0.5307455658912659,
                0.3067516088485718,
                0.20410621166229248,
                -0.20772850513458252,
                0.8440233469009399,
                -0.47318536043167114,
                0.9939662218093872,
                -0.5435796976089478,
                -0.091075599193573,
                0.4671938419342041,
                0.7636735439300537,
                0.3848245143890381,
                -0.6099019646644592,
                0.8310184478759766,
                -0.5192530155181885,
                -0.7775708436965942,
                0.8520076274871826,
                -0.8765895962715149,
                -0.4379226565361023,
                0.19767308235168457,
                -0.7057642936706543,
                0.6312321424484253,
                0.6107839345932007,
                0.7271808385848999,
                -0.859826922416687,
                0.5890742540359497,
                0.6018838882446289,
                -0.46604180335998535,
                -0.6534717082977295,
                0.5905503034591675
            ],
            [
                -0.18421727418899536,
                -0.10269814729690552,
                -0.32458341121673584,
                0.6080542802810669,
                -0.2586747407913208,
                0.20223116874694824,
                0.6020205020904541,
                0.19774556159973145,
                -0.88884437084198,
                0.0692143440246582,
                -0.038580894470214844,
                0.4959801435470581,
                0.45931243896484375,
                -0.20756244659423828,
                0.9767271280288696,
                0.68174147605896,
                -0.35555481910705566,
                -0.8998624682426453,
                -0.7561811208724976,
                0.8421182632446289,
                -0.6056267619132996,
                0.8750510215759277,
                0.45290231704711914,
                -0.8784459829330444,
                -0.9847759008407593,
                0.04197657108306885,
                0.7234379053115845,
                -0.45081770420074463,
                0.38850486278533936,
                0.31398820877075195,
                -0.979507327079773,
                -0.7957123517990112,
                -0.7887098789215088,
                -0.30409079790115356,
                0.8123419284820557,
                -0.047384679317474365,
                0.8981404304504395,
                0.41436243057250977,
                -0.8496391177177429,
                -0.9907039403915405,
                -0.516423225402832,
                0.11177992820739746
            ],
            [
                0.9428890943527222,
                0.9042176008224487,
                0.48200321197509766,
                0.6246305704116821,
                -0.4513372778892517,
                0.5821406841278076,
                0.8684494495391846,
                -0.609218955039978,
                0.9765139818191528,
                0.7435004711151123,
                0.8436833620071411,
                -0.9019320011138916,
                0.758724570274353,
                -0.11434006690979004,
                0.8215060234069824,
                -0.6920931339263916,
                -0.7258351445198059,
                0.13549423217773438,
                -0.6716004610061646,
                -0.5215475559234619,
                0.3467843532562256,
                0.02430868148803711,
                -0.7092056274414063,
                -0.7006003856658936,
                -0.07755088806152344,
                0.7051568031311035,
                -0.5502394437789917,
                -0.06825482845306396,
                -0.8112664818763733,
                0.5615404844284058,
                -0.5629786849021912,
                -0.8683773279190063,
                0.4657580852508545,
                0.9190245866775513,
                0.7562532424926758,
                -0.9855791926383972,
                0.5011652708053589,
                0.6247026920318604,
                -0.5947981476783752,
                0.4776792526245117,
                0.36820316314697266,
                -0.7511147856712341
            ],
            [
                0.12692773342132568,
                0.1345452070236206,
                0.39725327491760254,
                0.4348345994949341,
                0.4087100028991699,
                -0.46725255250930786,
                0.7632341384887695,
                0.887162446975708,
                0.879531741142273,
                -0.21245712041854858,
                -0.8220431208610535,
                -0.8210685849189758,
                0.7099920511245728,
                0.8831136226654053,
                -0.3713080883026123,
                -0.358262836933136,
                -0.9281527996063232,
                -0.8097675442695618,
                0.07875847816467285,
                -0.7965301871299744,
                0.655990481376648,
                -0.0022169947624206543,
                0.9597231149673462,
                0.6704113483428955,
                -0.501051664352417,
                0.5844258069992065,
                -0.9243868589401245,
                0.9766275882720947,
                -0.047370970249176025,
                -0.6755015850067139,
                0.5523748397827148,
                -0.9204431772232056,
                0.45904362201690674,
                -0.05037188529968262,
                0.5143914222717285,
                -0.13224643468856812,
                0.4823756217956543,
                0.27762556076049805,
                -0.24508392810821533,
                0.36190736293792725,
                -0.9348315596580505,
                -0.0671270489692688
            ],
            [
                0.7751604318618774,
                -0.18401336669921875,
                -0.8304693102836609,
                -0.5831023454666138,
                -0.11216616630554199,
                -0.6402368545532227,
                0.4956561326980591,
                0.09130370616912842,
                -0.9842463731765747,
                -0.5065608024597168,
                0.05102682113647461,
                0.6861649751663208,
                -0.0076125264167785645,
                -0.36454737186431885,
                0.7617781162261963,
                -0.030984938144683838,
                0.5880815982818604,
                -0.9137235283851624,
                -0.478610098361969,
                0.6676384210586548,
                0.5453200340270996,
                0.47101807594299316,
                0.1820298433303833,
                -0.5869263410568237,
                -0.046606361865997314,
                -0.5403444766998291,
                0.16798973083496094,
                -0.6846989989280701,
                -0.47517603635787964,
                -0.8991373181343079,
                0.8561397790908813,
                -0.7000156044960022,
                -0.08315068483352661,
                -0.9743295311927795,
                -0.28311794996261597,
                0.8046830892562866,
                -0.614566445350647,
                -0.7874618172645569,
                -0.10401320457458496,
                -0.5988128185272217,
                -0.2940226197242737,
                0.9470136165618896
            ],
            [
                0.6983648538589478,
                -0.417533814907074,
                0.8491302728652954,
                -0.3326200842857361,
                -0.8294521570205688,
                0.9354066848754883,
                0.18876981735229492,
                0.8381862640380859,
                0.48072683811187744,
                -0.3402121067047119,
                0.02021610736846924,
                0.8938003778457642,
                0.613181471824646,
                0.47987163066864014,
                0.0617901086807251,
                0.9284825325012207,
                -0.9953044056892395,
                0.162652850151062,
                0.784622311592102,
                -0.6953200101852417,
                -0.9204978942871094,
                0.8102927207946777,
                0.02156209945678711,
                0.8841851949691772,
                -0.8042737245559692,
                0.23410022258758545,
                -0.21982795000076294,
                -0.40308648347854614,
                0.940077543258667,
                -0.27281439304351807,
                -0.315734326839447,
                0.6384423971176147,
                0.30965185165405273,
                -0.4666040539741516,
                -0.6941776275634766,
                0.48019957542419434,
                -0.5311973094940186,
                0.49459218978881836,
                0.3183858394622803,
                0.9495294094085693,
                -0.8456199169158936,
                -0.6613979339599609
            ],
            [
                0.7675615549087524,
                0.8184736967086792,
                -0.09488004446029663,
                0.6960440874099731,
                0.8231693506240845,
                -0.9322272539138794,
                0.4806663990020752,
                -0.8721506595611572,
                -0.8527251482009888,
                0.29095911979675293,
                0.14941132068634033,
                -0.968539834022522,
                0.4866853952407837,
                -0.6164883971214294,
                -0.1883677840232849,
                -0.9164010286331177,
                -0.6764107942581177,
                0.5388178825378418,
                -0.2321353554725647,
                0.9620316028594971,
                -0.15153038501739502,
                0.3012605905532837,
                -0.7321460247039795,
                -0.6713306903839111,
                0.7700631618499756,
                0.7624461650848389,
                0.6470551490783691,
                0.7195926904678345,
                0.9168262481689453,
                0.9856572151184082,
                0.562922477722168,
                0.6843878030776978,
                0.8041309118270874,
                -0.5319575071334839,
                0.38043200969696045,
                0.6273002624511719,
                -0.4641847014427185,
                -0.13890159130096436,
                0.7551494836807251,
                -0.3169098496437073,
                -0.8479424715042114,
                -0.0954391360282898
            ],
            [
                0.6387429237365723,
                0.28807246685028076,
                0.5261825323104858,
                0.7223418951034546,
                0.6116616725921631,
                0.06500029563903809,
                -0.5097934603691101,
                0.5736932754516602,
                0.9134700298309326,
                0.7914670705795288,
                0.8415472507476807,
                -0.7578607797622681,
                0.561530351638794,
                0.6039934158325195,
                0.8891943693161011,
                0.2811230421066284,
                0.5208196640014648,
                0.8748515844345093,
                -0.1559544801712036,
                0.20520758628845215,
                0.6789826154708862,
                0.3120880126953125,
                -0.4143604636192322,
                0.30628275871276855,
                0.8479032516479492,
                0.4467378854751587,
                0.0614323616027832,
                -0.4690065383911133,
                0.5987954139709473,
                0.9659931659698486,
                0.24554383754730225,
                0.23753833770751953,
                0.25406575202941895,
                -0.2282736897468567,
                -0.040119707584381104,
                -0.13427263498306274,
                0.8367266654968262,
                0.4500868320465088,
                -0.5605792999267578,
                0.7501965761184692,
                0.2415539026260376,
                -0.7190320491790771
            ],
            [
                -0.19691574573516846,
                0.8849614858627319,
                0.8815302848815918,
                -0.9157927632331848,
                0.4057811498641968,
                0.7563818693161011,
                -0.07174724340438843,
                -0.38901132345199585,
                0.4353644847869873,
                -0.7596592307090759,
                0.19662821292877197,
                -0.25835275650024414,
                -0.9117559194564819,
                -0.35663384199142456,
                0.8030796051025391,
                -0.3807624578475952,
                -0.7578384280204773,
                0.7690727710723877,
                0.864781379699707,
                0.479699969291687,
                0.02313852310180664,
                -0.36349236965179443,
                -0.5604197978973389,
                0.8888658285140991,
                -0.5267657041549683,
                0.8896670341491699,
                -0.6717134714126587,
                -0.7765690684318542,
                0.13122093677520752,
                -0.39074546098709106,
                -0.7842332124710083,
                0.9343051910400391,
                -0.5057840347290039,
                -0.9027029275894165,
                -0.9814876317977905,
                0.8999971151351929,
                0.8536789417266846,
                -0.053234875202178955,
                -0.4890141487121582,
                0.2890434265136719,
                0.18710589408874512,
                0.7076140642166138
            ],
            [
                0.2753499746322632,
                -0.649019718170166,
                0.8337702751159668,
                0.894587516784668,
                -0.4068582057952881,
                0.602843165397644,
                0.7593687772750854,
                -0.9271582365036011,
                -0.3740183711051941,
                -0.6041234731674194,
                -0.48757803440093994,
                -0.4851524829864502,
                -0.13088923692703247,
                -0.5979110598564148,
                -0.1568659543991089,
                0.09254169464111328,
                0.533309817314148,
                0.4523886442184448,
                0.308308482170105,
                0.467615008354187,
                0.9466046094894409,
                0.4056055545806885,
                0.4861273765563965,
                0.8466017246246338,
                0.2592846155166626,
                -0.5671074986457825,
                -0.6424123644828796,
                -0.4516719579696655,
                0.6199983358383179,
                -0.9347982406616211,
                -0.42098116874694824,
                -0.10465168952941895,
                -0.5838180184364319,
                -0.5872108936309814,
                -0.21006423234939575,
                0.009323835372924805,
                -0.9843677282333374,
                -0.4506953954696655,
                0.08216547966003418,
                -0.3583860993385315,
                -0.05481886863708496,
                0.5945874452590942
            ],
            [
                0.8142918348312378,
                0.9966764450073242,
                0.9995954036712646,
                -0.09316641092300415,
                0.5299862623214722,
                0.4519840478897095,
                -0.7848578691482544,
                -0.002398669719696045,
                0.3985886573791504,
                0.6207476854324341,
                -0.5162712335586548,
                0.24519038200378418,
                -0.11996769905090332,
                -0.08337879180908203,
                0.6027780771255493,
                0.42836034297943115,
                -0.4633803963661194,
                0.6679798364639282,
                -0.9926208257675171,
                0.4319678544998169,
                -0.9158382415771484,
                -0.5798317193984985,
                -0.7780963182449341,
                0.09348559379577637,
                -0.5641994476318359,
                -0.2287917137145996,
                -0.8243489265441895,
                0.07741439342498779,
                0.7163894176483154,
                0.7702385187149048,
                -0.7661241888999939,
                0.5306812524795532,
                0.766914963722229,
                -0.7665287256240845,
                -0.5624850988388062,
                0.2969013452529907,
                0.685455322265625,
                -0.3473430275917053,
                -0.7054973840713501,
                0.08404397964477539,
                -0.7265952825546265,
                -0.22176861763000488
            ],
            [
                0.15343701839447021,
                0.6948525905609131,
                0.9320124387741089,
                -0.41820263862609863,
                -0.7685278058052063,
                0.5999921560287476,
                -0.4108234643936157,
                0.6634401082992554,
                0.6841539144515991,
                0.009344816207885742,
                0.8853437900543213,
                -0.2223604917526245,
                0.4451453685760498,
                -0.3434479832649231,
                -0.046709418296813965,
                -0.47744011878967285,
                -0.6270586252212524,
                -0.2764708995819092,
                -0.24356430768966675,
                0.9036227464675903,
                -0.5095558762550354,
                -0.010093092918395996,
                -0.6588624119758606,
                0.7873454093933105,
                -0.324637770652771,
                -0.006205439567565918,
                -0.9181519150733948,
                0.7594062089920044,
                0.2671992778778076,
                -0.13992053270339966,
                -0.9113594889640808,
                -0.5793637037277222,
                -0.44506794214248657,
                -0.9793470501899719,
                0.0024336576461791992,
                -0.21359574794769287,
                0.6206451654434204,
                0.5916101932525635,
                -0.5501556396484375,
                0.30479907989501953,
                -0.3990449905395508,
                -0.664811909198761
            ],
            [
                -0.9538995623588562,
                -0.008259892463684082,
                0.035729169845581055,
                -0.43133968114852905,
                0.3646814823150635,
                0.7592582702636719,
                0.3250960111618042,
                0.2683042287826538,
                -0.7502975463867188,
                -0.6849970817565918,
                0.6094417572021484,
                -0.9629521369934082,
                -0.009634852409362793,
                -0.3967636227607727,
                -0.881104052066803,
                -0.2502287030220032,
                0.8704355955123901,
                -0.021024584770202637,
                -0.1615881323814392,
                -0.708928108215332,
                0.5339075326919556,
                -0.14093518257141113,
                0.29350554943084717,
                -0.6796882152557373,
                -0.5202900171279907,
                -0.11488431692123413,
                -0.22984391450881958,
                0.7845090627670288,
                0.48607075214385986,
                0.10534417629241943,
                0.8669476509094238,
                0.5321711301803589,
                -0.9029157161712646,
                -0.09732317924499512,
                -0.8991686105728149,
                0.46176576614379883,
                -0.33806490898132324,
                0.42592740058898926,
                -0.26993000507354736,
                -0.08836251497268677,
                0.7409303188323975,
                -0.6604882478713989
            ],
            [
                -0.26870453357696533,
                -0.057251811027526855,
                0.06758129596710205,
                0.4810667037963867,
                -0.18681621551513672,
                -0.9534432291984558,
                -0.6805213689804077,
                0.10425567626953125,
                0.580464243888855,
                0.1785433292388916,
                -0.6022387742996216,
                0.9007760286331177,
                0.6582533121109009,
                0.28287696838378906,
                -0.3290678858757019,
                0.4427623748779297,
                -0.23105233907699585,
                0.7762762308120728,
                0.3097100257873535,
                -0.6988812685012817,
                0.8733605146408081,
                -0.7876131534576416,
                -0.5980498194694519,
                0.33512628078460693,
                -0.12567806243896484,
                0.8278775215148926,
                -0.9348036646842957,
                0.7859593629837036,
                0.56880784034729,
                -0.5952918529510498,
                -0.2653552293777466,
                -0.6998966932296753,
                0.34745633602142334,
                0.802226185798645,
                0.781170129776001,
                -0.8393598794937134,
                0.8487828969955444,
                -0.8993513584136963,
                0.26489579677581787,
                0.4292471408843994,
                0.27919209003448486,
                0.6626571416854858
            ],
            [
                -0.06255465745925903,
                -0.05446594953536987,
                -0.9990447759628296,
                -0.6197922229766846,
                0.7144817113876343,
                0.7772314548492432,
                0.689917802810669,
                -0.9843994975090027,
                0.6505920886993408,
                0.9023045301437378,
                -0.5824493169784546,
                -0.014281630516052246,
                -0.22337353229522705,
                -0.754571795463562,
                0.050914764404296875,
                -0.43741410970687866,
                0.8142361640930176,
                0.45562291145324707,
                0.29723072052001953,
                -0.8856605291366577,
                -0.19692081212997437,
                0.099456787109375,
                0.8955094814300537,
                -0.03628075122833252,
                -0.051760315895080566,
                0.9961581230163574,
                -0.7713848948478699,
                -0.6225131750106812,
                0.2753502130508423,
                0.8912721872329712,
                0.7075099945068359,
                -0.787204384803772,
                -0.16319376230239868,
                0.7084652185440063,
                -0.4069966673851013,
                -0.4487120509147644,
                0.48569679260253906,
                -0.7170789241790771,
                -0.4331115484237671,
                0.13628876209259033,
                -0.8147743344306946,
                -0.015560925006866455
            ],
            [
                -0.03814786672592163,
                0.2298673391342163,
                0.17292189598083496,
                0.5244380235671997,
                0.04410350322723389,
                -0.37145519256591797,
                -0.17833125591278076,
                0.15844285488128662,
                0.4316239356994629,
                0.9211255311965942,
                0.05395245552062988,
                -0.6046567559242249,
                -0.13063472509384155,
                0.050110578536987305,
                -0.3760416507720947,
                0.24685215950012207,
                -0.6745392084121704,
                -0.48476946353912354,
                -0.04563784599304199,
                -0.4617435932159424,
                0.35203683376312256,
                -0.33717262744903564,
                0.13125979900360107,
                0.9033247232437134,
                -0.8514759540557861,
                0.4141808748245239,
                -0.5297868251800537,
                0.28481292724609375,
                0.5994064807891846,
                0.4546523094177246,
                0.40682005882263184,
                -0.4387413263320923,
                -0.3154803514480591,
                -0.42025798559188843,
                -0.9143032431602478,
                0.7286231517791748,
                0.20828676223754883,
                -0.09263449907302856,
                -0.11293399333953857,
                -0.3600892424583435,
                -0.17150890827178955,
                0.9410184621810913
            ],
            [
                0.6978564262390137,
                -0.008871018886566162,
                0.6592123508453369,
                -0.05529147386550903,
                0.3165898323059082,
                -0.8255571126937866,
                0.8990706205368042,
                0.8548462390899658,
                0.5264797210693359,
                -0.43810200691223145,
                -0.01389402151107788,
                0.4298044443130493,
                -0.2895779013633728,
                -0.599713146686554,
                0.9000177383422852,
                0.9952349662780762,
                0.9996933937072754,
                0.35467004776000977,
                0.402055025100708,
                -0.4390479326248169,
                -0.9608103036880493,
                0.9817970991134644,
                -0.3533511757850647,
                0.7678127288818359,
                0.19008386135101318,
                0.5540143251419067,
                -0.34512120485305786,
                0.8299945592880249,
                -0.6174945831298828,
                -0.40410280227661133,
                -0.13475137948989868,
                -0.9196381568908691,
                0.5870262384414673,
                -0.47553902864456177,
                0.0250704288482666,
                -0.09638398885726929,
                -0.3010960817337036,
                -0.0758589506149292,
                -0.24153774976730347,
                -0.7746163606643677,
                0.48603904247283936,
                0.7445682287216187
            ],
            [
                -0.8035388588905334,
                -0.8551449179649353,
                0.5552058219909668,
                -0.8083038330078125,
                -0.8554515242576599,
                -0.09012413024902344,
                0.5937511920928955,
                -0.2944994568824768,
                -0.050934433937072754,
                0.5755481719970703,
                0.3521493673324585,
                -0.2831217050552368,
                -0.23436790704727173,
                -0.09383630752563477,
                0.3717571496963501,
                -0.40437328815460205,
                0.2886691093444824,
                0.9676542282104492,
                0.4608752727508545,
                0.3690309524536133,
                0.5546804666519165,
                0.9853363037109375,
                -0.6058986783027649,
                -0.5417035222053528,
                -0.3157597780227661,
                0.3182424306869507,
                0.21675872802734375,
                -0.09037613868713379,
                -0.19571858644485474,
                -0.0386730432510376,
                -0.4351879358291626,
                0.0007425546646118164,
                0.10618209838867188,
                -0.8799821138381958,
                0.19243872165679932,
                0.2507305145263672,
                0.02989375591278076,
                -0.21381008625030518,
                0.9562311172485352,
                0.978959321975708,
                -0.6382618546485901,
                0.30838048458099365
            ],
            [
                0.12737023830413818,
                -0.7854558229446411,
                -0.9324052333831787,
                0.7229969501495361,
                0.5032132863998413,
                -0.9647509455680847,
                0.18387222290039063,
                -0.1277557611465454,
                0.589929461479187,
                0.16920852661132813,
                0.2663456201553345,
                -0.951774001121521,
                0.853448748588562,
                -0.4154120087623596,
                0.26498472690582275,
                -0.23692739009857178,
                0.38886940479278564,
                -0.7736883163452148,
                0.3278846740722656,
                -0.6103880405426025,
                0.33249378204345703,
                0.4479025602340698,
                0.5820506811141968,
                -0.416775643825531,
                -0.5222036838531494,
                -0.6317593455314636,
                -0.4605445861816406,
                -0.5432443022727966,
                -0.2700212001800537,
                0.847835898399353,
                0.15259337425231934,
                0.8573490381240845,
                -0.9376199245452881,
                0.22018814086914063,
                0.580345869064331,
                0.5655933618545532,
                0.25543713569641113,
                -0.23578184843063354,
                -0.5621623992919922,
                -0.15463334321975708,
                0.9334266185760498,
                0.7041832208633423
            ],
            [
                0.7868753671646118,
                -0.7112288475036621,
                -0.8414226174354553,
                -0.45005202293395996,
                0.6776405572891235,
                -0.6151108741760254,
                0.8778326511383057,
                -0.9327474236488342,
                0.7173829078674316,
                0.3257352113723755,
                0.6493033170700073,
                -0.6993927955627441,
                0.8035315275192261,
                -0.9824560284614563,
                -0.15993732213974,
                -0.7397127747535706,
                -0.25247722864151,
                -0.31210142374038696,
                0.412880539894104,
                -0.3951282501220703,
                -0.24972134828567505,
                -0.36693131923675537,
                -0.8147823214530945,
                -0.6841280460357666,
                0.8885058164596558,
                -0.05056416988372803,
                -0.246290385723114,
                -0.2661275267601013,
                -0.11713755130767822,
                -0.5421072244644165,
                0.6274651288986206,
                -0.3302621841430664,
                -0.25333601236343384,
                0.7860425710678101,
                0.21968579292297363,
                -0.5756954550743103,
                -0.8290683627128601,
                0.0975184440612793,
                -0.5084428787231445,
                0.8883144855499268,
                -0.5767463445663452,
                -0.859139621257782
            ],
            [
                -0.7732148170471191,
                -0.8415956497192383,
                0.028984427452087402,
                -0.5129275321960449,
                -0.09407287836074829,
                0.7168829441070557,
                0.8999530076980591,
                0.5107988119125366,
                -0.5328383445739746,
                -0.4669783115386963,
                0.6960165500640869,
                -0.2169663906097412,
                -0.5784724354743958,
                -0.3545476198196411,
                0.5367431640625,
                0.15540003776550293,
                0.5283148288726807,
                0.994636058807373,
                -0.2171347737312317,
                -0.8019473552703857,
                -0.25870001316070557,
                -0.4310922622680664,
                0.4177384376525879,
                0.16560447216033936,
                -0.2601606249809265,
                -0.48474305868148804,
                0.6571615934371948,
                -0.371846079826355,
                -0.06148940324783325,
                0.7980220317840576,
                -0.1829243302345276,
                0.16529583930969238,
                0.9564263820648193,
                0.8460601568222046,
                0.6523683071136475,
                -0.13764655590057373,
                0.5629431009292603,
                0.5523213148117065,
                -0.6268476247787476,
                -0.9698953032493591,
                -0.9146569967269897,
                -0.9308311343193054
            ],
            [
                -0.4931294322013855,
                -0.28537875413894653,
                -0.6501184701919556,
                0.6622706651687622,
                -0.7570639252662659,
                -0.6554824709892273,
                -0.5548641681671143,
                -0.5590113401412964,
                0.08581745624542236,
                0.014043569564819336,
                0.8587270975112915,
                -0.7485779523849487,
                0.7538830041885376,
                -0.6260159015655518,
                0.9085836410522461,
                -0.6179630756378174,
                0.3124946355819702,
                0.7066056728363037,
                0.19911253452301025,
                -0.5222095251083374,
                0.663032054901123,
                0.045172691345214844,
                -0.8698412179946899,
                -0.4746145009994507,
                -0.3918842077255249,
                0.6824800968170166,
                -0.10146218538284302,
                -0.36177951097488403,
                0.7678231000900269,
                -0.03229326009750366,
                0.4513587951660156,
                -0.7253063917160034,
                0.6823279857635498,
                0.8012403249740601,
                0.9369642734527588,
                0.9252640008926392,
                -0.8542421460151672,
                -0.6178999543190002,
                -0.6337473392486572,
                0.2315753698348999,
                0.39614367485046387,
                -0.7750201225280762
            ],
            [
                0.15002655982971191,
                -0.4010360836982727,
                0.39158105850219727,
                0.5320634841918945,
                0.9114586114883423,
                0.09818673133850098,
                -0.26882392168045044,
                -0.6107508540153503,
                -0.23878127336502075,
                0.7763487100601196,
                -0.4805920720100403,
                0.2866041660308838,
                -0.6155354976654053,
                -0.7981120347976685,
                -0.8148579597473145,
                0.02268505096435547,
                0.9697110652923584,
                0.1528487205505371,
                -0.5259561538696289,
                -0.755595326423645,
                -0.16482329368591309,
                -0.7247158288955688,
                -0.8186310529708862,
                -0.23955929279327393,
                -0.5789580345153809,
                -0.4365310072898865,
                0.12669336795806885,
                0.652617335319519,
                0.9596126079559326,
                0.3516732454299927,
                0.13561475276947021,
                0.10963916778564453,
                0.9506372213363647,
                -0.4728041887283325,
                -0.35829734802246094,
                0.862095832824707,
                0.6253825426101685,
                0.3728787899017334,
                -0.7486550807952881,
                -0.6133987307548523,
                0.14922749996185303,
                -0.22924715280532837
            ],
            [
                0.5336920022964478,
                -0.02735912799835205,
                0.8583475351333618,
                -0.44362300634384155,
                -0.05764806270599365,
                0.011196255683898926,
                0.030420899391174316,
                0.18675661087036133,
                0.8463729619979858,
                0.3057049512863159,
                0.3681255578994751,
                -0.39318639039993286,
                0.7267470359802246,
                0.9315944910049438,
                0.7335070371627808,
                0.37936437129974365,
                0.8912070989608765,
                0.08518028259277344,
                -0.48502081632614136,
                0.0008463859558105469,
                0.035817503929138184,
                0.0421750545501709,
                0.6425490379333496,
                -0.10208666324615479,
                -0.3324424624443054,
                0.015427708625793457,
                0.14925825595855713,
                0.054158806800842285,
                -0.8353447914123535,
                0.9200111627578735,
                -0.2726357579231262,
                0.6983472108840942,
                -0.10734796524047852,
                -0.4142882227897644,
                -0.7452757358551025,
                0.8350039720535278,
                0.5969079732894897,
                0.2851451635360718,
                0.02176058292388916,
                0.4432809352874756,
                -0.4091498851776123,
                -0.6101139187812805
            ],
            [
                -0.6824029088020325,
                -0.6785193681716919,
                0.7836015224456787,
                0.696961522102356,
                -0.7873122096061707,
                -0.13121813535690308,
                -0.7880593538284302,
                0.21353411674499512,
                0.9045993089675903,
