{
    "hiddenLayer1": {
        "bias": [
            -0.0510784387588501,
            -0.0838322639465332,
            -0.7695249319076538,
            0.15479683876037598,
            -0.32799839973449707,
            0.2384241819381714,
            -0.19374686479568481,
            0.5708396434783936,
            0.7125556468963623,
            0.1351557970046997,
            -0.3876056671142578,
            0.4671114683151245,
            0.31701982021331787,
            0.3345683813095093,
            -0.5304346084594727,
            0.7250614166259766,
            0.827290415763855,
            0.7643414735794067,
            -0.4540225863456726,
            -0.691909670829773,
            -0.8117381930351257,
            0.6077620983123779,
            -0.291096568107605,
            -0.05044388771057129,
            -0.5290122032165527,
            -0.5868416428565979,
            0.7734118700027466,
            -0.39753764867782593,
            -0.5974466800689697,
            0.6224231719970703,
            0.064949631690979,
            0.4459261894226074,
            0.41836702823638916,
            -0.2617829442024231,
            0.5078980922698975,
            0.8184318542480469,
            -0.7476219534873962,
            0.6213462352752686,
            0.7840259075164795,
            -0.3147695064544678,
            -0.7950265407562256,
            0.13680410385131836,
            0.022909164428710938,
            0.043903231620788574,
            -0.5577834844589233,
            0.1476048231124878,
            -0.3929142951965332,
            -0.3914807438850403,
            0.42900776863098145,
            -0.5953225493431091,
            0.6112483739852905,
            0.3775656223297119,
            0.35219502449035645,
            0.19407439231872559,
            0.7551653385162354,
            0.32994282245635986,
            0.9919160604476929,
            -0.45755892992019653,
            0.866999626159668,
            -0.5739141702651978,
            0.929409384727478,
            -0.7324346303939819,
            -0.5509630441665649,
            0.23763394355773926
        ],
        "weights": [
            [
                0.7641453742980957,
                -0.09180361032485962,
                0.12563157081604004,
                0.1003260612487793,
                0.34044766426086426,
                0.35866856575012207,
                0.36966145038604736,
                0.15818297863006592,
                -0.29910439252853394,
                0.6067467927932739,
                -0.3543688654899597,
                -0.8989394307136536,
                -0.9559226036071777,
                -0.07279068231582642,
                -0.07023626565933228,
                -0.42006778717041016,
                -0.8539060950279236,
                0.29001617431640625,
                -0.3401302099227905,
                0.26390326023101807,
                -0.3882407546043396,
                0.8437167406082153,
                0.9994690418243408,
                -0.5280197858810425,
                -0.48982924222946167,
                0.9486089944839478,
                0.535385012626648,
                0.39953017234802246,
                -0.43700742721557617,
                0.7949537038803101,
                0.6626652479171753,
                -0.6728620529174805,
                -0.29684990644454956,
                -0.21170318126678467,
                0.42746400833129883,
                -0.9564021825790405,
                -0.8530346155166626,
                -0.20287448167800903,
                0.20178067684173584,
                -0.15213900804519653,
                -0.5961276292800903,
                0.8474118709564209
            ],
            [
                -0.5520502328872681,
                -0.22537881135940552,
                0.8786852359771729,
                0.027881979942321777,
                -0.0792849063873291,
                0.1687014102935791,
                0.6877517700195313,
                -0.8153817057609558,
                0.7804607152938843,
                0.5314685106277466,
                -0.8159126043319702,
                -0.7475590705871582,
                -0.9583607912063599,
                -0.8673035502433777,
                0.7878259420394897,
                0.4411693811416626,
                -0.30431097745895386,
                0.5827796459197998,
                0.10383462905883789,
                0.0228269100189209,
                -0.7140703201293945,
                0.8921314477920532,
                -0.5497090220451355,
                -0.6704725027084351,
                -0.9609031677246094,
                0.24741649627685547,
                0.5313081741333008,
                -0.11304217576980591,
                0.6512888669967651,
                0.3787200450897217,
                0.8358794450759888,
                -0.9007614254951477,
                -0.8466587066650391,
                0.7145646810531616,
                0.1271204948425293,
                0.07405638694763184,
                -0.1167338490486145,
                -0.18512779474258423,
                0.2586747407913208,
                -0.336273193359375,
                -0.6536593437194824,
                0.4427621364593506
            ],
            [
                -0.6120200753211975,
                0.5754585266113281,
                -0.29600638151168823,
                0.8291493654251099,
                -0.7288524508476257,
                -0.7132267951965332,
                -0.06701600551605225,
                0.29397451877593994,
                -0.42729705572128296,
                -0.1748846173286438,
                0.7442654371261597,
                -0.09776955842971802,
                -0.13578778505325317,
                -0.008318066596984863,
                -0.5664613246917725,
                0.7511700391769409,
                -0.3570291996002197,
                0.8122587203979492,
                0.5870494842529297,
                -0.2577906847000122,
                0.9656000137329102,
                0.3016141653060913,
                0.8693298101425171,
                0.03965640068054199,
                -0.815119743347168,
                -0.31579798460006714,
                -0.7016689777374268,
                -0.1513928771018982,
                0.030542731285095215,
                0.7410931587219238,
                0.7647747993469238,
                0.41852259635925293,
                0.31655168533325195,
                -0.5312315225601196,
                0.2476719617843628,
                0.5876991748809814,
                -0.24445825815200806,
                -0.8193440437316895,
                -0.11832630634307861,
                0.328244686126709,
                0.0057713985443115234,
                -0.37406080961227417
            ],
            [
                0.8699836730957031,
                0.6176211833953857,
                -0.33598631620407104,
                0.621153712272644,
                -0.7394080758094788,
                -0.5237275958061218,
                0.20820319652557373,
                0.002801179885864258,
                -0.5581276416778564,
                -0.49018269777297974,
                -0.12786895036697388,
                0.48152875900268555,
                -0.30530238151550293,
                0.556333065032959,
                0.7798597812652588,
                0.5433046817779541,
                -0.4131242036819458,
                0.5209529399871826,
                0.3080796003341675,
                -0.9946015477180481,
                -0.16249537467956543,
                0.7768480777740479,
                0.2530704736709595,
                -0.5747961401939392,
                -0.467610239982605,
                0.43372642993927,
                0.30687761306762695,
                0.860634446144104,
                -0.5605021715164185,
                0.932816743850708,
                -0.9088904857635498,
                -0.6905185580253601,
                0.5504379272460938,
                -0.24487680196762085,
                0.9306350946426392,
                0.8110297918319702,
                0.23139560222625732,
                0.1388382911682129,
                -0.18616896867752075,
                0.6732680797576904,
                0.6486555337905884,
                0.6859620809555054
            ],
            [
                -0.6566468477249146,
                0.24229514598846436,
                -0.06534337997436523,
                0.8866579532623291,
                0.8291709423065186,
                -0.5443904399871826,
                0.19473743438720703,
                0.8345693349838257,
                0.2931143045425415,
                -0.028414428234100342,
                0.08763980865478516,
                0.7183181047439575,
                0.5039753913879395,
                -0.4786337614059448,
                0.025195717811584473,
                0.36460983753204346,
                -0.03913593292236328,
                -0.041987597942352295,
                0.45571935176849365,
                0.27034544944763184,
                -0.49154967069625854,
                -0.789157509803772,
                0.20098066329956055,
                -0.6805198788642883,
                0.4422382116317749,
                -0.6601811051368713,
                0.13331115245819092,
                0.11550617218017578,
                0.9884744882583618,
                -0.1807267665863037,
                -0.7296969890594482,
                -0.6681723594665527,
                -0.9384316205978394,
                0.20495963096618652,
                -0.7815144062042236,
                0.8907393217086792,
                0.6605691909790039,
                0.4132230281829834,
                0.7253086566925049,
                -0.04631650447845459,
                -0.6151913404464722,
                -0.18705153465270996
            ],
            [
                0.8887839317321777,
                0.3343147039413452,
                0.6971973180770874,
                0.2533937692642212,
                -0.7048212289810181,
                -0.3447902798652649,
                -0.29088693857192993,
                0.5655242204666138,
                0.16366004943847656,
                -0.0800444483757019,
                -0.23349511623382568,
                0.48314011096954346,
                -0.6378062963485718,
                0.1063237190246582,
                -0.38354867696762085,
                0.47769999504089355,
                0.09479820728302002,
                0.4357246160507202,
                0.7480030059814453,
                0.4266258478164673,
                0.49729299545288086,
                -0.04703742265701294,
                0.6451114416122437,
                0.3880321979522705,
                -0.38646817207336426,
                0.05833446979522705,
                0.11334085464477539,
                0.5672153234481812,
                0.4431431293487549,
                0.926289439201355,
                -0.7607830166816711,
                0.3319270610809326,
                0.2606041431427002,
                0.9364142417907715,
                -0.4146791696548462,
                0.5557829141616821,
                -0.4083760380744934,
                0.2944338321685791,
                0.1213071346282959,
                0.7552839517593384,
                -0.785610556602478,
                0.8878120183944702
            ],
            [
                -0.4234168529510498,
                -0.005864262580871582,
                0.8548755645751953,
                -0.9457168579101563,
                -0.9110659956932068,
                0.290600061416626,
                0.8022860288619995,
                0.5155599117279053,
                -0.21210694313049316,
                -0.24475133419036865,
                0.16067135334014893,
                -0.8240747451782227,
                0.3687804937362671,
                -0.780994176864624,
                0.2892662286758423,
                -0.06400412321090698,
                0.6621489524841309,
                0.21555554866790771,
                0.17521286010742188,
                -0.005923926830291748,
                -0.5238403081893921,
                0.11162710189819336,
                0.5793969631195068,
                -0.9680574536323547,
                0.7032510042190552,
                -0.12616920471191406,
                0.1532496213912964,
                0.4585350751876831,
                0.08822023868560791,
                0.0410616397857666,
                -0.3030407428741455,
                0.6648033857345581,
                -0.9648025631904602,
                -0.44816523790359497,
                0.7190865278244019,
                -0.8758686184883118,
                0.8424348831176758,
                0.5213725566864014,
                0.6396912336349487,
                -0.36967211961746216,
                -0.7233787178993225,
                -0.19963741302490234
            ],
            [
                0.6454018354415894,
                0.019368410110473633,
                -0.9044806361198425,
                -0.4186022877693176,
                -0.31848257780075073,
                0.31107497215270996,
                0.7566105127334595,
                0.6755934953689575,
                0.7872345447540283,
                -0.13176238536834717,
                0.25499045848846436,
                0.8191771507263184,
                -0.4285113215446472,
                -0.8711787462234497,
                -0.027573227882385254,
                -0.9699762463569641,
                0.2170414924621582,
                -0.9865115880966187,
                -0.2730169892311096,
                -0.11815512180328369,
                -0.9513142108917236,
                0.2788177728652954,
                -0.39906859397888184,
                -0.8271827697753906,
                0.12125265598297119,
                -0.8776959776878357,
                0.8125084638595581,
                0.7515804767608643,
                -0.6010746955871582,
                -0.38712888956069946,
                -0.4421663284301758,
                -0.9556729197502136,
                0.632239580154419,
                -0.3466469645500183,
                -0.37427520751953125,
                -0.6862429976463318,
                0.9644279479980469,
                -0.6176646947860718,
                0.9893505573272705,
                0.7516624927520752,
                0.25057291984558105,
                0.24434101581573486
            ],
            [
                0.8220616579055786,
                0.37316226959228516,
                -0.4567335844039917,
                0.8520853519439697,
                -0.4097962975502014,
                -0.4432452321052551,
                -0.4209315776824951,
                0.47204864025115967,
                -0.394559383392334,
                0.8578861951828003,
                -0.9270199537277222,
                -0.22174221277236938,
                -0.02086120843887329,
                -0.8047159314155579,
                -0.4092336893081665,
                -0.26928067207336426,
                -0.40579062700271606,
                0.20363736152648926,
                0.28855299949645996,
                -0.3614635467529297,
                -0.1641230583190918,
                0.9419059753417969,
                0.26426124572753906,
                0.14963388442993164,
                0.9063339233398438,
                0.6465965509414673,
                0.13898444175720215,
                0.657996416091919,
                -0.10283046960830688,
                -0.616674542427063,
                0.2288360595703125,
                -0.28076887130737305,
                0.7564877271652222,
                0.7721024751663208,
                -0.42868345975875854,
                -0.653308629989624,
                -0.6711427569389343,
                0.15038490295410156,
                0.8187400102615356,
                -0.06570214033126831,
                0.008271098136901855,
                0.8917200565338135
            ],
            [
                0.9874098300933838,
                -0.9129958748817444,
                -0.6966780424118042,
                -0.28187084197998047,
                -0.31878650188446045,
                0.5069593191146851,
                -0.9933178424835205,
                0.31974995136260986,
                -0.657163679599762,
                0.9485881328582764,
                -0.4159888029098511,
                0.49247026443481445,
                0.8549220561981201,
                -0.7693922519683838,
                -0.3685452938079834,
                0.5129184722900391,
                0.1277773380279541,
                0.014780163764953613,
                -0.25824540853500366,
                0.847008466720581,
                -0.228732168674469,
                -0.48614293336868286,
                -0.5816750526428223,
                0.11795926094055176,
                -0.1572856903076172,
                0.5687098503112793,
                -0.0633007287979126,
                0.7770121097564697,
                -0.42301905155181885,
                -0.17158067226409912,
                0.4895678758621216,
                -0.43560922145843506,
                -0.0845765471458435,
                0.7928898334503174,
                0.2825199365615845,
                0.5966368913650513,
                0.29984915256500244,
                0.28920209407806396,
                -0.08361309766769409,
                0.6426855325698853,
                0.23779022693634033,
                0.5003980398178101
            ],
            [
                0.09271228313446045,
                0.7310059070587158,
                0.7666105031967163,
                -0.3943691849708557,
                -0.14121681451797485,
                -0.21860933303833008,
                0.3473854064941406,
                -0.2942084074020386,
                0.5526585578918457,
                0.861242413520813,
                0.12411653995513916,
                -0.3293822407722473,
                -0.2960432171821594,
                -0.3071736693382263,
                0.6073169708251953,
                -0.5190310478210449,
                0.2698073387145996,
                -0.5642637014389038,
                0.9705367088317871,
                0.8341981172561646,
                0.35115981101989746,
                0.7634265422821045,
                0.11671805381774902,
                -0.05220329761505127,
                0.06327569484710693,
                -0.5940797924995422,
                0.8641835451126099,
                -0.2940387725830078,
                0.6437104940414429,
                0.3645817041397095,
                0.8411170244216919,
                -0.2635771632194519,
                0.09558749198913574,
                0.6077274084091187,
                0.3420536518096924,
                0.9543707370758057,
                -0.6108819246292114,
                -0.310560941696167,
                -0.3398377299308777,
                0.9417766332626343,
                -0.449318528175354,
                0.7842787504196167
            ],
            [
                0.2546381950378418,
                -0.5228948593139648,
                -0.7802886366844177,
                0.7356071472167969,
                0.7469123601913452,
                -0.34455233812332153,
                0.706143856048584,
                0.5811104774475098,
                -0.9933925867080688,
                0.469570517539978,
                -0.30217140913009644,
                -0.04559588432312012,
                -0.46715378761291504,
                0.10374879837036133,
                -0.18141233921051025,
                0.23880743980407715,
                -0.2525407075881958,
                -0.8168306350708008,
                0.07992434501647949,
                0.4838820695877075,
                0.27875685691833496,
                -0.3123481869697571,
                -0.17406421899795532,
                0.23312759399414063,
                0.07676994800567627,
                0.5153747797012329,
                0.8932898044586182,
                0.018546462059020996,
                -0.9339437484741211,
                0.6775685548782349,
                0.6309409141540527,
                0.32069456577301025,
                -0.8453262448310852,
                0.8506522178649902,
                0.05630171298980713,
                0.9015861749649048,
                -0.4939001202583313,
                -0.2375544309616089,
                0.48269665241241455,
                -0.48729270696640015,
                -0.7679839134216309,
                -0.8194747567176819
            ],
            [
                -0.2351377010345459,
                0.2842741012573242,
                -0.7143008708953857,
                -0.9963303208351135,
                -0.9682666063308716,
                -0.5311315059661865,
                0.08359408378601074,
                0.5156154632568359,
                0.7476253509521484,
                0.7712459564208984,
                -0.6584486961364746,
                -0.019247114658355713,
                -0.15198415517807007,
                0.8569260835647583,
                -0.12595731019973755,
                0.8665623664855957,
                0.9229823350906372,
                -0.4483886957168579,
                0.49750328063964844,
                0.24367690086364746,
                -0.2937149405479431,
                0.34815549850463867,
                -0.700021505355835,
                -0.3921288251876831,
                0.8542553186416626,
                0.0624241828918457,
                -0.9094321727752686,
                -0.6330373287200928,
                0.2944401502609253,
                -0.7289068698883057,
                0.8340741395950317,
                -0.9406975507736206,
                0.5553672313690186,
                -0.8802267909049988,
                -0.9370278120040894,
                0.587100625038147,
                -0.4113583564758301,
                0.1465662717819214,
                0.10271608829498291,
                -0.6637330055236816,
                -0.08218777179718018,
                0.4442673921585083
            ],
            [
                0.7658281326293945,
                0.30119335651397705,
                -0.8089374303817749,
                0.6323904991149902,
                0.22417569160461426,
                -0.2573261260986328,
                0.12989366054534912,
                -0.5321474075317383,
                0.4489588737487793,
                -0.5219508409500122,
                -0.23216891288757324,
                -0.943169891834259,
                -0.6676954627037048,
                0.8302552700042725,
                -0.8526020646095276,
                -0.3007327914237976,
                0.12469542026519775,
                -0.5815089344978333,
                -0.46665871143341064,
                0.18399786949157715,
                0.9738582372665405,
                -0.3468855023384094,
                0.2469700574874878,
                0.5609588623046875,
                0.24175620079040527,
                -0.6064636707305908,
                -0.33632510900497437,
                0.5780231952667236,
                0.311348557472229,
                -0.8920577764511108,
                -0.1049569845199585,
                0.07717669010162354,
                0.40913569927215576,
                0.0861055850982666,
                -0.290432870388031,
                -0.36668860912323,
                0.8287794589996338,
                0.8394608497619629,
                0.10116398334503174,
                0.2777383327484131,
                -0.6824899911880493,
                0.8689950704574585
            ],
            [
                -0.35018545389175415,
                0.6992502212524414,
                0.48196637630462646,
                0.34908175468444824,
                -0.17605429887771606,
                0.9004573822021484,
                0.8824230432510376,
                -0.9920564293861389,
                0.874315619468689,
                -0.4644624590873718,
                0.25491368770599365,
                0.43527448177337646,
                0.7772936820983887,
                0.6484500169754028,
                -0.9010506272315979,
                0.35531675815582275,
                -0.040201425552368164,
                -0.793108344078064,
                -0.7496402263641357,
                -0.9630247950553894,
                0.6160273551940918,
                0.33646535873413086,
                -0.2534576654434204,
                -0.750661313533783,
                0.16524481773376465,
                -0.4139968156814575,
                0.350502610206604,
                -0.557016909122467,
                -0.09648680686950684,
                0.2194976806640625,
                0.777551531791687,
                0.5533276796340942,
                -0.08125203847885132,
                0.2595177888870239,
                -0.09759050607681274,
                0.7426936626434326,
                0.15997517108917236,
                -0.21516752243041992,
                0.7506372928619385,
                0.03429090976715088,
                0.3203699588775635,
                0.005550861358642578
            ],
            [
                0.09766364097595215,
                -0.3459990620613098,
                -0.43148523569107056,
                -0.5470194816589355,
                0.6137994527816772,
                -0.22459357976913452,
                -0.2966597080230713,
                0.6507747173309326,
                -0.6085662841796875,
                -0.9601943492889404,
                -0.6026829481124878,
                -0.35922759771347046,
                0.20505046844482422,
                -0.016679763793945313,
                0.9912749528884888,
                0.6480334997177124,
                0.8868334293365479,
                0.21077263355255127,
                0.42558491230010986,
                0.44016122817993164,
                -0.8704793453216553,
                -0.31489723920822144,
                -0.6574293375015259,
                0.8722143173217773,
                0.8450779914855957,
                0.1274031400680542,
                0.6228514909744263,
                -0.12063109874725342,
                -0.5522269010543823,
                -0.3715975284576416,
                0.3489341735839844,
                0.5454368591308594,
                0.2824033498764038,
                0.9174489974975586,
                0.9984172582626343,
                -0.10379713773727417,
                -0.3071446418762207,
                -0.298242449760437,
                -0.45302242040634155,
                0.0842890739440918,
                -0.25843679904937744,
                -0.055705368518829346
            ],
            [
                0.9466136693954468,
                0.9276149272918701,
                0.7163364887237549,
                0.5946471691131592,
                0.814448356628418,
                -0.07289081811904907,
                0.020232081413269043,
                0.2546095848083496,
                0.05662977695465088,
                0.7053349018096924,
                0.5971801280975342,
                -0.07115590572357178,
                0.5504128932952881,
                -0.27541667222976685,
                -0.44830435514450073,
                -0.5702182650566101,
                0.1723564863204956,
                0.1800980567932129,
                0.778715968132019,
                -0.28220677375793457,
                -0.5374985337257385,
                0.6961649656295776,
                -0.2837894558906555,
                0.3587043285369873,
                -0.6109796762466431,
                0.41796815395355225,
                0.905681848526001,
                0.47330939769744873,
                -0.8404686450958252,
                -0.1500234603881836,
                0.19837093353271484,
                -0.8938550353050232,
                -0.22240859270095825,
                -0.08529263734817505,
                0.7007920742034912,
                -0.4079602360725403,
                0.8418165445327759,
                -0.27897584438323975,
                0.8466492891311646,
                -0.10155367851257324,
                -0.5736409425735474,
                0.44382941722869873
            ],
            [
                0.9767718315124512,
                -0.8315871953964233,
                -0.6210139393806458,
                -0.5934463739395142,
                0.3407691717147827,
                0.5590841770172119,
                -0.8147304058074951,
                -0.9414375424385071,
                -0.9784143567085266,
                0.8814345598220825,
                -0.2252269983291626,
                0.3802899122238159,
                -0.7295451164245605,
                -0.8072588443756104,
                0.28597187995910645,
                0.7437642812728882,
                -0.6477274894714355,
                -0.8640516400337219,
                -0.05786484479904175,
                -0.5415825843811035,
                -0.08646023273468018,
                0.8568425178527832,
                -0.8407905101776123,
                0.5055794715881348,
                0.6986589431762695,
                -0.11976629495620728,
                0.3522287607192993,
                -0.40289467573165894,
                0.3065927028656006,
                -0.2039417028427124,
                -0.5756043195724487,
                0.2833646535873413,
                -0.03552895784378052,
                -0.1966181993484497,
                0.6899182796478271,
                -0.694759726524353,
                -0.6375340223312378,
                0.875187873840332,
                -0.6361972093582153,
                -0.6159484386444092,
                0.756622314453125,
                0.13857579231262207
            ],
            [
                -0.9729227423667908,
                0.3313169479370117,
                0.050313353538513184,
                0.7708414793014526,
                0.6835894584655762,
                0.18626165390014648,
                -0.28702330589294434,
                -0.8579931259155273,
                -0.9001985788345337,
                -0.4301808476448059,
                -0.6987836360931396,
                0.6053810119628906,
                -0.7315218448638916,
                0.1814500093460083,
                -0.04239022731781006,
                -0.13441652059555054,
                -0.5119572281837463,
                0.7536680698394775,
                0.2899792194366455,
                0.7714073657989502,
                -0.281860888004303,
                -0.906639039516449,
                0.46132564544677734,
                0.02337944507598877,
                -0.5441731214523315,
                0.3365134000778198,
                0.3871821165084839,
                -0.16012156009674072,
                0.09313583374023438,
                -0.47424203157424927,
                -0.3957800269126892,
                0.12021303176879883,
                0.8570748567581177,
                0.6545332670211792,
                -0.10894542932510376,
                0.5406643152236938,
                -0.15920501947402954,
                0.6040312051773071,
                0.6826711893081665,
                -0.05940353870391846,
                -0.826149582862854,
                0.9838875532150269
            ],
            [
                -0.5576714277267456,
                0.16533756256103516,
                0.5035872459411621,
                0.3079119920730591,
                0.6533803939819336,
                0.25725531578063965,
                -0.4021087884902954,
                0.4247877597808838,
                0.9753943681716919,
                -0.3087478280067444,
                -0.11388665437698364,
                -0.0012262463569641113,
                0.1470789909362793,
                -0.777373194694519,
                -0.6140440702438354,
                0.9869575500488281,
                0.31576263904571533,
                -0.08828610181808472,
                -0.40882253646850586,
                -0.5640243887901306,
                -0.23121124505996704,
                -0.7542892098426819,
                0.3270301818847656,
                -0.690546989440918,
                0.08650577068328857,
                -0.06893861293792725,
                0.9921241998672485,
                -0.9728977084159851,
                0.10491180419921875,
                0.9760116338729858,
                -0.4269202947616577,
                0.5472402572631836,
                0.141349196434021,
                -0.9233330488204956,
                -0.14484769105911255,
                -0.2052704095840454,
                0.3339221477508545,
                0.4530435800552368,
                -0.7804826498031616,
                0.30931663513183594,
                -0.8557043075561523,
                0.10563063621520996
            ],
            [
                0.29137468338012695,
                0.3282574415206909,
                -0.3059536814689636,
                0.2783322334289551,
                -0.35597991943359375,
                0.6057602167129517,
                0.8695096969604492,
                0.07999575138092041,
                -0.6254510879516602,
                -0.8847794532775879,
                -0.5929741263389587,
                -0.31599801778793335,
                0.20172631740570068,
                0.33808720111846924,
                -0.3238738775253296,
                0.22882866859436035,
                -0.557000994682312,
                -0.347862184047699,
                0.8019083738327026,
                0.9902393817901611,
                0.7934870719909668,
                0.878575325012207,
                -0.15460830926895142,
                -0.4117833375930786,
                0.21249747276306152,
                -0.7015647888183594,
                -0.19226598739624023,
                -0.4781859517097473,
                -0.5572690963745117,
                0.9133646488189697,
                -0.1700955629348755,
                0.7341055870056152,
                0.2416222095489502,
                0.5239506959915161,
                0.012437820434570313,
                0.8856422901153564,
                0.12971091270446777,
                -0.1180524230003357,
                -0.03436201810836792,
                0.5042598247528076,
                -0.002831876277923584,
                0.37266385555267334
            ],
            [
                -0.8011055588722229,
                -0.28924888372421265,
                -0.13561207056045532,
                0.4277230501174927,
                0.15375018119812012,
                0.5165257453918457,
                0.2296314239501953,
                0.1439894437789917,
                0.3100128173828125,
                0.10820662975311279,
                0.9893810749053955,
                0.8982295989990234,
                -0.6792958974838257,
                -0.7121837139129639,
                -0.29403644800186157,
                -0.15748178958892822,
                -0.2694528102874756,
                -0.38067173957824707,
                0.6724226474761963,
                -0.5353472232818604,
                0.8609504699707031,
                0.1963733434677124,
                0.47709059715270996,
                0.7465927600860596,
                -0.6739157438278198,
                -0.640961766242981,
                -0.28776925802230835,
                0.8303440809249878,
                0.3562062978744507,
                -0.915105402469635,
                -0.9813941121101379,
                0.5551007986068726,
                -0.20435428619384766,
                -0.11700612306594849,
                -0.017176151275634766,
                0.9493957757949829,
                -0.600480318069458,
                -0.7875447869300842,
                0.09338533878326416,
                0.7095324993133545,
                0.32066190242767334,
                0.08276641368865967
            ],
            [
                0.6413660049438477,
                0.3705826997756958,
                -0.6862744092941284,
                -0.5161157846450806,
                -0.8988701105117798,
                -0.06694614887237549,
                -0.8436931371688843,
                -0.43421727418899536,
                -0.20599567890167236,
                0.3526802062988281,
                -0.9571266770362854,
                -0.4594029188156128,
                0.6787644624710083,
                -0.5980884432792664,
                0.2528277635574341,
                0.5091086626052856,
                0.7581179141998291,
                0.33772242069244385,
                0.5277144908905029,
                0.3132185935974121,
                -0.8666319251060486,
                -0.5892916321754456,
                -0.7039575576782227,
                -0.9172360897064209,
                -0.18977200984954834,
                -0.4915023446083069,
                0.1761491298675537,
                -0.48023951053619385,
                0.8291596174240112,
                -0.7410844564437866,
                -0.8724774122238159,
                0.4705256223678589,
                0.6294982433319092,
                -0.5587518215179443,
                0.9544098377227783,
                0.730628252029419,
                0.3743020296096802,
                -0.8892832398414612,
                -0.7035890817642212,
                -0.8316936492919922,
                0.4633970260620117,
                -0.6607157588005066
            ],
            [
                0.14216160774230957,
                -0.25880420207977295,
                0.9617311954498291,
                -0.34872984886169434,
                -0.5006862878799438,
                0.29945361614227295,
                -0.8210153579711914,
                0.8125323057174683,
                0.4328216314315796,
                -0.4103069305419922,
                -0.8914252519607544,
                0.5155855417251587,
                0.3999210596084595,
                -0.3829275965690613,
                -0.3082653284072876,
                0.9196815490722656,
                -0.5537680387496948,
                -0.04934972524642944,
                -0.9527958631515503,
                0.9167575836181641,
                -0.4198514223098755,
                -0.5115476846694946,
                0.8711674213409424,
                -0.6892232298851013,
                0.8627543449401855,
                0.981884241104126,
                -0.3928123116493225,
                -0.9689393043518066,
                0.4452812671661377,
                -0.0535280704498291,
                -0.2600358724594116,
                -0.4125571846961975,
                0.687667727470398,
                -0.2983046770095825,
                0.23871302604675293,
                -0.8130185604095459,
                -0.9988510608673096,
                0.4176976680755615,
                0.9995137453079224,
                0.43397057056427,
                -0.9926093220710754,
                -0.8919115662574768
            ],
            [
                0.4073117971420288,
                -0.2748391628265381,
                0.6412907838821411,
                0.32699334621429443,
                0.1713927984237671,
                -0.40805888175964355,
                0.3741973638534546,
                0.08815038204193115,
                0.17208969593048096,
                0.86264967918396,
                -0.04068213701248169,
                0.48286640644073486,
                0.7254040241241455,
                -0.05879783630371094,
                -0.9099459052085876,
                0.7564647197723389,
                -0.6135165691375732,
                0.03652596473693848,
                -0.5035711526870728,
                -0.026073753833770752,
                -0.2758062481880188,
                0.19812417030334473,
                -0.7873607873916626,
                -0.0888248085975647,
                0.19927310943603516,
                0.6303368806838989,
                -0.08931112289428711,
                -0.36675626039505005,
                0.6377276182174683,
                0.01877725124359131,
                0.5827997922897339,
                0.04503929615020752,
                0.7439380884170532,
                0.22409069538116455,
                -0.627967357635498,
                -0.08466905355453491,
                0.816031813621521,
                0.7462300062179565,
                -0.9965186715126038,
                -0.011878609657287598,
                0.6088796854019165,
                -0.037200748920440674
            ],
            [
                0.33428382873535156,
                0.9040013551712036,
                -0.4389581084251404,
                0.09074854850769043,
                -0.7095152139663696,
                0.5975679159164429,
                0.5871773958206177,
                0.26441097259521484,
                -0.6782382726669312,
                -0.2146984338760376,
                0.47705018520355225,
                0.23293685913085938,
                0.9845746755599976,
                0.10738706588745117,
                -0.8563742637634277,
                -0.3821815848350525,
                -0.25488531589508057,
                0.16240298748016357,
                -0.7993817329406738,
                0.790153980255127,
                -0.09365886449813843,
                0.4247089624404907,
                -0.8378133773803711,
                0.8216720819473267,
                0.24074065685272217,
                0.9084166288375854,
                0.8251534700393677,
                -0.7711378931999207,
                0.5172964334487915,
                -0.21204733848571777,
                -0.3001500964164734,
                -0.1484197974205017,
                -0.3080459237098694,
                0.26089179515838623,
                0.942328691482544,
                -0.01756119728088379,
                -0.14154022932052612,
                0.5295059680938721,
                -0.7531501650810242,
                0.18022143840789795,
                -0.6851924657821655,
                0.7239000797271729
            ],
            [
                -0.700617790222168,
                -0.1687127947807312,
                -0.44321590662002563,
                -0.08279937505722046,
                0.5764018297195435,
                0.7191871404647827,
                0.11781895160675049,
                0.36655592918395996,
                -0.3744717240333557,
                -0.45747214555740356,
                0.5287425518035889,
                -0.552799642086029,
                0.7832685708999634,
                0.4371591806411743,
                -0.7276461720466614,
                -0.987869381904602,
                -0.04554438591003418,
                0.060306549072265625,
                -0.28801947832107544,
                0.8060357570648193,
                0.7522605657577515,
                0.9728723764419556,
                0.7483644485473633,
                -0.2653006315231323,
                -0.16866785287857056,
                0.2778705358505249,
                -0.018450796604156494,
                -0.9884463548660278,
                0.5926780700683594,
                -0.29455071687698364,
                -0.5752880573272705,
                0.8920602798461914,
                0.5367364883422852,
                -0.018503963947296143,
                -0.19073909521102905,
                0.11313831806182861,
                -0.29931682348251343,
                0.9270797967910767,
                -0.5203057527542114,
                0.32621145248413086,
                -0.5303923487663269,
                -0.9915632605552673
            ],
            [
                -0.7471238374710083,
                0.4455958604812622,
                -0.9542343616485596,
                -0.7349932193756104,
                -0.599948525428772,
                0.1060720682144165,
                -0.02301269769668579,
                -0.7939127087593079,
                -0.14166730642318726,
                -0.050140321254730225,
                0.9544516801834106,
                0.5930320024490356,
                0.7811918258666992,
                0.23232221603393555,
                -0.4254187345504761,
                0.7927454710006714,
                -0.17499971389770508,
                0.2800304889678955,
                -0.7825425863265991,
                -0.28293943405151367,
                -0.18323296308517456,
                0.1989535093307495,
                0.5263214111328125,
                0.9299054145812988,
                0.8996366262435913,
                0.4534013271331787,
                -0.5904004573822021,
                0.22584807872772217,
                0.923008918762207,
                -0.5819637179374695,
                -0.0007401108741760254,
                -0.8241148591041565,
                0.8636322021484375,
                0.04502558708190918,
                -0.5591081380844116,
                -0.7363163232803345,
                -0.8489023447036743,
                0.41787922382354736,
                -0.5302290320396423,
                0.009430289268493652,
                -0.6322610378265381,
                -0.5757772922515869
            ],
            [
                -0.8510692119598389,
                0.6565449237823486,
                0.17704367637634277,
                0.9416762590408325,
                -0.5184547901153564,
                -0.5429258346557617,
                -0.8408663272857666,
                0.19860577583312988,
                0.27384114265441895,
                0.3580871820449829,
                -0.2750728130340576,
                0.20374655723571777,
                0.2577238082885742,
                -0.8216714859008789,
                0.6133460998535156,
                -0.5164281129837036,
                -0.8986625671386719,
                -0.9686175584793091,
                0.48283183574676514,
                -0.7227774262428284,
                0.8950146436691284,
                -0.47214263677597046,
                -0.2818855047225952,
                -0.841301679611206,
                -0.3210449814796448,
                -0.8640062808990479,
                -0.3715307116508484,
                0.6883853673934937,
                -0.4962673783302307,
                0.05269193649291992,
                -0.7091522216796875,
                -0.3473365902900696,
                -0.29076308012008667,
                0.4678913354873657,
                -0.40566039085388184,
                0.1907820701599121,
                0.924965500831604,
                -0.24652671813964844,
                -0.610612154006958,
                0.1988067626953125,
                -0.8884395360946655,
                0.11431503295898438
            ],
            [
                0.3692842721939087,
                0.29264354705810547,
                -0.9841005802154541,
                0.8528562784194946,
                0.3939809799194336,
                -0.9527181386947632,
                0.3356879949569702,
                0.6712034940719604,
                0.9422965049743652,
                0.8635454177856445,
                -0.6106820106506348,
                -0.8990051746368408,
                -0.45749956369400024,
                -0.4746882915496826,
                -0.270535945892334,
                -0.7691141366958618,
                0.029044270515441895,
                0.7821561098098755,
                -0.4782664179801941,
                0.6817077398300171,
                -0.508607029914856,
                0.9896249771118164,
                -0.7239526510238647,
                0.6821750402450562,
                0.9145904779434204,
                0.029520630836486816,
                -0.9284371137619019,
                0.11339724063873291,
                0.1410810947418213,
                0.18587791919708252,
                0.5159505605697632,
                -0.48963463306427,
                -0.5214786529541016,
                0.5318499803543091,
                -0.6367783546447754,
                0.872502326965332,
                0.5791318416595459,
                0.6989096403121948,
                0.5437058210372925,
                0.5214283466339111,
                0.5624550580978394,
                0.9330238103866577
            ],
            [
                -0.8950444459915161,
                -0.5416644811630249,
                -0.6481127738952637,
                -0.6641586422920227,
                0.48737990856170654,
                -0.865956723690033,
                -0.1424250602722168,
                0.16908752918243408,
                -0.3745637536048889,
                -0.15280014276504517,
                0.44513487815856934,
                -0.6923887133598328,
                -0.23820966482162476,
                -0.5253444910049438,
                -0.6208258867263794,
                0.8751876354217529,
                0.6157366037368774,
                0.5650520324707031,
                0.3911381959915161,
                -0.8738980889320374,
                -0.9564266204833984,
                -0.07701188325881958,
                -0.5106765031814575,
                0.9160757064819336,
                -0.4978799819946289,
                -0.8117668032646179,
                0.4597816467285156,
                -0.9764516353607178,
                0.7506883144378662,
                0.39280545711517334,
                0.6459715366363525,
                0.8556438684463501,
                0.851141095161438,
                0.9978587627410889,
                -0.8085148334503174,
                0.338520884513855,
                -0.8680979609489441,
                0.04906010627746582,
                -0.49239152669906616,
                -0.242661714553833,
                0.8962600231170654,
                0.9527432918548584
            ],
            [
                -0.3419496417045593,
                -0.5726011991500854,
                0.4441237449645996,
                -0.46676206588745117,
                -0.9568646550178528,
                0.009175777435302734,
                0.9243761301040649,
                -0.8307627439498901,
                0.0527491569519043,
                -0.15263575315475464,
                -0.3414391875267029,
                -0.03117513656616211,
                0.3494842052459717,
                -0.15320605039596558,
                -0.5713934898376465,
                0.3730325698852539,
                -0.40251773595809937,
                0.8214119672775269,
                0.019004106521606445,
                -0.546873927116394,
                0.6725529432296753,
                0.016862869262695313,
                -0.3553887605667114,
                0.011073946952819824,
                0.14876484870910645,
                0.6936713457107544,
                0.5186823606491089,
                0.9061031341552734,
                0.5899313688278198,
                0.4714256525039673,
                -0.02894723415374756,
                -0.7520183324813843,
                0.8988244533538818,
                -0.584823489189148,
                -0.21878039836883545,
                0.9419597387313843,
                0.42435216903686523,
                -0.2944043278694153,
                -0.8888030052185059,
                -0.5228986740112305,
                0.5529599189758301,
                -0.23024219274520874
            ],
            [
                -0.09755587577819824,
                0.6165517568588257,
                0.8745326995849609,
                -0.7245233058929443,
                -0.7859659790992737,
                0.6959446668624878,
                0.2944808006286621,
                -0.3328399062156677,
                0.3684976100921631,
                -0.6886563897132874,
                0.3117712736129761,
                -0.6204284429550171,
                0.46010851860046387,
                0.005442619323730469,
                0.8982539176940918,
                0.3662116527557373,
                -0.4046260118484497,
                0.3696795701980591,
                -0.6627355813980103,
                -0.15664434432983398,
                0.2685040235519409,
                -0.2475590705871582,
                0.6245752573013306,
                0.2104637622833252,
                -0.823206901550293,
                -0.6698290705680847,
                0.32166075706481934,
                -0.34610557556152344,
                0.8831307888031006,
                -0.9085814356803894,
                -0.900179386138916,
                -0.21442502737045288,
                0.707970380783081,
                0.9743531942367554,
                0.06105160713195801,
                0.9220043420791626,
                0.6702978610992432,
                -0.6444675922393799,
                -0.41083550453186035,
                0.03879547119140625,
                -0.33312398195266724,
                0.9009357690811157
            ],
            [
                -0.8730154633522034,
                -0.09362155199050903,
                0.3166208267211914,
                0.4931962490081787,
                0.501752495765686,
                -0.3136996030807495,
                0.8304606676101685,
                -0.654891848564148,
                0.9548044204711914,
                -0.4170984625816345,
                0.9696834087371826,
                0.1652681827545166,
                -0.2403053641319275,
                -0.7001457214355469,
                -0.5130711197853088,
                0.41358911991119385,
                -0.8170148730278015,
                -0.42165255546569824,
                0.5134096145629883,
                -0.031439900398254395,
                -0.7136821746826172,
                0.4877629280090332,
                -0.9703882932662964,
                -0.7916778326034546,
                0.15806078910827637,
                -0.6148558855056763,
                -0.20251333713531494,
                -0.8031437397003174,
                0.05202019214630127,
                -0.3015775680541992,
                0.6152232885360718,
                0.17900478839874268,
                0.6048009395599365,
                -0.06815588474273682,
                -0.3277990221977234,
                0.10655331611633301,
                0.6181445121765137,
                -0.4973384141921997,
                0.45166146755218506,
                0.5729489326477051,
                0.08556318283081055,
                0.4213448762893677
            ],
            [
                0.8452578783035278,
                0.7211991548538208,
                0.22514593601226807,
                0.25884687900543213,
                0.9041842222213745,
                0.8034933805465698,
                -0.22774344682693481,
                -0.1272556185722351,
                -0.9101888537406921,
                -0.7399805188179016,
                -0.0976439118385315,
                -0.701866626739502,
                0.41808021068573,
                0.287500262260437,
                0.0956200361251831,
                0.6149364709854126,
                -0.6604795455932617,
                0.7940424680709839,
                0.23015975952148438,
                0.518525242805481,
                0.39884328842163086,
                -0.8379961252212524,
                -0.8092738389968872,
                -0.4946032762527466,
                0.7801483869552612,
                -0.3066122531890869,
                0.9570581912994385,
                0.3530973196029663,
                0.7789509296417236,
                0.37840306758880615,
                -0.9086856842041016,
                0.6242088079452515,
                0.09960222244262695,
                0.3164602518081665,
                -0.1169443130493164,
                0.003786444664001465,
                0.11995363235473633,
                0.655312180519104,
                0.8765307664871216,
                0.20976471900939941,
                0.9153317213058472,
                -0.22111308574676514
            ],
            [
                0.3334120512008667,
                -0.9336128830909729,
                -0.39648187160491943,
                -0.0516514778137207,
                -0.5940924286842346,
                -0.6024394631385803,
                -0.8214917182922363,
                0.9244327545166016,
                0.7964038848876953,
                -0.6594878435134888,
                -0.8848410844802856,
                -0.6981993913650513,
                -0.8793395161628723,
                -0.19145333766937256,
                -0.7411412000656128,
                0.4737577438354492,
                -0.4125024080276489,
                0.6372617483139038,
                0.5650720596313477,
                -0.7882936596870422,
                -0.26313602924346924,
                -0.11846768856048584,
                0.09476196765899658,
                0.7406504154205322,
                -0.9985141158103943,
                -0.24992573261260986,
                0.6171811819076538,
                0.2112506628036499,
                -0.3345940113067627,
                -0.6039319038391113,
                -0.28085124492645264,
                0.9988179206848145,
                -0.537544846534729,
                0.32266688346862793,
                -0.052833497524261475,
                -0.13163721561431885,
                0.7202273607254028,
                0.12567472457885742,
                -0.20720446109771729,
                0.5166312456130981,
                0.46618688106536865,
                -0.09204554557800293
            ],
            [
                0.5868474245071411,
                0.7165011167526245,
                -0.9227094054222107,
                0.06060516834259033,
                -0.6960012912750244,
                0.7145524024963379,
                -0.374322772026062,
                -0.48429495096206665,
                -0.5485836863517761,
                0.5072095394134521,
                0.6104670763015747,
                -0.8079333305358887,
                0.5086953639984131,
                -0.6394586563110352,
                0.8092478513717651,
                -0.280053973197937,
                0.02594733238220215,
                -0.7946840524673462,
                0.43909478187561035,
                0.0247652530670166,
                -0.3322288393974304,
                -0.2382383942604065,
                0.9719318151473999,
                0.536133885383606,
                -0.5180110335350037,
                0.09760653972625732,
                -0.6710705757141113,
                0.9986202716827393,
                -0.436206579208374,
                0.23688387870788574,
                0.8170520067214966,
                -0.8493591547012329,
                -0.04661494493484497,
                0.8943426609039307,
                0.21124589443206787,
                0.2573838233947754,
                0.6088950634002686,
                0.8369231224060059,
                0.773088812828064,
                -0.9396886825561523,
                0.344132661819458,
                0.38355588912963867
            ],
            [
                -0.1471719741821289,
                0.7440972328186035,
                -0.9383741021156311,
                0.5727740526199341,
                -0.22995543479919434,
                -0.7330581545829773,
                0.011868715286254883,
                0.7948098182678223,
                -0.06528699398040771,
                0.7736303806304932,
                0.7667416334152222,
                -0.5291531085968018,
                -0.7443807125091553,
                -0.1356518268585205,
                -0.2002236247062683,
                -0.745760440826416,
                0.42814159393310547,
                -0.9633396863937378,
                -0.9287084341049194,
                0.5787824392318726,
                -0.009954690933227539,
                0.9656342267990112,
                -0.2099716067314148,
                -0.7525708675384521,
                0.5745292901992798,
                -0.37304842472076416,
                -0.9794820547103882,
                0.6348406076431274,
                0.9710842370986938,
                0.4040738344192505,
                0.8872185945510864,
                -0.17608779668807983,
                0.148171067237854,
                0.9488445520401001,
                -0.6033138036727905,
                0.9182156324386597,
                -0.784213662147522,
                0.40855491161346436,
                0.7130255699157715,
                0.1504993438720703,
                0.18218529224395752,
                0.47976720333099365
            ],
            [
                0.43780457973480225,
                -0.6558846235275269,
                -0.5788773894309998,
                0.6920441389083862,
                0.7722569704055786,
                -0.5422171354293823,
                0.7633357048034668,
                0.35103940963745117,
                0.44782817363739014,
                0.728969931602478,
                -0.8589321374893188,
                0.695257306098938,
                0.3034992218017578,
                -0.231980562210083,
                0.7157752513885498,
                -0.06166023015975952,
                -0.26089638471603394,
                0.11984908580780029,
                -0.1744416356086731,
                0.5630158185958862,
                -0.7319797277450562,
                -0.22559714317321777,
                0.9597020149230957,
                -0.8137640953063965,
                -0.00981074571609497,
                0.36825692653656006,
                0.899261474609375,
                -0.8593114018440247,
                -0.44955772161483765,
                0.37902867794036865,
                0.7620348930358887,
                0.9882469177246094,
                0.7231440544128418,
                -0.8168425559997559,
                0.6802910566329956,
                0.4954010248184204,
                -0.3590596318244934,
                0.4436267614364624,
                -0.15355950593948364,
                -0.9112313985824585,
                0.17259681224822998,
                -0.01249164342880249
            ],
            [
                -0.523904025554657,
                0.7555277347564697,
                0.4998011589050293,
                0.4144357442855835,
                -0.5053685903549194,
                -0.38034969568252563,
                -0.7600058317184448,
                -0.942352831363678,
                -0.11232948303222656,
                0.014397025108337402,
                -0.9826508164405823,
                0.07390642166137695,
                -0.9954137802124023,
                0.38560616970062256,
                -0.026832103729248047,
                -0.854725182056427,
                0.9360483884811401,
                -0.6478034853935242,
                0.9073096513748169,
                0.9242953062057495,
                -0.9246594309806824,
                -0.9095328450202942,
                0.6045863628387451,
                0.5707415342330933,
                -0.2685924768447876,
                0.04821312427520752,
                -0.5828179121017456,
                -0.1798238754272461,
                -0.7791900634765625,
                0.40469038486480713,
                -0.3957979679107666,
                -0.3030940890312195,
                0.16021811962127686,
                -0.8959968090057373,
                -0.8886582851409912,
                0.6548495292663574,
                -0.27634650468826294,
                -0.6486641764640808,
                0.7124967575073242,
                0.6113240718841553,
                0.3657327890396118,
                0.7298458814620972
            ],
            [
                0.370319128036499,
                0.11545205116271973,
                0.6583983898162842,
                0.5155938863754272,
                0.05150043964385986,
                -0.98940509557724,
                0.4229036569595337,
                -0.02420419454574585,
                -0.9140645265579224,
                0.5133707523345947,
                -0.41961783170700073,
                0.6566770076751709,
                -0.7552217245101929,
                0.6285953521728516,
                -0.9261409044265747,
                0.06495440006256104,
                0.8494052886962891,
                0.4785494804382324,
                0.6691564321517944,
                -0.4536888003349304,
                -0.36123228073120117,
                0.7731596231460571,
                -0.34234708547592163,
                -0.7063827514648438,
                -0.5031868815422058,
                0.008988738059997559,
                -0.9938860535621643,
                -0.8918628692626953,
                -0.6252783536911011,
                0.7359598875045776,
                -0.2066323161125183,
                0.7450406551361084,
                -0.14858806133270264,
                -0.5482339859008789,
                0.2606346607208252,
                0.9029123783111572,
                -0.5376390218734741,
                -0.3164617419242859,
                -0.12129181623458862,
                -0.4517035484313965,
                -0.8030909895896912,
                0.45909035205841064
            ],
            [
                -0.5583127737045288,
                0.08768570423126221,
                -0.7211674451828003,
                0.5066416263580322,
                -0.06290900707244873,
                0.7573821544647217,
                0.1757979393005371,
                0.4834022521972656,
                -0.6038501262664795,
                -0.05104243755340576,
                -0.8589448928833008,
                -0.310232937335968,
                0.4457707405090332,
                0.15004384517669678,
                -0.3041189908981323,
                0.5539078712463379,
                0.5247654914855957,
                -0.5681591033935547,
                -0.6527245044708252,
                0.26980626583099365,
                0.2832528352737427,
                -0.20095843076705933,
                -0.46955913305282593,
                0.1861652135848999,
                0.2614024877548218,
                0.21397912502288818,
                -0.9351266026496887,
                0.8096989393234253,
                0.41088807582855225,
                0.5239638090133667,
                -0.9853276014328003,
                0.852575421333313,
                -0.38835054636001587,
                -0.7064949870109558,
                0.35921692848205566,
                0.5487403869628906,
                -0.9491128325462341,
                -0.4649850130081177,
                0.03214263916015625,
                -0.5529630184173584,
                0.48397254943847656,
                0.17319774627685547
            ],
            [
                -0.07025676965713501,
                -0.6767582893371582,
                0.832685112953186,
                -0.5163489580154419,
                0.8480072021484375,
                -0.7354739904403687,
                -0.16907340288162231,
                0.11781346797943115,
                0.547778844833374,
                0.6299681663513184,
                0.6482542753219604,
                -0.26605600118637085,
                -0.10862934589385986,
                -0.13776659965515137,
                -0.20118260383605957,
                -0.29893040657043457,
                -0.7268784642219543,
                -0.6772187948226929,
                -0.2842579483985901,
                -0.8743031024932861,
                -0.06556934118270874,
                0.009247064590454102,
                0.4849139451980591,
                -0.5168288946151733,
                0.060134172439575195,
                -0.9800711274147034,
                0.5153137445449829,
                0.5071711540222168,
                0.503901481628418,
                -0.3114885091781616,
                -0.3560248017311096,
                -0.5663553476333618,
                0.011753201484680176,
                -0.5233396887779236,
                -0.08270424604415894,
                -0.14023959636688232,
                -0.25881367921829224,
                0.7482223510742188,
                0.9775738716125488,
                -0.711034893989563,
                0.3781905174255371,
                0.6258281469345093
            ],
            [
                -0.7304388284683228,
                -0.5119384527206421,
                0.8217265605926514,
                -0.0293692946434021,
                -0.23881691694259644,
                -0.8554922938346863,
                0.6863727569580078,
                -0.11311995983123779,
                0.07893836498260498,
                -0.3043801784515381,
                -0.6282060146331787,
                0.5621094703674316,
                0.7557539939880371,
                -0.6082772016525269,
                0.077423095703125,
                0.2629251480102539,
                0.8956242799758911,
                0.7659345865249634,
                0.9069004058837891,
                -0.6707310676574707,
                -0.22231215238571167,
                -0.6164392828941345,
                0.24656474590301514,
                0.6374481916427612,
                0.12474703788757324,
                -0.005212962627410889,
                0.6150220632553101,
                0.41371214389801025,
                -0.6270225048065186,
                0.24085021018981934,
                -0.5633787512779236,
                -0.3574613332748413,
                0.7289117574691772,
                -0.741652250289917,
                0.6131694316864014,
                -0.5099050998687744,
                -0.5971444845199585,
                0.2995421886444092,
                0.3769749402999878,
                0.4817938804626465,
                0.9951620101928711,
                0.7487688064575195
            ],
            [
                0.7509160041809082,
                -0.8595083355903625,
                -0.8786736130714417,
                0.01384115219116211,
                -0.9638840556144714,
                0.8872610330581665,
                -0.07925844192504883,
                -0.6346151232719421,
                -0.33505111932754517,
                0.3043022155761719,
                0.6119495630264282,
                -0.6976028680801392,
                -0.5709507465362549,
                -0.3932633399963379,
                0.9174191951751709,
                0.8427613973617554,
                -0.020285844802856445,
                0.15826940536499023,
                -0.7206173539161682,
                0.6222528219223022,
                -0.1128188967704773,
                -0.46226954460144043,
                0.2354222536087036,
                0.3772759437561035,
                -0.0594140887260437,
                -0.4650355577468872,
                -0.2457491159439087,
                -0.5776202082633972,
                -0.4698736071586609,
                -0.49698030948638916,
                0.46628308296203613,
                -0.7189576625823975,
                -0.3564886450767517,
                0.5876095294952393,
                0.29488348960876465,
                -0.32037270069122314,
                0.47487056255340576,
                -0.7843748927116394,
                0.04501223564147949,
                -0.8601806163787842,
                0.5199273824691772,
                -0.34303826093673706
            ],
            [
                0.9489766359329224,
                0.2636984586715698,
                -0.6403642892837524,
                0.7917380332946777,
                -0.7565873861312866,
                0.5179049968719482,
                -0.9288793206214905,
                0.8656654357910156,
                -0.5949138402938843,
                -0.3911489248275757,
                0.10108768939971924,
                0.7823621034622192,
                0.5494370460510254,
                0.636052131652832,
                -0.46338701248168945,
                0.9718167781829834,
                -0.8338215351104736,
                0.03963267803192139,
                0.43809986114501953,
                -0.5527790784835815,
                0.6831440925598145,
                0.02570939064025879,
                0.7421044111251831,
                -0.6372286081314087,
                -0.4994201064109802,
                0.9577294588088989,
                0.40778350830078125,
                -0.3596007227897644,
                0.47765684127807617,
                -0.935254693031311,
                0.08261585235595703,
                0.42663347721099854,
                0.3284437656402588,
                0.44225144386291504,
                0.21837151050567627,
                0.5718562602996826,
                -0.03984349966049194,
                0.289492130279541,
                0.43752169609069824,
                0.36524271965026855,
                0.8983432054519653,
                -0.46139055490493774
            ],
            [
                0.4477802515029907,
                -0.8253384828567505,
                0.6842178106307983,
                0.4195970296859741,
                -0.6591599583625793,
                -0.2761495113372803,
                -0.14230304956436157,
                -0.21193909645080566,
                -0.5930054187774658,
                0.883406400680542,
                -0.46983468532562256,
                -0.2302340865135193,
                -0.616013765335083,
                -0.5121051073074341,
                -0.8224505186080933,
                0.024385571479797363,
                0.9655517339706421,
                -0.7577052116394043,
                -0.8929986357688904,
                0.3921852111816406,
                0.5707385540008545,
                0.5492528676986694,
                -0.3894432783126831,
                0.1425948143005371,
                -0.4905906319618225,
                0.9000488519668579,
                -0.4198834300041199,
                0.8746520280838013,
                0.7983921766281128,
                0.11872601509094238,
                0.022256851196289063,
                0.24617242813110352,
                0.2933875322341919,
                -0.2935253381729126,
                -0.33423054218292236,
                0.6342275142669678,
                0.43032515048980713,
                0.5234664678573608,
                -0.5777115821838379,
                0.8373197317123413,
                0.4068727493286133,
                -0.047546207904815674
            ],
            [
                0.7908589839935303,
                0.44034862518310547,
                -0.21536481380462646,
                -0.18475544452667236,
                0.40590035915374756,
                0.02692997455596924,
                -0.07775408029556274,
                -0.20191442966461182,
                -0.40233153104782104,
                -0.5285012125968933,
                0.4086422920227051,
                0.7402632236480713,
                -0.01909184455871582,
                0.308691143989563,
                -0.6796202063560486,
                -0.14443975687026978,
                0.10708332061767578,
                0.439105749130249,
                0.8778171539306641,
                -0.6467443704605103,
                -0.2675067186355591,
                -0.4157082438468933,
                0.019025087356567383,
                -0.6332792043685913,
                -0.9853830337524414,
                -0.457508385181427,
                -0.21099072694778442,
                0.8519366979598999,
                0.949364423751831,
                0.7414630651473999,
                -0.5409775972366333,
                0.7402234077453613,
                0.18181169033050537,
                0.24365758895874023,
                -0.44453197717666626,
                -0.41228795051574707,
                -0.7294124364852905,
                0.477713942527771,
                0.3857976198196411,
                -0.13174396753311157,
                0.9492127895355225,
                -0.2055600881576538
            ],
            [
                -0.06987905502319336,
                -0.8968689441680908,
                -0.07110089063644409,
                0.7856811285018921,
                0.21021437644958496,
                -0.6319951415061951,
                0.6634982824325562,
                0.5634700059890747,
                0.10049819946289063,
                -0.7522099614143372,
                -0.41750484704971313,
                0.4672189950942993,
                -0.7375929951667786,
                0.12498676776885986,
                -0.7437717914581299,
                -0.8856562376022339,
                0.07435107231140137,
                0.99769127368927,
                -0.4266338348388672,
                -0.18542546033859253,
                0.1795029640197754,
                0.817023754119873,
                0.3700425624847412,
                0.7672150135040283,
                -0.9123886823654175,
                -0.15224343538284302,
                0.15301275253295898,
                -0.04413264989852905,
                -0.20303070545196533,
                0.9474525451660156,
                0.5643866062164307,
                0.7270902395248413,
                -0.9494163393974304,
                -0.5067142248153687,
                0.5127713680267334,
                0.26079797744750977,
                -0.13870936632156372,
                0.17626953125,
                -0.17573195695877075,
                0.9617887735366821,
                0.4240596294403076,
                0.4067631959915161
            ],
            [
                0.6864665746688843,
                -0.4682500958442688,
                0.6852359771728516,
                0.8008103370666504,
                0.6061010360717773,
                0.6829272508621216,
                -0.6258234977722168,
                -0.5793243646621704,
                -0.13756972551345825,
                -0.808799684047699,
                0.7907181978225708,
                -0.37035465240478516,
                -0.7211883068084717,
                -0.361525297164917,
                0.7826581001281738,
                0.2346789836883545,
                0.4354439973831177,
                0.7301106452941895,
                -0.20093435049057007,
                0.16253423690795898,
                0.7806943655014038,
                0.2923513650894165,
                -0.3246944546699524,
                0.041492342948913574,
                -0.8463580012321472,
                0.8515751361846924,
                0.865760326385498,
                -0.8845692276954651,
                0.275634765625,
                0.27252352237701416,
                0.5444384813308716,
                -0.03789865970611572,
                0.8042734861373901,
                0.22967445850372314,
                -0.23708832263946533,
                0.4103745222091675,
                -0.0873982310295105,
                0.13708817958831787,
                0.8310500383377075,
                0.7750320434570313,
                0.3282884359359741,
                0.6217682361602783
            ],
            [
                0.6071001291275024,
                -0.7397570610046387,
                -0.8126645088195801,
                -0.1582208275794983,
                0.695686936378479,
                0.9174461364746094,
                0.6408448219299316,
                -0.141778826713562,
                0.6981405019760132,
                -0.06680375337600708,
                0.5335267782211304,
                -0.26036715507507324,
                0.0868382453918457,
                0.38510191440582275,
                -0.3946068286895752,
                0.2022690773010254,
                -0.339263379573822,
                0.877916693687439,
                -0.253292441368103,
                0.622838020324707,
                0.6821901798248291,
                0.9763820171356201,
                -0.6142503023147583,
                0.09256458282470703,
                -0.1110161542892456,
                0.5228378772735596,
                -0.07638531923294067,
                -0.33598411083221436,
                -0.1488736867904663,
                -0.45461708307266235,
                0.06869339942932129,
                -0.5417735576629639,
                -0.19437408447265625,
                0.2560288906097412,
                0.3000056743621826,
                -0.49868708848953247,
                0.17347502708435059,
                -0.05914950370788574,
                0.35953402519226074,
                -0.12838447093963623,
                0.8740466833114624,
                -0.10693919658660889
            ],
            [
                -0.039115071296691895,
                -0.7218372821807861,
                -0.7833584547042847,
                -0.8368459939956665,
                -0.061100661754608154,
                -0.9054417610168457,
                -0.0901384949684143,
                -0.4382626414299011,
                0.7767484188079834,
                -0.11375647783279419,
                -0.0525130033493042,
                -0.1306869387626648,
                0.775227427482605,
                -0.5296751260757446,
                0.7929277420043945,
                -0.5607566833496094,
                0.32145118713378906,
                -0.661689281463623,
                0.5079365968704224,
                0.7796776294708252,
                0.1439366340637207,
                -0.23603451251983643,
                0.07968330383300781,
                0.6452494859695435,
                0.9374405145645142,
                -0.9794661998748779,
                0.00478363037109375,
                -0.19094395637512207,
                0.8945804834365845,
                0.8978444337844849,
                -0.5796956419944763,
                -0.14453452825546265,
                -0.8239928483963013,
                -0.363054096698761,
                0.018619418144226074,
                0.1149064302444458,
                -0.2684957981109619,
                0.9284809827804565,
                0.6766438484191895,
                -0.4917473793029785,
                -0.18527549505233765,
                -0.37586915493011475
            ],
            [
                -0.41004812717437744,
                0.09445571899414063,
                0.17049336433410645,
                0.029195189476013184,
                -0.5840931534767151,
                0.5088040828704834,
                -0.46286821365356445,
                -0.8044154644012451,
                -0.3472592830657959,
                0.3010972738265991,
                0.2752678394317627,
                -0.7020097970962524,
                0.23853778839111328,
                0.29580163955688477,
                0.3027738332748413,
                -0.9524061679840088,
                0.19038212299346924,
                0.20061814785003662,
                -0.5321017503738403,
                -0.9541524052619934,
                0.37662529945373535,
                0.1048440933227539,
                0.06446695327758789,
                -0.5084682106971741,
                0.836348295211792,
                -0.007052063941955566,
                -0.8318243622779846,
                -0.6553990840911865,
                0.8076725006103516,
                -0.20769357681274414,
                0.7221665382385254,
                -0.6023756861686707,
                0.8867621421813965,
                -0.10734003782272339,
                0.42681944370269775,
                -0.6973310708999634,
                -0.5985358953475952,
                0.9639512300491333,
                -0.5017465353012085,
                0.05420482158660889,
                0.265048623085022,
                0.7735213041305542
            ],
            [
                -0.49641358852386475,
                0.06932294368743896,
                -0.345031201839447,
                -0.44881975650787354,
                -0.740294873714447,
                0.8555870056152344,
                0.019078493118286133,
                -0.6944472789764404,
                0.23221230506896973,
                -0.87607741355896,
                0.37001967430114746,
                0.7237440347671509,
                0.960270881652832,
                -0.6370323300361633,
                0.891919732093811,
                -0.6951282024383545,
                -0.8293598890304565,
                -0.3157738447189331,
                -0.9729616045951843,
                -0.4317355751991272,
                -0.4290117621421814,
                -0.08030158281326294,
                0.9950839281082153,
                -0.1263427734375,
                0.32116246223449707,
                0.9590351581573486,
                0.3719106912612915,
                -0.624632716178894,
                0.2240837812423706,
                0.14543211460113525,
                0.7275623083114624,
                0.7276701927185059,
                -0.7852449417114258,
                -0.6174689531326294,
                -0.7211495637893677,
                -0.5255398154258728,
                -0.761881947517395,
                0.2979288101196289,
                -0.219987154006958,
                0.47033023834228516,
                0.42185139656066895,
                -0.8499674201011658
            ],
            [
                0.3821223974227905,
                -0.4869997501373291,
                0.08599412441253662,
                0.686994194984436,
                -0.31635963916778564,
                0.7702202796936035,
                0.7140326499938965,
                0.2519047260284424,
                -0.6587915420532227,
                -0.36626899242401123,
                0.24698865413665771,
                0.21486568450927734,
                0.9548934698104858,
                0.20602381229400635,
                -0.4132235050201416,
                -0.6697391867637634,
                -0.569892406463623,
                0.7322084903717041,
                -0.942176878452301,
                -0.8422222137451172,
                0.9469635486602783,
                -0.5596458315849304,
                -0.5633718967437744,
                -0.5785762071609497,
                -0.3215278387069702,
                0.734557032585144,
                0.20143663883209229,
                -0.8511975407600403,
                0.156408429145813,
                0.3514692783355713,
                0.3428767919540405,
                -0.4614691734313965,
                0.8644695281982422,
                -0.5711290836334229,
                -0.7744749784469604,
                -0.45189017057418823,
                -0.8009088635444641,
                0.939557671546936,
                0.8000146150588989,
                -0.459700345993042,
                -0.42671138048171997,
                0.04700326919555664
            ],
            [
                -0.47181785106658936,
                -0.746972918510437,
                -0.6580581665039063,
                -0.14155703783035278,
                -0.31686532497406006,
                -0.9258496165275574,
                -0.08373391628265381,
                -0.15908753871917725,
                -0.9788860082626343,
                0.356620192527771,
                0.27754056453704834,
                -0.557462215423584,
                -0.9649075865745544,
                0.012097597122192383,
                0.6439744234085083,
                -0.8161051273345947,
                -0.8314939737319946,
                -0.0045563578605651855,
                0.5267716646194458,
                -0.2929631471633911,
                -0.14008688926696777,
                0.955642580986023,
                -0.06743812561035156,
                0.40802299976348877,
                -0.8452662229537964,
                -0.1278805136680603,
                0.20803749561309814,
                -0.3049665689468384,
                0.4454081058502197,
                -0.7449592351913452,
                -0.549801230430603,
                0.9735902547836304,
                -0.49193209409713745,
                -0.2078593373298645,
                -0.16796672344207764,
                0.19120264053344727,
                -0.13370895385742188,
                0.7482993602752686,
                -0.9678849577903748,
                -0.11259496212005615,
                0.1049196720123291,
                0.30965566635131836
            ],
            [
                0.14001202583312988,
                -0.6782467365264893,
                -0.026082754135131836,
                0.32390689849853516,
                -0.5097407102584839,
                0.9693609476089478,
                -0.1493213176727295,
                0.197296142578125,
                -0.17072594165802002,
                -0.19367867708206177,
                -0.8701419830322266,
                -0.7627029418945313,
                -0.038944900035858154,
                0.0019774436950683594,
                0.4453345537185669,
                0.6560884714126587,
                -0.5526143908500671,
                0.7003753185272217,
                -0.8937126994132996,
                -0.579024076461792,
                -0.7915567755699158,
                -0.10157209634780884,
                0.25300920009613037,
                0.3996458053588867,
                0.7647190093994141,
                0.0013085603713989258,
                0.43176090717315674,
                -0.34787601232528687,
                -0.8937718272209167,
                -0.2585834860801697,
                0.9820668697357178,
                0.2462402582168579,
                0.06316983699798584,
                -0.04401594400405884,
                -0.42985278367996216,
                0.553429126739502,
                -0.07465499639511108,
                0.4208258390426636,
                -0.24927479028701782,
                0.7546191215515137,
                -0.7728528380393982,
                -0.11941677331924438
            ],
            [
                0.18820226192474365,
                0.8825607299804688,
                0.43725061416625977,
                -0.15570926666259766,
                -0.6700537204742432,
                0.137626051902771,
                -0.04942202568054199,
                -0.24907779693603516,
                0.34606921672821045,
                0.849005937576294,
                -0.9960685968399048,
                -0.25428491830825806,
                0.6137248277664185,
                0.005239963531494141,
                -0.8225240111351013,
                -0.7341511249542236,
                0.11146819591522217,
                -0.08110743761062622,
                -0.7520843148231506,
                -0.6422916054725647,
                0.9820623397827148,
                0.20389974117279053,
                -0.07214444875717163,
                0.5354914665222168,
                -0.8707551956176758,
                -0.6513185501098633,
                -0.7137833833694458,
                0.8838639259338379,
                -0.42417144775390625,
                0.1667999029159546,
                0.8757799863815308,
                0.7640308141708374,
                0.04936063289642334,
                0.3130306005477905,
                -0.39167851209640503,
                0.3793069124221802,
                -0.5493433475494385,
                0.5588995218276978,
                -0.869770884513855,
                0.7967259883880615,
                0.4079054594039917,
                -0.8658394813537598
            ],
            [
                0.021630287170410156,
                0.13940048217773438,
                -0.28008294105529785,
                0.2874791622161865,
                -0.7491313815116882,
                0.6388095617294312,
                0.5353949069976807,
                -0.39142298698425293,
                0.620871901512146,
                -0.26070529222488403,
                0.5364326238632202,
                0.1563633680343628,
                -0.13146048784255981,
                0.8851139545440674,
                0.442579984664917,
                -0.2475966215133667,
                -0.5390573740005493,
                -0.3906201124191284,
                -0.37181663513183594,
                -0.7750266194343567,
                0.6587405204772949,
                0.9412139654159546,
                -0.16670513153076172,
                0.0380474328994751,
                -0.6081292629241943,
                -0.607805609703064,
                0.16827654838562012,
                -0.8114033341407776,
                0.8000998497009277,
                0.30243706703186035,
                -0.2689622640609741,
                -0.17826980352401733,
                -0.5581624507904053,
                0.450954794883728,
                -0.8907906413078308,
                -0.3072938919067383,
                0.08976435661315918,
                0.6446043252944946,
                0.3012831211090088,
                -0.28936368227005005,
                -0.6161010265350342,
                -0.16228431463241577
            ],
            [
                0.25243842601776123,
                -0.2771703004837036,
                0.30957961082458496,
                -0.9951581358909607,
                0.18377232551574707,
                0.9189594984054565,
                -0.36697477102279663,
                0.4087456464767456,
                0.5777000188827515,
                -0.42576080560684204,
                -0.7579594254493713,
                -0.384252667427063,
                -0.03389006853103638,
                -0.3657650351524353,
                0.7840238809585571,
                0.15470659732818604,
                -0.5656651854515076,
                0.08646094799041748,
                0.8857443332672119,
                0.2560650110244751,
                0.5282983779907227,
                0.3366990089416504,
                0.36527442932128906,
                -0.7789954543113708,
                -0.5735365748405457,
                0.00987863540649414,
                0.5222877264022827,
                0.1370997428894043,
                0.39377760887145996,
                -0.6399966478347778,
                0.004099369049072266,
                -0.35378384590148926,
                0.08283305168151855,
                -0.6863210201263428,
                -0.34894198179244995,
                -0.7333946228027344,
                -0.7673615217208862,
                0.2840832471847534,
                0.6753510236740112,
                0.8103384971618652,
                0.8583223819732666,
                0.9173916578292847
            ],
            [
                -0.17556768655776978,
                -0.44837337732315063,
                -0.7898903489112854,
                0.9791388511657715,
                -0.014038562774658203,
                0.2965705394744873,
                0.8648831844329834,
                -0.7579735517501831,
                -0.17513102293014526,
                0.2015821933746338,
                0.607300877571106,
                0.04587352275848389,
                0.6280456781387329,
                -0.3828204870223999,
                -0.4318388104438782,
                -0.2348545789718628,
                -0.9890428185462952,
                -0.07183539867401123,
                0.7692447900772095,
                -0.3428266644477844,
                -0.9890023469924927,
                -0.9170762300491333,
                0.3082313537597656,
                -0.722396969795227,
                -0.6844377517700195,
                -0.40768545866012573,
                0.9529541730880737,
                -0.8740992546081543,
                -0.5493630170822144,
                0.8703458309173584,
                -0.44801342487335205,
                0.27506935596466064,
                -0.578027606010437,
                -0.23790377378463745,
                0.25420820713043213,
                0.4079338312149048,
                -0.9413331747055054,
                0.11909139156341553,
                0.6499602794647217,
                -0.11646419763565063,
                -0.6793262958526611,
                0.25726115703582764
            ],
            [
                0.9487193822860718,
                0.8744406700134277,
                -0.5024294853210449,
                -0.2861352562904358,
                0.8853979110717773,
                0.42573511600494385,
                -0.5168904066085815,
                -0.4574287533760071,
                0.43673276901245117,
                -0.43396663665771484,
                0.8508025407791138,
                0.7143357992172241,
                -0.1184043288230896,
                -0.5568828582763672,
                0.6672899723052979,
                0.007496356964111328,
                -0.10624587535858154,
                0.5376358032226563,
                0.5594829320907593,
                -0.8311765789985657,
                0.9596081972122192,
                -0.6784208416938782,
                0.42303168773651123,
                0.367542028427124,
                -0.6197540760040283,
                -0.45787692070007324,
                0.017502307891845703,
                0.2637817859649658,
                -0.13720327615737915,
                -0.7252364754676819,
                0.1931910514831543,
                -0.18848389387130737,
                -0.8507958054542542,
                0.6907615661621094,
                0.5253808498382568,
                -0.9653978943824768,
                0.11649668216705322,
                -0.9915095567703247,
                -0.4228266477584839,
                -0.44677048921585083,
                -0.42547619342803955,
                -0.5720241069793701
            ],
            [
                0.4561194181442261,
                -0.1289069652557373,
                0.9348553419113159,
                -0.536384105682373,
                0.7648471593856812,
                0.4724910259246826,
                -0.9769011735916138,
                0.9336705207824707,
                0.43209922313690186,
                -0.6553220152854919,
