{
    "hiddenLayer1": {
        "bias": [
            -0.7940523028373718,
            2.6370363235473633,
            0.445982426404953,
            -2.6236650943756104,
            -1.9202595949172974,
            -1.635095477104187,
            1.3925247192382813,
            -0.5841072797775269,
            1.6906538009643555,
            -1.5358729362487793,
            5.054599285125732,
            -1.152984380722046,
            -0.24965371191501617,
            -2.542468309402466,
            0.0800904631614685,
            -2.0750036239624023,
            -1.1372897624969482,
            0.05025281012058258,
            -1.5751967430114746,
            0.5497504472732544,
            2.389566659927368,
            1.773249864578247,
            -0.9215632677078247,
            2.6485652923583984,
            1.9145467281341553,
            -1.173488736152649,
            1.382995367050171,
            -0.037153616547584534,
            3.2897262573242188,
            -3.2566158771514893,
            -0.751319408416748,
            2.630037307739258,
            1.4543118476867676,
            -0.467480331659317,
            -3.067809820175171,
            -0.4640137255191803,
            -0.2817205488681793,
            1.4223072528839111,
            -0.6458253264427185,
            -0.20389005541801453,
            -1.7570258378982544,
            3.007002830505371,
            -2.179636240005493,
            0.20547175407409668,
            1.030611515045166,
            -2.457170248031616,
            -0.14334139227867126,
            -2.8288772106170654,
            1.9482280015945435,
            0.2625889480113983,
            2.4107391834259033,
            3.5037267208099365,
            0.4909514784812927,
            1.8398280143737793,
            -2.122443914413452,
            0.07576319575309753,
            1.7707751989364624,
            0.6199476718902588,
            1.0905418395996094,
            -2.9201180934906006,
            -2.7034032344818115,
            -4.2548651695251465,
            3.3880481719970703,
            -1.6594542264938354
        ],
        "weights": [
            [
                -2.546142816543579,
                0.2762705087661743,
                -2.646563768386841,
                -1.0338751077651978,
                1.1384766101837158,
                -1.502186894416809,
                1.188705325126648,
                -1.1398355960845947,
                -1.974393606185913,
                1.920446515083313,
                1.853670358657837,
                0.8799590468406677,
                -0.41875746846199036,
                2.378561019897461,
                2.4025323390960693,
                3.1636178493499756,
                -0.16086530685424805,
                -4.218560218811035,
                2.9275803565979004,
                5.322216033935547,
                1.8058371543884277,
                -1.5227819681167603,
                -1.4599802494049072,
                2.5796287059783936,
                1.9573901891708374,
                0.43680381774902344,
                -0.7653019428253174,
                -0.25435155630111694,
                -1.4696509838104248,
                2.455536127090454,
                -0.0239526629447937,
                -3.1624958515167236,
                -1.66267728805542,
                1.7269123792648315,
                -0.09964719414710999,
                0.004598483443260193,
                2.6129565238952637,
                1.045904278755188,
                -2.927070379257202,
                2.9324300289154053,
                -1.0829353332519531,
                -2.1312925815582275
            ],
            [
                -0.9927319288253784,
                -3.420572280883789,
                -2.500192880630493,
                0.790349543094635,
                -2.629281520843506,
                -0.696362316608429,
                3.647402048110962,
                3.308400869369507,
                -1.0380332469940186,
                -3.9846279621124268,
                2.32871413230896,
                -1.2230526208877563,
                -0.12489695847034454,
                -1.8740092515945435,
                -0.9895220398902893,
                -0.6768419742584229,
                -0.9862425327301025,
                -1.968759536743164,
                -1.9791712760925293,
                0.8949041366577148,
                0.3338456153869629,
                2.307917833328247,
                -1.4384591579437256,
                0.23129963874816895,
                -3.235269069671631,
                -1.2042864561080933,
                -1.7206618785858154,
                -1.1771576404571533,
                2.988290309906006,
                0.8724290728569031,
                1.9737412929534912,
                0.1156090795993805,
                -1.529166340827942,
                1.9105994701385498,
                -2.166684627532959,
                0.5960540771484375,
                -1.954752802848816,
                -0.22144673764705658,
                0.9496974945068359,
                1.6555670499801636,
                -0.14094671607017517,
                -1.3434491157531738
            ],
            [
                1.8871922492980957,
                1.6937856674194336,
                -1.9252146482467651,
                0.26020264625549316,
                -0.1036839485168457,
                -2.904006242752075,
                2.7031290531158447,
                -0.7397849559783936,
                2.1393330097198486,
                0.46561017632484436,
                -0.5921785831451416,
                2.069364547729492,
                0.27511972188949585,
                1.174564003944397,
                2.1854872703552246,
                -2.0763065814971924,
                -1.068808674812317,
                -2.4917869567871094,
                -0.011357605457305908,
                -0.7144479155540466,
                -0.34223392605781555,
                -0.3989912271499634,
                1.0370774269104004,
                0.3025611639022827,
                -3.3325767517089844,
                -4.091711521148682,
                -0.3204534947872162,
                0.39111828804016113,
                -0.02379561960697174,
                1.8134360313415527,
                -1.6441175937652588,
                0.6009345054626465,
                -3.227642297744751,
                -0.5937349200248718,
                1.1518645286560059,
                -0.04695689678192139,
                -4.2861833572387695,
                0.40559589862823486,
                2.812391519546509,
                0.4794114828109741,
                0.5462864637374878,
                1.7577388286590576
            ],
            [
                -2.1517059803009033,
                0.5027486085891724,
                -2.023930549621582,
                -0.5162980556488037,
                2.500854253768921,
                3.8012750148773193,
                1.5627996921539307,
                1.3137561082839966,
                -1.3925381898880005,
                0.31660202145576477,
                1.5713483095169067,
                -2.0113556385040283,
                -1.2430105209350586,
                -0.805057168006897,
                -1.912581205368042,
                1.3642947673797607,
                -0.23640570044517517,
                0.04358804225921631,
                2.598106861114502,
                -0.4756036102771759,
                -2.485201358795166,
                -1.4063993692398071,
                1.9272602796554565,
                2.839406967163086,
                -0.3387632369995117,
                -4.326426029205322,
                2.1001315116882324,
                -1.8125417232513428,
                1.9595372676849365,
                0.7782167196273804,
                -0.5026551485061646,
                0.24487462639808655,
                -1.97507905960083,
                -0.8983864784240723,
                0.42004042863845825,
                0.5402957797050476,
                -1.088007926940918,
                -2.0339243412017822,
                -0.6192313432693481,
                1.8223220109939575,
                0.4673437178134918,
                -2.3795158863067627
            ],
            [
                -1.5169562101364136,
                0.37666940689086914,
                -1.2479757070541382,
                -2.762549638748169,
                -1.0202813148498535,
                1.9405568838119507,
                -1.5937474966049194,
                -0.5254940986633301,
                3.7555489540100098,
                0.8126131892204285,
                -4.744011878967285,
                -2.9320290088653564,
                0.4275062382221222,
                -1.5365595817565918,
                -1.4589025974273682,
                0.7373042702674866,
                -2.905927896499634,
                -0.9438003301620483,
                0.7329688668251038,
                2.8741841316223145,
                -3.6170814037323,
                -0.15305131673812866,
                -0.9036475419998169,
                -1.9906877279281616,
                -2.377838373184204,
                -0.6716572046279907,
                1.5342124700546265,
                0.9717455506324768,
                4.443244457244873,
                -0.7386236190795898,
                -2.3633673191070557,
                -0.3103295862674713,
                1.5317240953445435,
                -0.2247532308101654,
                -5.576911926269531,
                -0.22676721215248108,
                2.927673578262329,
                1.4147121906280518,
                -1.448041558265686,
                -1.5661733150482178,
                -1.832962989807129,
                1.342021107673645
            ],
            [
                -0.22079084813594818,
                -1.1391820907592773,
                -0.08189135789871216,
                1.5462220907211304,
                1.8338063955307007,
                0.8524570465087891,
                1.4330830574035645,
                -3.7091684341430664,
                -2.853602170944214,
                -1.3674126863479614,
                2.0067834854125977,
                3.3612539768218994,
                0.023726627230644226,
                -0.4780711531639099,
                0.5975896120071411,
                1.3488417863845825,
                1.3275063037872314,
                0.8782744407653809,
                2.7299845218658447,
                -1.6169294118881226,
                -1.7123240232467651,
                -0.961433470249176,
                -3.1820857524871826,
                0.15174153447151184,
                0.8432814478874207,
                -0.6298103928565979,
                -1.1015359163284302,
                -0.47241848707199097,
                2.4614040851593018,
                -1.9632439613342285,
                -0.14788466691970825,
                1.291843295097351,
                4.337983131408691,
                0.7905483245849609,
                -2.860544443130493,
                -0.567945659160614,
                -2.023651123046875,
                2.0874040126800537,
                -1.520951747894287,
                -0.5308595895767212,
                5.564535140991211,
                0.31476762890815735
            ],
            [
                -0.37605562806129456,
                2.6609129905700684,
                -2.7263307571411133,
                1.2975176572799683,
                -0.38805362582206726,
                -2.3367037773132324,
                0.2814262807369232,
                1.2158362865447998,
                0.1127234697341919,
                -1.9047167301177979,
                -2.0165274143218994,
                1.5671147108078003,
                0.008354710415005684,
                2.2281506061553955,
                0.7989941835403442,
                3.5729877948760986,
                0.5021251440048218,
                3.993337869644165,
                -0.9439219236373901,
                1.981641411781311,
                1.0460306406021118,
                1.0238076448440552,
                -1.2349990606307983,
                0.5317912101745605,
                0.2609487771987915,
                2.829770565032959,
                -0.7288053631782532,
                -0.8084552884101868,
                -0.519569456577301,
                -0.448990136384964,
                1.6488118171691895,
                1.691229224205017,
                -0.1467786282300949,
                -1.863996982574463,
                -0.6685778498649597,
                -1.8553377389907837,
                1.6817916631698608,
                1.6918351650238037,
                0.049615100026130676,
                -2.8421785831451416,
                1.5492725372314453,
                3.247342586517334
            ],
            [
                -0.24967384338378906,
                3.32625412940979,
                -2.2603931427001953,
                4.812716960906982,
                2.3798654079437256,
                -2.9672811031341553,
                -1.2552032470703125,
                0.7944966554641724,
                -0.27506330609321594,
                -1.5398467779159546,
                0.33244258165359497,
                -2.0359046459198,
                2.4027111530303955,
                -0.8407643437385559,
                -1.44157075881958,
                -0.8796464204788208,
                0.4859617352485657,
                -2.130044460296631,
                0.9394343495368958,
                -1.9878559112548828,
                -3.306077480316162,
                0.8146523237228394,
                1.2505637407302856,
                1.2258790731430054,
                2.718244791030884,
                0.658135175704956,
                -1.1202728748321533,
                -0.7652032971382141,
                -2.1620163917541504,
                -0.6568279266357422,
                -1.3503150939941406,
                -0.01791742444038391,
                -0.17705221474170685,
                1.1711246967315674,
                0.886458694934845,
                -3.0297603607177734,
                0.18029481172561646,
                0.19907310605049133,
                0.16428223252296448,
                3.197422981262207,
                0.2446053922176361,
                -0.954081118106842
            ],
            [
                -1.1355342864990234,
                0.09480500966310501,
                -2.055513381958008,
                -3.76213002204895,
                1.665274739265442,
                0.7235733866691589,
                2.677229404449463,
                0.567421019077301,
                0.6775310039520264,
                2.1668245792388916,
                0.9844281673431396,
                2.2132761478424072,
                0.30208271741867065,
                -0.5161722898483276,
                2.274974822998047,
                -1.826411247253418,
                2.021825075149536,
                -2.9398629665374756,
                1.8113751411437988,
                -0.2905426025390625,
                -0.8107722997665405,
                -0.6115632653236389,
                -2.250576972961426,
                1.4514178037643433,
                1.8900580406188965,
                4.219423770904541,
                -1.8386963605880737,
                -1.1616992950439453,
                3.1432387828826904,
                -0.8075048327445984,
                -0.8277909159660339,
                -0.8176721930503845,
                0.35140281915664673,
                -3.0198442935943604,
                -0.2570820450782776,
                -3.228544235229492,
                -2.640430212020874,
                1.2984158992767334,
                -4.453137397766113,
                -1.6082072257995605,
                1.0891242027282715,
                -0.08151967078447342
            ],
            [
                2.198061227798462,
                0.1896952986717224,
                -1.598515510559082,
                -0.07836368680000305,
                2.129805326461792,
                -0.9253882169723511,
                1.2041534185409546,
                1.573455810546875,
                -2.152606725692749,
                -5.0329484939575195,
                -0.77001953125,
                -2.39607310295105,
                2.0873844623565674,
                0.5733810663223267,
                2.818600654602051,
                -0.44936245679855347,
                -0.20725902915000916,
                0.05971549451351166,
                -2.32731294631958,
                0.28946253657341003,
                -0.49626249074935913,
                -1.6990306377410889,
                -0.2942505478858948,
                0.3425229787826538,
                0.40100258588790894,
                -2.092759847640991,
                0.7963055372238159,
                0.3943614065647125,
                1.6763136386871338,
                2.1889796257019043,
                0.8184992671012878,
                5.433925628662109,
                -2.221648931503296,
                -0.06942451745271683,
                -0.33330070972442627,
                -1.9461003541946411,
                -0.7420629858970642,
                2.2253060340881348,
                0.7982462644577026,
                -1.8463621139526367,
                -0.5921382904052734,
                0.21639320254325867
            ],
            [
                0.019625887274742126,
                -0.30263981223106384,
                -0.0732240080833435,
                0.1714896857738495,
                -1.2472094297409058,
                1.2949037551879883,
                -3.602747678756714,
                -1.4774856567382813,
                0.32293805480003357,
                0.72472083568573,
                1.2700403928756714,
                -1.175134539604187,
                -0.8720421195030212,
                1.2029179334640503,
                -2.2406771183013916,
                0.668218731880188,
                -0.3550553023815155,
                1.437386393547058,
                -0.8294714093208313,
                -1.2700027227401733,
                1.2591770887374878,
                -1.3837929964065552,
                1.5207183361053467,
                1.3750007152557373,
                1.938199758529663,
                -0.8579574823379517,
                -3.2911648750305176,
                0.5755821466445923,
                5.064486980438232,
                -3.228374481201172,
                -3.600983142852783,
                -0.5881620645523071,
                2.0256130695343018,
                3.1283459663391113,
                -0.7819904088973999,
                -0.6062664985656738,
                -2.6455531120300293,
                5.057769298553467,
                2.734251022338867,
                -1.1280887126922607,
                0.3144790530204773,
                -0.1482996642589569
            ],
            [
                -2.8807828426361084,
                -0.5808287858963013,
                -1.9490065574645996,
                1.0394089221954346,
                -0.8120487928390503,
                -1.7678546905517578,
                0.0331779420375824,
                -0.6706470847129822,
                -1.4969183206558228,
                0.6448101997375488,
                1.262918472290039,
                -0.6368767619132996,
                2.6011810302734375,
                1.613505244255066,
                2.649221658706665,
                -0.8593542575836182,
                -3.5504565238952637,
                0.6129977703094482,
                -3.2537922859191895,
                1.0928905010223389,
                2.459221601486206,
                -1.7762683629989624,
                -0.0734390914440155,
                -1.7949399948120117,
                -5.433137893676758,
                3.8469138145446777,
                4.0300493240356445,
                -0.3582824468612671,
                -0.8352964520454407,
                0.8950929641723633,
                1.6646791696548462,
                -0.6171959638595581,
                -1.171075701713562,
                1.2694752216339111,
                -0.6817139983177185,
                -1.413034439086914,
                0.26516199111938477,
                -2.28064227104187,
                -1.741642713546753,
                1.028733730316162,
                -4.914668560028076,
                -1.9196075201034546
            ],
            [
                -0.32439810037612915,
                -0.8063997030258179,
                1.1833794116973877,
                0.6065793037414551,
                1.445078730583191,
                -1.0147531032562256,
                -1.447282075881958,
                1.096827507019043,
                -3.552128553390503,
                -3.2508392333984375,
                -2.3377621173858643,
                -1.5504930019378662,
                -3.866433620452881,
                -5.859764099121094,
                -0.9158908724784851,
                -3.339175224304199,
                1.1460015773773193,
                3.6905624866485596,
                -1.5170379877090454,
                -0.01780909299850464,
                -1.712662696838379,
                -4.3818182945251465,
                0.9970728158950806,
                4.317635536193848,
                -1.697721004486084,
                -0.18946987390518188,
                -3.8733744621276855,
                0.525522768497467,
                -0.6826231479644775,
                0.9568096399307251,
                0.3927866220474243,
                -3.8605551719665527,
                -0.4152373671531677,
                -2.0437726974487305,
                3.018951416015625,
                2.0436317920684814,
                -2.895703077316284,
                -1.4343502521514893,
                1.2539383172988892,
                -0.3970954716205597,
                3.513559579849243,
                0.4278283715248108
            ],
            [
                -2.930271863937378,
                -2.751762628555298,
                4.681665897369385,
                3.0217347145080566,
                1.2513798475265503,
                -3.1794846057891846,
                0.7843759655952454,
                4.0037126541137695,
                -0.34840333461761475,
                1.674367070198059,
                0.11422261595726013,
                0.8175737857818604,
                -0.913291335105896,
                0.5164074897766113,
                -4.161792278289795,
                1.0957707166671753,
                -3.799844741821289,
                -0.09377263486385345,
                -1.7154709100723267,
                -4.024472236633301,
                -0.06823435425758362,
                -1.956801414489746,
                -0.8009824156761169,
                0.3017275333404541,
                -2.904648780822754,
                0.10524964332580566,
                1.305009365081787,
                1.8682347536087036,
                -0.15212835371494293,
                -0.9739893078804016,
                0.36310964822769165,
                -2.358584403991699,
                2.7714922428131104,
                -1.546787142753601,
                2.3999271392822266,
                -1.9297010898590088,
                -1.2493791580200195,
                1.8902504444122314,
                -1.3930644989013672,
                -1.535266399383545,
                0.19124262034893036,
                -1.3580200672149658
            ],
            [
                -1.8656063079833984,
                -1.0333034992218018,
                -1.2605130672454834,
                -2.294933557510376,
                -4.0896406173706055,
                -3.1199493408203125,
                -1.942209005355835,
                1.696232557296753,
                2.228888511657715,
                4.527799129486084,
                -1.7158839702606201,
                -2.5555315017700195,
                -0.28906717896461487,
                1.7359204292297363,
                -1.7840325832366943,
                2.785473346710205,
                0.17987561225891113,
                0.8173409104347229,
                -1.084465503692627,
                1.4935016632080078,
                0.3003883361816406,
                1.5757603645324707,
                -0.2991139888763428,
                -1.2525469064712524,
                3.1030282974243164,
                0.7234758138656616,
                1.017723560333252,
                -2.7006754875183105,
                1.0524975061416626,
                -2.489152193069458,
                -2.8611090183258057,
                0.23770765960216522,
                -1.2185853719711304,
                -3.452392816543579,
                -1.1146812438964844,
                1.0682364702224731,
                -2.431096315383911,
                -1.7465626001358032,
                0.4260501265525818,
                -2.7933924198150635,
                -2.1837856769561768,
                -1.3405978679656982
            ],
            [
                -4.308122158050537,
                -2.4024863243103027,
                0.7986701726913452,
                0.23990033566951752,
                -1.2770774364471436,
                0.4317135810852051,
                0.5611026883125305,
                0.43841594457626343,
                -1.180824637413025,
                1.2489196062088013,
                -1.2987412214279175,
                -1.968482494354248,
                7.047695159912109,
                -0.8507277965545654,
                3.442584991455078,
                -0.27384716272354126,
                -1.9711034297943115,
                0.9460904002189636,
                3.1258351802825928,
                1.2787655591964722,
                0.08286857604980469,
                1.649315595626831,
                0.9394423365592957,
                0.12515279650688171,
                -1.5388858318328857,
                -2.6933465003967285,
                -0.7242861986160278,
                -1.4940145015716553,
                1.8497052192687988,
                1.9383513927459717,
                -2.3230466842651367,
                3.5821938514709473,
                -3.549962282180786,
                0.688356876373291,
                -3.4182538986206055,
                -2.559899091720581,
                0.5236164331436157,
                0.7490883469581604,
                -1.518099308013916,
                -0.27762535214424133,
                3.0764338970184326,
                -1.67268967628479
            ],
            [
                -1.9799952507019043,
                -3.5489449501037598,
                -0.5895146727561951,
                1.5460305213928223,
                2.27516508102417,
                1.2506661415100098,
                -1.8679531812667847,
                -1.6904339790344238,
                -2.1001994609832764,
                -1.193373441696167,
                -0.40737229585647583,
                1.5015257596969604,
                -0.8621814846992493,
                1.9840123653411865,
                2.5083439350128174,
                -2.8376352787017822,
                -1.5976176261901855,
                -2.6153523921966553,
                -1.2571518421173096,
                1.7432756423950195,
                -2.6744587421417236,
                -3.0977349281311035,
                0.6184077858924866,
                -1.397920846939087,
                -0.02055397629737854,
                -2.125631332397461,
                -3.710458278656006,
                1.6415868997573853,
                0.9967483282089233,
                2.2966105937957764,
                -2.8351454734802246,
                -1.2578412294387817,
                -0.03364947438240051,
                0.48866596817970276,
                0.4096723198890686,
                1.8449280261993408,
                -1.1055288314819336,
                -0.9501718878746033,
                2.733511447906494,
                1.622361421585083,
                0.4375877380371094,
                4.037289142608643
            ],
            [
                -4.540715217590332,
                -0.04095368832349777,
                -2.7758257389068604,
                -0.9411896467208862,
                0.3194752335548401,
                1.3590327501296997,
                -0.6786524653434753,
                2.38366436958313,
                -0.5046463012695313,
                1.5793263912200928,
                3.554539918899536,
                -1.3860431909561157,
                2.853883981704712,
                -2.351262331008911,
                2.2850208282470703,
                1.6602808237075806,
                1.3194129467010498,
                0.25810158252716064,
                0.4439563751220703,
                1.1819353103637695,
                -0.7555794715881348,
                2.0589945316314697,
                0.45368513464927673,
                -2.7904465198516846,
                -0.7674941420555115,
                -0.12833592295646667,
                0.9564051628112793,
                2.3359501361846924,
                -0.8059261441230774,
                -1.7416564226150513,
                -1.5213767290115356,
                -0.685317873954773,
                1.6741256713867188,
                2.368480682373047,
                4.288431167602539,
                1.343122959136963,
                1.1270850896835327,
                0.434287428855896,
                1.3504778146743774,
                -0.42744457721710205,
                1.265878438949585,
                0.5527814626693726
            ],
            [
                -0.3087306022644043,
                3.233154296875,
                -0.9801648855209351,
                -2.387519598007202,
                0.10856223106384277,
                -1.149341106414795,
                1.4657821655273438,
                3.7320590019226074,
                0.301067054271698,
                0.9319143295288086,
                0.33209264278411865,
                -0.9383170008659363,
                -1.5872911214828491,
                -3.7710485458374023,
                1.6698577404022217,
                0.5456730723381042,
                4.041978359222412,
                0.4503682255744934,
                -1.2608815431594849,
                2.2088851928710938,
                -1.3451391458511353,
                2.5918614864349365,
                -0.057556018233299255,
                -5.0008134841918945,
                1.0426758527755737,
                0.7275547981262207,
                -1.525847315788269,
                -0.4514407515525818,
                -1.8600934743881226,
                1.3482166528701782,
                1.3224810361862183,
                3.628943920135498,
                3.1874899864196777,
                2.567161798477173,
                0.5196799039840698,
                -1.8406027555465698,
                3.0955748558044434,
                -1.0533584356307983,
                -3.2499842643737793,
                -3.7148983478546143,
                2.6806094646453857,
                -0.3093736469745636
            ],
            [
                -2.125518560409546,
                3.0851917266845703,
                -3.5797388553619385,
                2.2428557872772217,
                1.854473352432251,
                -0.4275628328323364,
                0.9954026341438293,
                -0.5177327990531921,
                4.1405134201049805,
                -2.4224038124084473,
                -2.3198158740997314,
                1.0186346769332886,
                1.282161831855774,
                -2.1126372814178467,
                0.5566555857658386,
                0.5351793169975281,
                1.5030462741851807,
                1.5273053646087646,
                -2.5900685787200928,
                -1.8462128639221191,
                -3.291347026824951,
                -2.465869903564453,
                -1.8166810274124146,
                -2.6806108951568604,
                2.2132761478424072,
                -3.2265424728393555,
                -1.0888835191726685,
                -0.19564494490623474,
                -3.161107063293457,
                -3.0097782611846924,
                1.2478524446487427,
                2.2577247619628906,
                0.45027515292167664,
                3.291874885559082,
                -0.6375633478164673,
                -0.6958819627761841,
                2.5324792861938477,
                -0.6469339728355408,
                0.48462677001953125,
                0.5391466021537781,
                -1.1922779083251953,
                -2.741990327835083
            ],
            [
                -0.1320059895515442,
                -0.4718896150588989,
                0.09347224235534668,
                1.5641947984695435,
                -2.824911117553711,
                1.207533597946167,
                -2.483785629272461,
                0.4340522885322571,
                -0.6631708741188049,
                -2.4114444255828857,
                1.1661995649337769,
                -0.440753310918808,
                -0.35973241925239563,
                0.03653250262141228,
                -0.7641518115997314,
                2.8279144763946533,
                0.6622562408447266,
                0.6609954833984375,
                0.21625971794128418,
                1.6057461500167847,
                0.6859346628189087,
                1.0610936880111694,
                3.1991138458251953,
                -2.8372039794921875,
                -3.567880868911743,
                -2.8555233478546143,
                2.5496084690093994,
                2.286369800567627,
                2.6503937244415283,
                0.023176223039627075,
                1.8454784154891968,
                1.6280993223190308,
                1.5617494583129883,
                -0.4317123293876648,
                0.387141615152359,
                -3.3065884113311768,
                -1.7884471416473389,
                1.8851510286331177,
                2.0171475410461426,
                3.8957560062408447,
                1.5535898208618164,
                1.1563355922698975
            ],
            [
                -3.3876352310180664,
                1.0281741619110107,
                0.902591347694397,
                1.0642399787902832,
                1.901199460029602,
                3.5419974327087402,
                -0.8706081509590149,
                -0.25712621212005615,
                -2.411606550216675,
                -1.3661003112792969,
                -3.219884157180786,
                -0.6834514737129211,
                1.247995376586914,
                3.5567545890808105,
                1.1476064920425415,
                -1.1281442642211914,
                -0.018483921885490417,
                -1.3002405166625977,
                2.1035871505737305,
                0.5122394561767578,
                2.6364145278930664,
                -0.648878812789917,
                -3.9314029216766357,
                0.8529850244522095,
                -0.7185960412025452,
                -1.7837591171264648,
                1.09530508518219,
                0.9042168259620667,
                0.45191526412963867,
                3.405263662338257,
                2.6468377113342285,
                3.5826475620269775,
                0.34149816632270813,
                -0.2337241768836975,
                1.8584849834442139,
                -0.07876461744308472,
                -1.9171733856201172,
                -1.1749653816223145,
                0.86167973279953,
                -0.30571436882019043,
                -1.4116039276123047,
                1.7877377271652222
            ],
            [
                3.4160945415496826,
                -0.8484654426574707,
                1.117847204208374,
                0.7054966688156128,
                1.7518519163131714,
                -0.6233812570571899,
                0.7363056540489197,
                2.193432569503784,
                1.029264211654663,
                2.3886444568634033,
                0.18617269396781921,
                -1.2984893321990967,
                2.1392107009887695,
                -2.1764419078826904,
                0.07039971649646759,
                0.9847350120544434,
                -0.8216961622238159,
                3.8257296085357666,
                -0.5237478017807007,
                -0.4376497268676758,
                1.1318022012710571,
                0.5928468704223633,
                1.1091684103012085,
                1.0717662572860718,
                -0.5734055042266846,
                -2.7679848670959473,
                -0.6292082071304321,
                -3.2048146724700928,
                -1.442291259765625,
                -1.0397013425827026,
                -1.3528177738189697,
                0.3531641960144043,
                -0.7623080015182495,
                -0.30177533626556396,
                -4.41406774520874,
                -1.462487816810608,
                1.505250334739685,
                -2.32989239692688,
                0.7309766411781311,
                -0.7708388566970825,
                -0.6920968294143677,
                1.3367589712142944
            ],
            [
                0.6557422280311584,
                -1.1443569660186768,
                -4.107254981994629,
                0.1908821314573288,
                -1.3824721574783325,
                0.6465836763381958,
                -1.6079143285751343,
                -2.969599962234497,
                0.677448034286499,
                0.44470521807670593,
                -1.9773890972137451,
                -1.4144587516784668,
                -3.345289468765259,
                0.6785262823104858,
                4.689015865325928,
                -1.5265130996704102,
                1.2176071405410767,
                0.03463876247406006,
                1.0656193494796753,
                2.0082180500030518,
                -2.281625747680664,
                2.3753662109375,
                -0.004738450050354004,
                -0.813330352306366,
                0.9438076019287109,
                4.337913990020752,
                -0.667539119720459,
                -2.051055431365967,
                2.346771717071533,
                0.533685028553009,
                0.4494330585002899,
                -0.15891937911510468,
                -1.0914665460586548,
                -0.7082532048225403,
                0.5089656114578247,
                2.4229931831359863,
                0.41649129986763,
                2.1361136436462402,
                0.8335953950881958,
                1.822607398033142,
                -0.15873309969902039,
                -2.6352086067199707
            ],
            [
                0.34681981801986694,
                0.661157488822937,
                1.0100102424621582,
                -2.0340092182159424,
                2.5603761672973633,
                -1.763034462928772,
                -1.8541775941848755,
                3.0954010486602783,
                0.6497329473495483,
                -2.1257004737854004,
                1.3261314630508423,
                4.266312599182129,
                1.1591070890426636,
                -2.399729013442993,
                -0.9516905546188354,
                5.256660461425781,
                -3.478778600692749,
                2.195830821990967,
                -1.8047301769256592,
                -2.848623275756836,
                1.2778328657150269,
                -0.5402349233627319,
                1.2491886615753174,
                0.3976932168006897,
                -0.7402169108390808,
                -1.4987366199493408,
                -0.02250322699546814,
                2.172546148300171,
                2.820359706878662,
                0.7771022915840149,
                2.682420492172241,
                2.7895877361297607,
                2.9136366844177246,
                -0.7417329549789429,
                -0.25826939940452576,
                -1.7956753969192505,
                0.468781441450119,
                -2.0841610431671143,
                0.9537445306777954,
                2.9028966426849365,
                1.7098947763442993,
                -1.5165390968322754
            ],
            [
                0.13712573051452637,
                2.6451449394226074,
                -1.703463077545166,
                -2.7911922931671143,
                -1.0492857694625854,
                1.6315501928329468,
                -1.342348575592041,
                -0.05621439218521118,
                -0.9182156324386597,
                0.6207425594329834,
                1.2354456186294556,
                -2.29964017868042,
                -3.144092559814453,
                -0.05009470880031586,
                0.44205278158187866,
                -1.6934877634048462,
                0.04425543546676636,
                -2.194504737854004,
                2.9979355335235596,
                -1.3149813413619995,
                -2.5209224224090576,
                0.16842815279960632,
                -2.3474669456481934,
                3.7821438312530518,
                1.9883291721343994,
                -1.8234782218933105,
                -0.6311241984367371,
                -2.5284478664398193,
                -2.2518575191497803,
                0.5244442820549011,
                1.0499471426010132,
                -3.72739839553833,
                1.3525625467300415,
                0.4387151896953583,
                0.30976054072380066,
                0.2106843888759613,
                -1.2580336332321167,
                -2.7301268577575684,
                2.063016653060913,
                2.3616769313812256,
                -0.2502383291721344,
                -0.8868281245231628
            ],
            [
                -2.1789495944976807,
                5.379227638244629,
                1.5319087505340576,
                1.7063250541687012,
                0.2915841042995453,
                -2.6192498207092285,
                -2.8145933151245117,
                -2.4546985626220703,
                1.5702441930770874,
                -1.9980313777923584,
                -0.2647504210472107,
                2.1668622493743896,
                2.367769956588745,
                0.018032684922218323,
                -5.390338897705078,
                0.8830887675285339,
                -0.04780349135398865,
                1.6431607007980347,
                1.1911859512329102,
                1.4230533838272095,
                0.25992482900619507,
                0.03545469045639038,
                0.7594550848007202,
                1.8446273803710938,
                1.612345576286316,
                0.22140344977378845,
                1.9635090827941895,
                -0.679063081741333,
                -1.8952385187149048,
                0.16173623502254486,
                -0.4746335744857788,
                -2.307227611541748,
                -0.8082323670387268,
                -1.555761456489563,
                -2.448975086212158,
                -2.8496029376983643,
                4.196090221405029,
                -1.1487770080566406,
                -0.4985445737838745,
                -1.459387183189392,
                -0.620874285697937,
                -2.380863904953003
            ],
            [
                0.7129102349281311,
                1.206841230392456,
                -1.2971374988555908,
                3.2447824478149414,
                1.1601885557174683,
                1.1692688465118408,
                -3.838496685028076,
                -0.41162002086639404,
                1.3057314157485962,
                -1.4232202768325806,
                -1.8636959791183472,
                -0.33520862460136414,
                -2.293365001678467,
                -0.49162137508392334,
                2.333590507507324,
                1.842920184135437,
                0.6473591923713684,
                0.5216020345687866,
                -0.7062405943870544,
                0.21459059417247772,
                -0.39359205961227417,
                0.46738266944885254,
                -2.295097827911377,
                1.0770909786224365,
                0.7478055953979492,
                -0.9017881751060486,
                -1.2460432052612305,
                -1.676468014717102,
                -0.8344200253486633,
                -0.3109029531478882,
                -3.2937679290771484,
                -1.5639369487762451,
                2.0230350494384766,
                0.42990949749946594,
                2.001103162765503,
                -1.4889193773269653,
                -3.5168912410736084,
                -0.7088707089424133,
                -0.5212634801864624,
                1.4956837892532349,
                -0.14483019709587097,
                3.090810775756836
            ],
            [
                0.3204878568649292,
                -1.5179502964019775,
                -0.8680790662765503,
                -0.7322423458099365,
                -1.765084981918335,
                0.6142983436584473,
                4.4691619873046875,
                -0.833807647228241,
                0.8007892370223999,
                0.3724614977836609,
                -0.4629811942577362,
                -0.8570470809936523,
                -0.8055498600006104,
                -1.0941736698150635,
                -2.5081119537353516,
                -0.08163464069366455,
                5.300963878631592,
                -2.1046392917633057,
                -4.47503662109375,
                -1.9249083995819092,
                1.006256341934204,
                -2.1352486610412598,
                -0.0837230458855629,
                -1.2368440628051758,
                -0.773941695690155,
                3.1049110889434814,
                -0.1657305657863617,
                -1.6778228282928467,
                -1.5002906322479248,
                -0.10648821294307709,
                0.8010862469673157,
                0.2948463559150696,
                -1.763320803642273,
                0.5858424305915833,
                -1.0921127796173096,
                0.40258583426475525,
                3.012824296951294,
                -1.6943804025650024,
                -0.7113735675811768,
                3.2226803302764893,
                1.2594584226608276,
                -2.0986921787261963
            ],
            [
                2.01072359085083,
                2.613173007965088,
                4.123996734619141,
                0.6725761890411377,
                2.3699429035186768,
                -3.038874864578247,
                -2.184408187866211,
                -0.4773392677307129,
                2.4024932384490967,
                0.9467938542366028,
                -4.510217666625977,
                2.642098903656006,
                -1.2532074451446533,
                0.7978542447090149,
                1.1866378784179688,
                -1.3799042701721191,
                1.844245433807373,
                1.0925065279006958,
                1.6202129125595093,
                0.8261934518814087,
                5.099946022033691,
                -0.6202681064605713,
                -1.8799588680267334,
                -1.667269229888916,
                -4.8493571281433105,
                0.23421074450016022,
                0.19687899947166443,
                3.0673282146453857,
                0.8552272915840149,
                0.11624456942081451,
                -0.07613775134086609,
                0.628972053527832,
                -0.12489581108093262,
                2.2758491039276123,
                -1.3362756967544556,
                -2.069300413131714,
                -0.09139251708984375,
                0.008109062910079956,
                -1.2651898860931396,
                2.217651128768921,
                2.2394187450408936,
                -0.5645440816879272
            ],
            [
                -2.161214590072632,
                -1.1089155673980713,
                -1.1486440896987915,
                -0.2593653202056885,
                0.5780054330825806,
                3.5642471313476563,
                1.2869101762771606,
                -0.4938744306564331,
                1.6929486989974976,
                -3.46480655670166,
                1.9242662191390991,
                -0.042843371629714966,
                2.285600185394287,
                -0.6776322722434998,
                0.42253541946411133,
                0.2401990294456482,
                0.7091628313064575,
                -3.3693487644195557,
                0.8536966443061829,
                -1.8385112285614014,
                2.6467056274414063,
                2.024292230606079,
                -3.43826961517334,
                1.4639710187911987,
                2.249769926071167,
                1.5326788425445557,
                2.697864532470703,
                -1.4470146894454956,
                1.0029966831207275,
                -1.8250210285186768,
                -1.4365332126617432,
                -1.418666124343872,
                -3.686011552810669,
                -0.5401030778884888,
                3.9283556938171387,
                -1.1641545295715332,
                -1.7708942890167236,
                -0.15682809054851532,
                1.1524361371994019,
                -0.35564929246902466,
                0.02078947424888611,
                1.0781476497650146
            ],
            [
                -1.363947868347168,
                -1.1040492057800293,
                -2.151944160461426,
                0.058646105229854584,
                1.4390439987182617,
                0.12265732139348984,
                -0.2632766366004944,
                0.43460559844970703,
                -1.5242141485214233,
                1.1249631643295288,
                -0.9187432527542114,
                2.209019660949707,
                -1.7966417074203491,
                -2.1487040519714355,
                -1.9242463111877441,
                2.189481019973755,
                0.25075584650039673,
                -0.5485135316848755,
                0.8676184415817261,
                2.431039571762085,
                -2.860943078994751,
                -0.667592465877533,
                -0.5153883695602417,
                0.35889336466789246,
                -3.386173725128174,
                0.8513350486755371,
                -3.5120689868927,
                -1.8988304138183594,
                1.9346505403518677,
                -2.1909871101379395,
                -2.5858170986175537,
                1.9742885828018188,
                0.0735735148191452,
                0.9922582507133484,
                1.965775728225708,
                -2.6214451789855957,
                4.547440528869629,
                1.44428551197052,
                1.1587896347045898,
                1.6239608526229858,
                0.2094799280166626,
                -1.1079941987991333
            ],
            [
                -1.4555354118347168,
                2.2401647567749023,
                -1.8613229990005493,
                -1.4942703247070313,
                -0.5750141143798828,
                3.440690279006958,
                -1.7696917057037354,
                -2.5879156589508057,
                -1.074621558189392,
                0.18815995752811432,
                -1.0854265689849854,
                1.7687788009643555,
                2.213711977005005,
                -2.8512566089630127,
                0.9305113554000854,
                0.36669981479644775,
                -3.369764804840088,
                -1.5716168880462646,
                4.7121992111206055,
                -0.6891017556190491,
                -3.338916301727295,
                1.5734422206878662,
                -1.9258437156677246,
                1.6755242347717285,
                1.292809009552002,
                2.1993119716644287,
                -1.7097578048706055,
                -3.939405679702759,
                0.06279734522104263,
                1.4112263917922974,
                0.40441715717315674,
                3.0306897163391113,
                -0.07851308584213257,
                -3.00978946685791,
                0.5592603087425232,
                -0.6197234392166138,
                1.953322410583496,
                -3.212320566177368,
                -2.152069568634033,
                1.8434778451919556,
                -0.25415220856666565,
                -3.0255091190338135
            ],
            [
                -1.178284764289856,
                -1.3076666593551636,
                -0.9994412064552307,
                -4.2997941970825195,
                2.839832305908203,
                0.6626980304718018,
                0.1057436466217041,
                -0.8919026851654053,
                -0.8574584126472473,
                -1.5164952278137207,
                1.0822808742523193,
                -4.624373912811279,
                -0.5228629112243652,
                0.8882390260696411,
                3.9098286628723145,
                0.6304057836532593,
                -0.9970167279243469,
                -0.029050767421722412,
                -0.7477008104324341,
                -0.27946799993515015,
                0.7609745860099792,
                -0.8890663981437683,
                -3.33903169631958,
                0.6886230111122131,
                0.06191394478082657,
                0.36972862482070923,
                -0.31566083431243896,
                -2.4345221519470215,
                -0.7487331032752991,
                2.7924697399139404,
                2.206402540206909,
                1.0010130405426025,
                0.27733737230300903,
                -1.788560152053833,
                1.160553216934204,
                1.7090600728988647,
                3.56066632270813,
                1.0557677745819092,
                0.6234893798828125,
                0.4461249113082886,
                -3.0400660037994385,
                -3.594440221786499
            ],
            [
                -1.8194372653961182,
                0.46189045906066895,
                -0.07053155452013016,
                -0.016588479280471802,
                0.9031786918640137,
                -3.092815399169922,
                3.048412322998047,
                -0.6843665242195129,
                -0.5773401260375977,
                -0.4471105933189392,
                -1.6044436693191528,
                -0.28687259554862976,
                -0.2111053317785263,
                -1.5442777872085571,
                1.1161407232284546,
                -1.4984304904937744,
                2.4032187461853027,
                0.01057453453540802,
                -2.849534511566162,
                -0.855933427810669,
                3.853165864944458,
                0.509246289730072,
                -0.8482072353363037,
                0.6267625689506531,
                0.4190627336502075,
                0.4868205785751343,
                1.7812373638153076,
                4.211115837097168,
                -1.8564095497131348,
                -0.43812060356140137,
                1.316746711730957,
                0.21483394503593445,
                1.3234331607818604,
                1.079882264137268,
                -2.358072280883789,
                0.32074567675590515,
                -3.280496597290039,
                2.640875816345215,
                3.4426522254943848,
                0.3589414358139038,
                2.6261439323425293,
                1.5774486064910889
            ],
            [
                0.6635888814926147,
                -0.31860464811325073,
                1.2054773569107056,
                4.581867694854736,
                1.11509108543396,
                1.6879287958145142,
                1.8808002471923828,
                1.542924165725708,
                0.4083358347415924,
                0.517243504524231,
                -1.1125025749206543,
                -2.791560649871826,
                4.871974468231201,
                0.0661197230219841,
                -1.1080669164657593,
                5.037397384643555,
                -1.4588866233825684,
                -4.525196075439453,
                -4.040919303894043,
                1.737980842590332,
                -0.2341708242893219,
                0.05848665535449982,
                -2.392500638961792,
                -1.5512851476669312,
                1.2046757936477661,
                -4.595923900604248,
                -1.2165051698684692,
                3.010531187057495,
                -1.338222622871399,
                1.770262360572815,
                1.8814220428466797,
                -1.8210432529449463,
                -0.09977413713932037,
                -0.19212162494659424,
                -1.4174045324325562,
                0.8926400542259216,
                -2.348785161972046,
                -1.0986058712005615,
                -1.4099483489990234,
                1.8853273391723633,
                -0.30677735805511475,
                -3.6406569480895996
            ],
            [
                1.5707523822784424,
                -1.3191778659820557,
                1.779090404510498,
                3.6389172077178955,
                0.466623991727829,
                -1.6272923946380615,
                2.7669389247894287,
                -0.20441755652427673,
                -0.056077539920806885,
                -0.7690823674201965,
                -1.234126091003418,
                0.4458214044570923,
                -0.09269757568836212,
                0.4387171268463135,
                -1.5980331897735596,
                1.1648030281066895,
                -2.073744773864746,
                2.4713962078094482,
                0.7973834276199341,
                -2.899726152420044,
                0.7596487402915955,
                0.3639782667160034,
                -1.9912365674972534,
                0.882186233997345,
                -1.4779605865478516,
                0.026450037956237793,
                1.946947455406189,
                -1.4457234144210815,
                0.9023016691207886,
                -1.7298519611358643,
                0.2308943271636963,
                2.258505344390869,
                -2.500864267349243,
                -0.0701606422662735,
                1.9539158344268799,
                2.838669538497925,
                -0.5737831592559814,
                -1.3253173828125,
                2.425891399383545,
                0.23800638318061829,
                -2.029132604598999,
                1.5298188924789429
            ],
            [
                0.47255751490592957,
                -2.8295817375183105,
                1.6371756792068481,
                3.811277151107788,
                -3.7442786693573,
                -2.812593460083008,
                1.7544889450073242,
                2.5744638442993164,
                -2.4847066402435303,
                -1.0333671569824219,
                1.0210275650024414,
                1.5843360424041748,
                -1.3496631383895874,
                -2.343485116958618,
                2.4191572666168213,
                2.2074337005615234,
                0.838536262512207,
                3.7503843307495117,
                2.5467112064361572,
                1.2515789270401,
                -0.24184903502464294,
                4.018921375274658,
                -6.09609317779541,
                -1.903069019317627,
                0.08151400089263916,
                0.7953191995620728,
                3.7205357551574707,
                -1.7444638013839722,
                -2.575913906097412,
                -1.676279067993164,
                -1.1804877519607544,
                2.6756088733673096,
                3.5558314323425293,
                -4.019276142120361,
                -2.601515293121338,
                1.845495581626892,
                -3.6013801097869873,
                4.881898880004883,
                1.4626140594482422,
                0.8567823767662048,
                -2.0948901176452637,
                0.08965790271759033
            ],
            [
                -4.655963897705078,
                3.9854485988616943,
                -1.3435720205307007,
                -1.9879077672958374,
                1.3551912307739258,
                -0.8290676474571228,
                -2.254263162612915,
                0.12313252687454224,
                0.9677590131759644,
                0.7407878041267395,
                -2.10086989402771,
                -0.4313246011734009,
                0.9318549633026123,
                1.901886224746704,
                -1.439581274986267,
                -0.7214740514755249,
                1.200749397277832,
                0.9000406265258789,
                0.8652287125587463,
                -0.8502742648124695,
                0.40417128801345825,
                1.52457857131958,
                -0.5872564315795898,
                0.05699452757835388,
                -0.6923482418060303,
                0.03492756187915802,
                -1.1953829526901245,
                0.24320408701896667,
                -0.6629248857498169,
                4.171019077301025,
                -0.6857357621192932,
                -1.4395644664764404,
                0.32436302304267883,
                -0.6789460182189941,
                -0.712766170501709,
                1.3918044567108154,
                -2.5547759532928467,
                -0.09610787034034729,
                -0.46105414628982544,
                3.2216036319732666,
                0.4494965076446533,
                -0.4175395965576172
            ],
            [
                1.7520085573196411,
                -1.1560685634613037,
                1.8221144676208496,
                2.1330690383911133,
                0.7784807682037354,
                2.7163846492767334,
                -0.7955552339553833,
                1.051134705543518,
                -2.1166460514068604,
                -3.4149317741394043,
                -1.3352646827697754,
                0.1166001558303833,
                0.28921908140182495,
                -5.071808338165283,
                0.33416372537612915,
                -4.059629440307617,
                1.091996431350708,
                -0.46632277965545654,
                2.825364589691162,
                -1.6727896928787231,
                -1.5852632522583008,
                2.0316131114959717,
                -4.3634748458862305,
                2.982046365737915,
                2.1627345085144043,
                -0.9103457927703857,
                1.1634432077407837,
                -1.8015743494033813,
                -2.76871919631958,
                -0.34732383489608765,
                0.024150270968675613,
                -2.387282133102417,
                -1.14871084690094,
                -1.1588760614395142,
                -0.8687490224838257,
                0.07647112011909485,
                2.156001329421997,
                -1.4250978231430054,
                -0.41933751106262207,
                -2.218515396118164,
                0.261599063873291,
                1.9592132568359375
            ],
            [
                1.3951653242111206,
                2.9022998809814453,
                0.24683403968811035,
                2.2151598930358887,
                -1.0501701831817627,
                4.3511881828308105,
                -2.205120801925659,
                0.4532965421676636,
                -1.5168448686599731,
                -0.08914458006620407,
                -1.2086575031280518,
                -0.4378757178783417,
                0.7011398077011108,
                -0.8101283311843872,
                -3.620173931121826,
                -2.03054141998291,
                -1.4142096042633057,
                -0.8639275431632996,
                -0.23973801732063293,
                -1.4341777563095093,
                -0.24658574163913727,
                -0.006176680326461792,
                -0.3263522982597351,
                0.807191789150238,
                3.399305582046509,
                -4.501264572143555,
                -1.9293307065963745,
                -1.809935450553894,
                0.026578634977340698,
                -3.6882681846618652,
                3.961489200592041,
                0.0006095319986343384,
                5.038352012634277,
                -0.6066855788230896,
                1.0660892724990845,
                -0.4450327754020691,
                4.073913097381592,
                -1.3246303796768188,
                -3.9146642684936523,
                4.044483184814453,
                0.4185068905353546,
                -1.3657811880111694
            ],
            [
                -0.21984973549842834,
                -1.0393341779708862,
                2.576956272125244,
                1.6458288431167603,
                -3.691436290740967,
                0.10347607731819153,
                3.167711019515991,
                -1.2016143798828125,
                -0.7228517532348633,
                2.3880960941314697,
                2.8685684204101563,
                2.4185004234313965,
                1.4143741130828857,
                1.4149324893951416,
                -2.7580149173736572,
                -3.856597661972046,
                -2.2567553520202637,
                2.9268381595611572,
                -1.4777899980545044,
                -1.661596417427063,
                0.6535691022872925,
                -4.181282043457031,
                2.6221418380737305,
                -0.913395345211029,
                -1.7919156551361084,
                -1.1408809423446655,
                1.056053638458252,
                0.6765470504760742,
                -1.7814160585403442,
                1.5093668699264526,
                -4.5498833656311035,
                1.2722539901733398,
                -0.14493656158447266,
                0.31803202629089355,
                0.6130808591842651,
                -0.039928287267684937,
                -1.1394953727722168,
                -1.4255849123001099,
                -0.832358181476593,
                -1.3821152448654175,
                -0.6432415843009949,
                0.31161123514175415
            ],
            [
                2.0417442321777344,
                -0.7358839511871338,
                0.6744969487190247,
                -1.4268535375595093,
                1.4148383140563965,
                -1.37728750705719,
                -2.391301393508911,
                -1.6243677139282227,
                0.7083494663238525,
                -2.238953113555908,
                2.832308769226074,
                -1.5101120471954346,
                0.8385927081108093,
                1.2439274787902832,
                -1.9708139896392822,
                0.16281992197036743,
                0.82112717628479,
                1.7216918468475342,
                0.6123586893081665,
                0.680569589138031,
                1.4775782823562622,
                0.7858675122261047,
                1.9926427602767944,
                3.388833999633789,
                0.1372377872467041,
                2.4754104614257813,
                -2.4871420860290527,
                -1.0982962846755981,
                1.3260786533355713,
                1.966812014579773,
                -0.8226192593574524,
                -0.18199481070041656,
                0.41759246587753296,
                2.0796868801116943,
                -0.4088483452796936,
                0.9091076850891113,
                -1.3052982091903687,
                0.19251801073551178,
                -1.005820631980896,
                -0.9465010166168213,
                3.561722755432129,
                -4.281145095825195
            ],
            [
                1.169348955154419,
                -1.7977582216262817,
                -0.4573000967502594,
                -5.067618370056152,
                3.76643443107605,
                -1.2091039419174194,
                -3.0175490379333496,
                1.181917667388916,
                -1.717719316482544,
                -0.1627943217754364,
                -2.7018377780914307,
                1.8223414421081543,
                1.0426006317138672,
                -1.43211829662323,
                -2.8887765407562256,
                1.41170072555542,
                -3.739920139312744,
                2.39516544342041,
                -0.476568341255188,
                0.33822962641716003,
                0.04917674511671066,
                0.17195838689804077,
                -1.5839648246765137,
                0.3342071771621704,
                3.8909103870391846,
                2.9521100521087646,
                -1.6519427299499512,
                -0.03303562104701996,
                -1.7358607053756714,
                -3.7560360431671143,
                -0.5063561797142029,
                -2.0704002380371094,
                -2.8169498443603516,
                1.167445182800293,
                -0.9426896572113037,
                3.4061877727508545,
                -0.1859564632177353,
                -0.4965665638446808,
                -0.34295690059661865,
                1.3992382287979126,
                -4.379201889038086,
                2.308199882507324
            ],
            [
                2.8507027626037598,
                -1.5622482299804688,
                0.42675352096557617,
                -1.3767870664596558,
                -2.2320942878723145,
                -4.052919387817383,
                1.954388976097107,
                -2.0617992877960205,
                -0.01685868203639984,
                -2.79594087600708,
                -0.013066500425338745,
                -2.4744694232940674,
                2.3801426887512207,
                -1.4350790977478027,
                -0.464124858379364,
                1.7394568920135498,
                -0.9192684292793274,
                1.361022710800171,
                -0.27000337839126587,
                -1.0261852741241455,
                0.041556455194950104,
                0.7122368812561035,
                -0.904808759689331,
                3.6227495670318604,
                -0.9993206858634949,
                0.8472492694854736,
                -0.45234546065330505,
                0.4116334915161133,
                -0.46435096859931946,
                0.7318621873855591,
                0.3595506548881531,
                -0.710406482219696,
                1.9703210592269897,
                0.4215109348297119,
                -3.432030200958252,
                -3.2575345039367676,
                -0.29646122455596924,
                -0.0763288289308548,
                -0.2902061939239502,
                -1.3633546829223633,
                0.1185767650604248,
                -1.1123191118240356
            ],
            [
                3.627793312072754,
                0.4496190845966339,
                2.857370376586914,
                -0.1335311084985733,
                1.1160266399383545,
                -2.042100667953491,
                0.4088468849658966,
                2.912651777267456,
                -3.3183975219726563,
                -2.9485907554626465,
                -1.2519450187683105,
                -0.5251164436340332,
                3.9815006256103516,
                -0.16613900661468506,
                1.2820584774017334,
                -1.196932077407837,
                2.5494368076324463,
                -2.0354721546173096,
                -5.308401107788086,
                -1.197784423828125,
                0.44207334518432617,
                1.9045312404632568,
                -4.380886077880859,
                -2.854763984680176,
                -0.7316915988922119,
                -0.09871833026409149,
                -1.1572424173355103,
                3.213188648223877,
                -0.4066551923751831,
                -1.4388757944107056,
                0.9863640666007996,
                3.768095016479492,
                -1.532655119895935,
                1.952724814414978,
                1.1268483400344849,
                -2.0764474868774414,
                -0.6026777029037476,
                3.3286542892456055,
                -0.8522077798843384,
                -1.583235740661621,
                -2.624454975128174,
                -0.08738739788532257
            ],
            [
                0.8444567918777466,
                -1.4973691701889038,
                0.7137935161590576,
                0.615543782711029,
                1.8336889743804932,
                -1.8201314210891724,
                -0.8214477300643921,
                -0.13903486728668213,
                -0.5703408718109131,
                0.8215312361717224,
                1.6028485298156738,
                2.795849323272705,
                -0.28999876976013184,
                -0.6267970204353333,
                0.4613831639289856,
                -0.3713574707508087,
                0.0800618827342987,
                -0.974635124206543,
                1.1609270572662354,
                3.741359233856201,
                -1.975935697555542,
                -0.33461669087409973,
                0.8559954762458801,
                -1.3813625574111938,
                0.4659433960914612,
                1.784918189048767,
                -3.5857651233673096,
                -0.6501165628433228,
                -1.7892200946807861,
                -1.2632675170898438,
                -0.8853367567062378,
                1.505663514137268,
                -0.3551664352416992,
                -0.735183835029602,
                -1.7141635417938232,
                0.18108823895454407,
                0.42722874879837036,
                0.3998846113681793,
                -2.5449764728546143,
                -0.4808351397514343,
                -2.0707592964172363,
                1.444667935371399
            ],
            [
                -2.095757484436035,
                -2.408170223236084,
                -0.5575631260871887,
                -1.021402359008789,
                -3.152329921722412,
                0.43146803975105286,
                1.426255464553833,
                -0.7003235220909119,
                -0.0029441118240356445,
                -1.4086560010910034,
                1.9897998571395874,
                0.21491739153862,
                2.6974003314971924,
                -1.4624453783035278,
                1.0498831272125244,
                0.06929364800453186,
                -1.4268685579299927,
                -0.33410876989364624,
                0.07113105058670044,
                -1.900393009185791,
                -1.0091487169265747,
                -1.6857414245605469,
                -0.9676069617271423,
                0.29478201270103455,
                -1.731021523475647,
                -4.8652119636535645,
                0.17904198169708252,
                0.0592578649520874,
                -1.4203284978866577,
                -2.530142307281494,
                -0.50157231092453,
                -0.7936559319496155,
                -0.13309526443481445,
                -1.313657522201538,
                -1.6079987287521362,
                -1.9426106214523315,
                -4.375984191894531,
                -1.066262125968933,
                0.8824136257171631,
                0.11669138818979263,
                1.2843985557556152,
                -1.2511014938354492
            ],
            [
                -0.7787982821464539,
                -2.1543047428131104,
                -1.727317452430725,
                -1.5422693490982056,
                -3.6904895305633545,
                0.33508315682411194,
                0.04176262021064758,
                -1.697829008102417,
                0.40140867233276367,
                -0.8695392608642578,
                1.4357213973999023,
                -1.1863746643066406,
                1.9220590591430664,
                -2.79449725151062,
                -1.6246391534805298,
                -0.4411074221134186,
                1.2930588722229004,
                1.3704497814178467,
                1.2690925598144531,
                -0.3291189670562744,
                2.4553029537200928,
                -0.7716509103775024,
                4.0598297119140625,
                -1.4086443185806274,
                0.24515566229820251,
                -3.2066054344177246,
                -0.8765175342559814,
                2.526979923248291,
                2.1750571727752686,
                -0.8442131280899048,
                -0.6111930012702942,
                -1.6800739765167236,
                -0.5675202012062073,
                2.861760139465332,
                0.24381333589553833,
                -1.8773155212402344,
                -2.3023719787597656,
                0.30175524950027466,
                -1.492195963859558,
                0.8122140765190125,
                0.19958730041980743,
                0.06438431143760681
            ],
            [
                2.5103600025177,
                1.7396090030670166,
                -0.6885987520217896,
                1.096232533454895,
                -2.0737218856811523,
                0.8728566765785217,
                -2.1519598960876465,
                -0.09603479504585266,
                0.051514267921447754,
                -1.2709354162216187,
                -0.8667962551116943,
                0.5079234838485718,
                0.9015171527862549,
                1.459657907485962,
                -4.278979301452637,
                0.8984346985816956,
                -1.290461778640747,
                -1.5679291486740112,
                -2.799960136413574,
                2.6135263442993164,
                -1.1318235397338867,
                -1.387885570526123,
                2.5385022163391113,
                3.7023143768310547,
                0.19999058544635773,
                -0.8738448619842529,
                -1.0224844217300415,
                -0.7574194669723511,
                2.702465295791626,
                1.9710274934768677,
                -0.6404221057891846,
                2.778527021408081,
                -2.7158143520355225,
                1.3690232038497925,
                -0.43597012758255005,
                -1.285887360572815,
                0.7870872020721436,
                0.13804826140403748,
                2.003117322921753,
                -2.0672712326049805,
                -1.539969801902771,
                3.6584486961364746
            ],
            [
                -3.259694814682007,
                -1.1216716766357422,
                -0.42789700627326965,
                -1.1691173315048218,
                -0.5883695483207703,
                -1.573811411857605,
                0.391286700963974,
                2.195110559463501,
                -0.5715785026550293,
                -0.05657336115837097,
                -1.1042466163635254,
                -0.8493729829788208,
                0.7850931882858276,
                0.4593459963798523,
                2.93538761138916,
                0.622938871383667,
                0.8437501192092896,
                0.12190422415733337,
                3.4791204929351807,
                -2.1020455360412598,
                -3.29573655128479,
                -0.019300252199172974,
                0.49275267124176025,
                2.3290953636169434,
                -1.293339729309082,
                -1.1862478256225586,
                -1.2098239660263062,
                -1.0704073905944824,
                2.189450263977051,
                1.0550451278686523,
                -1.3194197416305542,
                -0.636435329914093,
                -0.5748039484024048,
                -2.6772453784942627,
                2.7262508869171143,
                1.7453761100769043,
                0.737441897392273,
                2.6153295040130615,
                -2.031313180923462,
                -0.5409560203552246,
                -0.5954901576042175,
                -0.5646525025367737
            ],
            [
                -1.3025963306427002,
                -3.8910329341888428,
                0.3415783643722534,
                -0.929696798324585,
                0.4777718186378479,
                -2.209815502166748,
                -1.0544636249542236,
                3.089958429336548,
                1.5765255689620972,
                -1.2376655340194702,
                -1.7605737447738647,
                -1.3942228555679321,
                0.17951956391334534,
                -2.447652578353882,
                1.1869956254959106,
                -0.10494094341993332,
                1.3693808317184448,
                -1.9494833946228027,
                1.4905954599380493,
                -0.9961128234863281,
                -3.0119757652282715,
                1.4503828287124634,
                -1.0359220504760742,
                -0.1997637003660202,
                3.0280160903930664,
                -0.866852879524231,
                -2.127950429916382,
                -2.535552740097046,
                -0.350053608417511,
                0.7725982069969177,
                -1.6284970045089722,
                0.889887809753418,
                -0.18531933426856995,
                -2.5541234016418457,
                2.3616580963134766,
                -0.4515898823738098,
                0.5755375027656555,
                3.2376842498779297,
                -0.21376042068004608,
                0.14653295278549194,
                -4.124168872833252,
                -0.07759755849838257
            ],
            [
                -3.693551778793335,
                1.8700913190841675,
                -0.12997651100158691,
                -0.3972046971321106,
                -2.276240348815918,
                -0.8059647083282471,
                -0.6497718095779419,
                -0.5921317338943481,
                -0.31498610973358154,
                0.02042996883392334,
                1.6248174905776978,
                -0.42423170804977417,
                3.3188869953155518,
                3.71553373336792,
                0.07299467921257019,
                1.1182035207748413,
                1.2386361360549927,
                -0.6953479647636414,
                -1.1708650588989258,
                -2.810506820678711,
                -1.3809125423431396,
                -1.857974648475647,
                0.34133532643318176,
                1.822016716003418,
                1.3003208637237549,
                2.014395236968994,
                0.7687498927116394,
                0.19135895371437073,
                -1.812069296836853,
                0.5245939493179321,
                -3.665219306945801,
                -2.927170991897583,
                2.7160940170288086,
                -2.154330253601074,
                -1.0451282262802124,
                0.6538246273994446,
                0.9187538027763367,
                -1.647572636604309,
                1.4625446796417236,
                -1.3006601333618164,
                0.44914937019348145,
                0.7000911235809326
            ],
            [
                2.020068407058716,
                -1.4331868886947632,
                -0.14363810420036316,
                -2.6124207973480225,
                2.480607271194458,
                0.5923658013343811,
                -0.0462212860584259,
                0.8410482406616211,
                -1.8158808946609497,
                0.42585936188697815,
                2.946509838104248,
                -0.6451207399368286,
                -2.1104915142059326,
                0.8897321820259094,
                -1.1517680883407593,
                1.8236690759658813,
                2.6225316524505615,
                1.3807704448699951,
                1.9094806909561157,
                -3.069706678390503,
                0.5888634920120239,
                1.3436336517333984,
                1.9837048053741455,
                -0.39546364545822144,
                4.186281204223633,
                0.6037594079971313,
                0.28790152072906494,
                1.1492581367492676,
                -1.7186193466186523,
                -2.3504929542541504,
                -0.9915861487388611,
                -0.5314674973487854,
                0.4075549840927124,
                -0.5847379565238953,
                0.5977340936660767,
                2.175649404525757,
                -0.37095779180526733,
                -1.2479304075241089,
                -1.5301560163497925,
                1.0832911729812622,
                -0.6480005979537964,
                -4.359016418457031
            ],
            [
                5.2274041175842285,
                -0.5392518043518066,
                1.4231640100479126,
                0.07236340641975403,
                0.17753157019615173,
                -0.287598192691803,
                -4.208078384399414,
                -1.1385327577590942,
                -0.9801143407821655,
                0.04910758137702942,
                -0.5994383096694946,
                -0.5714989900588989,
                2.9864439964294434,
                -3.186617612838745,
                -1.8332526683807373,
                -3.1065080165863037,
                -2.3743016719818115,
                1.5242645740509033,
                1.744930386543274,
                -1.1440021991729736,
                0.5241891741752625,
                1.206586241722107,
                -0.2546997666358948,
                3.276390552520752,
                -1.6460920572280884,
                -2.2069942951202393,
                2.3904004096984863,
                -1.9836704730987549,
                0.6567577123641968,
                -0.09747679531574249,
                -1.9771684408187866,
                2.2556025981903076,
                -1.6161527633666992,
                -2.1416895389556885,
                -0.9557391405105591,
                1.534916877746582,
                -0.18091793358325958,
                -2.2999281883239746,
                -1.7331515550613403,
                0.7204198837280273,
                -4.137609481811523,
                0.6182070970535278
            ],
            [
                -2.2904176712036133,
                0.3596104085445404,
                0.0456220805644989,
                -1.489119052886963,
                -1.5250990390777588,
                -3.92972469329834,
                -0.014408260583877563,
                -0.480492502450943,
                -2.12679386138916,
                1.0238914489746094,
                -1.8152868747711182,
                0.06382887065410614,
                -0.7083616852760315,
                -2.0409390926361084,
                3.237787961959839,
                1.2279605865478516,
                0.2021583616733551,
                0.22128528356552124,
                0.42416220903396606,
                2.4217865467071533,
                0.9440541863441467,
                -0.7617645859718323,
                2.6169731616973877,
                -0.34845542907714844,
                1.2607173919677734,
                0.8051560521125793,
                -0.2769988179206848,
                -0.06588608026504517,
                1.234155297279358,
                -2.404841899871826,
                -1.2165398597717285,
                -0.7044383883476257,
                -1.7021167278289795,
                -1.3243606090545654,
                -2.178903102874756,
                0.8979610204696655,
                1.7983452081680298,
                -1.2737597227096558,
                -1.049351453781128,
                -1.0192726850509644,
                -0.9542422294616699,
                0.2678415775299072
            ],
            [
                -1.29074227809906,
                -0.36496055126190186,
                -1.0882811546325684,
                1.26212477684021,
                -1.086014986038208,
                -1.2884212732315063,
                1.1663802862167358,
                0.6773483753204346,
                0.39155495166778564,
                -1.9674046039581299,
                -1.0551878213882446,
                -2.365281820297241,
                -0.6746688485145569,
                -1.5322577953338623,
                0.19279862940311432,
                0.8006434440612793,
                -1.7235403060913086,
                -2.817272424697876,
                3.1385631561279297,
                -3.769399642944336,
                1.5612101554870605,
                2.1018617153167725,
                -2.837897539138794,
                -1.347104787826538,
                0.10085582733154297,
                -0.9937822818756104,
                4.186398983001709,
                -3.5980417728424072,
                -3.551482915878296,
                0.6777246594429016,
                1.0960378646850586,
                0.6594953536987305,
                -2.845548391342163,
                1.1080105304718018,
                -0.19558344781398773,
                -3.810399055480957,
                0.9665278792381287,
                -1.618349552154541,
                -2.974937677383423,
                0.3120552897453308,
                2.0150306224823,
                -4.113915920257568
            ],
            [
                -3.2937183380126953,
                1.0808669328689575,
                -1.2569903135299683,
                -4.031573295593262,
                -1.7136768102645874,
                0.521030068397522,
                2.6486470699310303,
                1.2082220315933228,
                1.2028862237930298,
                -2.9226438999176025,
                -2.466914415359497,
                0.08605270087718964,
                -2.275933027267456,
                -0.3674830198287964,
                -0.7446449995040894,
                4.358194351196289,
                1.9625064134597778,
                -6.8092756271362305,
                -0.40622198581695557,
                2.747830629348755,
                -3.9240517616271973,
                0.5941057205200195,
                -3.207939386367798,
                -4.122630596160889,
                -2.4144539833068848,
                0.7032978534698486,
                -1.864689826965332,
                3.445298910140991,
                -2.0059568881988525,
                -0.17894262075424194,
                -0.2494872659444809,
                -0.2130795270204544,
                -1.1488159894943237,
                -3.4088175296783447,
                -0.8176032304763794,
                2.3433799743652344,
                -1.7276263236999512,
                3.8596036434173584,
                0.7395230531692505,
                0.2504216432571411,
                -1.5657877922058105,
                -0.8037769198417664
            ],
            [
                0.7323216199874878,
                0.16179656982421875,
                -1.7054131031036377,
                1.7026954889297485,
                0.12154781818389893,
                -0.4905746579170227,
                2.6218652725219727,
                -0.07977050542831421,
                -0.6473605632781982,
                1.0596776008605957,
                -0.7398104667663574,
                2.4050559997558594,
                1.599597692489624,
                -0.9722806811332703,
                -0.49512624740600586,
                -0.6802893877029419,
                -2.349597454071045,
                0.5910582542419434,
                -4.574721336364746,
                0.11474773287773132,
                1.0079033374786377,
                1.2088360786437988,
                1.5077749490737915,
                -0.21722863614559174,
                2.2418906688690186,
                -0.7475443482398987,
                -3.520263910293579,
                0.3452632427215576,
                4.427241802215576,
                -1.255231499671936,
                1.2638969421386719,
                2.699777841567993,
                -1.096406102180481,
                2.3458974361419678,
                2.2402772903442383,
                -1.9912242889404297,
                4.526865005493164,
                2.42057466506958,
                -1.248781442642212,
                2.8826005458831787,
                1.5709986686706543,
                -2.041086435317993
            ],
            [
                -5.986032485961914,
                1.5488827228546143,
                0.7159411311149597,
                5.3327507972717285,
                -1.1181230545043945,
                -2.504089117050171,
                1.845072627067566,
                -4.219643592834473,
                -1.5078952312469482,
                0.3978821933269501,
                -1.6063810586929321,
                1.811211109161377,
                -0.393057256937027,
                -0.9050142765045166,
                2.404292106628418,
                0.017670437693595886,
                -1.8449653387069702,
                -0.9426205158233643,
                -2.819474697113037,
                -3.1998345851898193,
                -0.36408179998397827,
                2.707998037338257,
                0.6238551735877991,
                -1.5720478296279907,
                1.9231935739517212,
                3.465259313583374,
                0.49869269132614136,
                -0.16332003474235535,
                0.6432321667671204,
                -0.18820112943649292,
                -3.0013818740844727,
                -1.0603926181793213,
                -1.855911135673523,
                -3.400291681289673,
                -0.3217422068119049,
                0.977461576461792,
                -0.1837039291858673,
                -0.06730583310127258,
                1.4442684650421143,
                2.4531991481781006,
                -2.0920333862304688,
                -2.0254855155944824
            ],
            [
                1.6938084363937378,
                -1.465280532836914,
                -0.5555837750434875,
                -3.1299245357513428,
                0.31413811445236206,
                -2.5038774013519287,
                1.1181159019470215,
                -2.957174301147461,
                2.1393303871154785,
                0.6731963157653809,
                5.696751594543457,
                2.1201634407043457,
                -0.41763439774513245,
                2.5590555667877197,
                -4.855941295623779,
                0.9647615551948547,
                -1.7446426153182983,
                -0.19700601696968079,
                -1.983332872390747,
                4.113513469696045,
                2.5450422763824463,
                -2.9643869400024414,
                -1.840178370475769,
                -2.4571754932403564,
                -2.2467875480651855,
                1.4040809869766235,
                -0.42549705505371094,
                -2.7459890842437744,
                3.051736831665039,
                -4.506758213043213,
                -2.331725835800171,
                2.469404458999634,
                -1.0282474756240845,
                3.140833854675293,
                -1.4683045148849487,
                2.56947922706604,
                0.9017684459686279,
                -0.7550488710403442,
                -0.9080823659896851,
                -2.0952277183532715,
                -0.11305809020996094,
                0.8299484252929688
            ],
            [
                1.6937544345855713,
                2.088517427444458,
                0.13892681896686554,
                1.1126981973648071,
                0.24358242750167847,
                4.004037857055664,
                2.6181623935699463,
                0.6662020087242126,
                -2.2672817707061768,
                -2.89841628074646,
                0.14626966416835785,
                -1.3579068183898926,
                3.2939138412475586,
                -0.37012264132499695,
                -2.185638427734375,
                1.1499468088150024,
                0.9326322078704834,
                -3.676076650619507,
                -1.78316330909729,
                1.2491121292114258,
                -0.8296012878417969,
                0.6018840670585632,
                2.6747758388519287,
                0.2702219486236572,
                2.5610949993133545,
                -0.6696207523345947,
                -1.2727291584014893,
                -0.6509106159210205,
                -1.211556315422058,
                0.7371513247489929,
                -2.6756274700164795,
                0.7573862671852112,
                4.609004974365234,
                2.5099010467529297,
                2.250147581100464,
                -0.3539653718471527,
                -0.6297648549079895,
                4.328917980194092,
                0.15339726209640503,
                0.10112276673316956,
                1.615443468093872,
                0.1073366105556488
            ],
            [
                -0.7225549221038818,
                -1.2377887964248657,
                -1.3065245151519775,
                -1.1262866258621216,
                1.8301920890808105,
                4.597280025482178,
                2.2264742851257324,
                -0.2530291974544525,
                1.953696370124817,
                1.324240803718567,
                3.4215505123138428,
                -3.162579298019409,
                0.11359193176031113,
                1.039505124092102,
                2.7674458026885986,
                5.517342567443848,
                -0.2133312225341797,
                0.11164930462837219,
                0.7678845524787903,
                0.03262639790773392,
                -0.9501069188117981,
                -3.63820219039917,
                -0.447451114654541,
                -1.1047414541244507,
                -0.5960484147071838,
                -3.4205799102783203,
                -0.8724341988563538,
                1.2378462553024292,
                -0.6263977289199829,
                -0.7740954756736755,
                2.0041189193725586,
                0.36042463779449463,
                -0.15442298352718353,
                -1.8406982421875,
                1.65058434009552,
                -3.6815593242645264,
                -1.0494165420532227,
                2.0284082889556885,
